73697497,-0.015343117
103324134,0.0010369695
69479173,-0.004483786
91986818,0.025964005
102543046,-0.00062142237
39346472,0.008016596
135575378,-0.0044689886
178179071,0.017332574
124237897,0.0031817444
151437010,0.0022137978
163621268,0.011043414
102515574,-0.0009580684
107963214,-0.006289885
120857959,0.003953178
14953978,-0.003278329
103877634,0.0020251453
102408952,-0.0009853089
40591901,-0.0049514216
102555879,-0.0019257602
170747450,-0.005404232
103324034,0.0019223519
84691471,-0.008478956
102846735,-0.0005223748
93497173,-0.0052359295
40877457,-0.0189347
12481179,-0.008039119
21525575,-0.015457089
7531809,0.00577608
102609762,-0.0025172294
102836747,-0.001291901
25066355,0.0072683585
175747568,-0.015182794
88593597,0.004180299
59358963,-0.014226683
185843026,-0.0015826124
33808872,0.01957487
99828588,0.0094697485
161246156,-0.014424322
140633001,0.0036520117
60918773,0.01593217
55506626,0.011348973
137476501,-0.009495363
116324786,0.00053614855
108774360,0.006217572
180099945,-0.0015977576
102943660,-0.00072472694
125005058,-0.0050808047
18917353,0.017606441
101422959,0.0055810297
151660434,-0.004561297
190400607,-0.011692701
130725996,-0.014209573
101533467,0.0102383895
22738281,-0.0036104557
103516555,-0.00019411746
159651122,-0.010334284
110574371,-0.015930224
164164532,0.019765755
99214522,-0.0036839044
15334225,-0.0003891053
113401046,-0.0013043227
102787671,-0.0010463593
150711273,0.007512788
102579807,-0.00063518365
154384148,0.004958825
161379757,0.006120468
150139239,-0.0010062235
156998610,-0.0002641258
45169163,-0.012423938
89234021,-0.003815894
103877352,0.0014394306
68566057,-0.0011460506
93164568,-0.017974472
103025291,-0.00051677704
104614073,-0.01338338
124856248,-0.016642246
39212200,0.0024780738
21225871,0.00095993705
145454428,0.039491285
96286057,-0.0036897622
29035951,0.008572584
103051959,0.0021735749
44970517,0.007437195
19526990,-0.010084922
66232232,-0.006378524
7418170,-0.013956964
113822357,-0.0067139575
15219578,0.0030827213
133347336,0.0059617637
101338225,0.003921137
50928856,-0.012018196
12636659,0.0016563601
40200558,-0.029421926
24928868,-0.003655495
152366428,-0.008263861
102922743,0.000050969014
71138507,0.008621721
182000920,0.017928611
174454977,-0.012473302
16148418,-0.008901046
103797567,0.00059889234
151353336,0.010538251
22122878,-0.003527486
183464467,-0.00014799272
35666446,0.0057552815
103515798,-0.0013979832
37250754,-0.013804496
139025606,0.011473089
194393649,-0.016552776
12736395,-0.007459524
130448691,-0.0077828625
35097750,-0.0020559658
3073470,0.007429009
103569243,0.0011622483
87483796,0.014629953
56054202,0.0072131488
61165048,0.014973085
2401605,0.0026389721
164581008,0.006310709
18800254,0.0073001846
106819030,0.009503979
182520221,-0.0020102388
171746252,-0.0063915392
167915843,0.012224356
22998244,-0.0008533946
103403993,0.0017369952
110368966,-0.0013337249
167336269,0.011415219
134960469,0.013178618
146295922,-0.0061989436
109484076,0.013776346
80414212,-0.0009144606
107435611,-0.00009994042
103596037,0.000042041225
113026893,0.0065290956
101450291,-0.00065104984
8400829,0.004047149
191561896,-0.0022854954
115595651,-0.018862328
128147958,-0.007346514
73677253,0.031573735
8950385,0.013350187
160750537,-0.0011647306
103308861,0.00095103856
167799754,0.007710346
4694778,-0.009313733
37829524,-0.01124973
4356847,-0.00909168
102434660,0.0012300923
104179651,0.0008361166
177130335,0.005323395
122406039,0.0059301713
71327292,0.006315193
193004673,0.0066772755
81475486,0.0057387715
145268802,0.004511643
101905901,-0.014800355
11957861,-0.00021670248
125300390,-0.0021359304
158746659,0.00089504395
102393780,-0.0017714694
197581316,-0.022771077
180836931,0.0062346896
196950846,-0.004431885
115100379,0.016153837
71042963,0.0020920872
97945897,0.0010259928
60982386,0.0066967364
13063615,0.0010149518
92252615,0.01732127
103543104,0.000544724
128445328,-0.0039855856
102393998,-0.0006296901
21363253,-0.013349076
97118147,-0.005922165
22536624,0.0111982655
72538225,-0.021633565
3577118,0.0014589098
86527172,0.0015368818
75943436,-0.036934327
121624774,0.013152886
58318121,0.011307177
76530208,0.0016549163
27169857,-0.016166745
101347720,0.0032428694
162877021,-0.011184094
91631089,0.009363036
113260347,0.01084184
114200432,-0.01306064
144808154,0.0018169534
103583235,-0.00030849525
92446060,-0.0042118058
38148813,0.02193442
108789055,0.010000693
193857832,0.0010637135
24730532,-0.0045851883
102085851,0.0024866867
130231439,0.014027078
148877103,0.0028592928
83464379,0.0038394278
135892559,-0.01947027
82744216,-0.003392955
21850817,0.000035096073
102945962,-0.009059795
66666558,-0.00027782985
11499033,0.012318371
194131320,0.00264498
102595887,-0.0003384243
191919273,-0.0036176385
102197538,0.0029304456
30867932,0.00086478575
181714444,-0.0025254232
139112728,0.0019111544
39970426,0.00009469441
171293816,0.005156707
10814239,-0.00082107063
58448467,0.009134061
131558374,0.016670153
49040569,-0.008415213
97058691,0.011504831
125913748,0.0056641893
9979873,0.001201355
191774642,0.0028840955
3161171,-0.016460652
159022470,0.014908697
189146397,0.0018223522
2238934,0.035310827
188110753,-0.0037950731
97646592,0.011152274
175205644,0.0034374893
103985982,-0.010575384
198167016,0.01571038
136504030,0.013275704
12257444,0.014456192
80078192,0.004729878
112576988,-0.0031812694
73315622,0.004041446
51707955,0.010337647
108956589,0.014346
80430751,0.0050715893
188704804,0.000021241276
38768995,0.0014075739
195190739,-0.0011060807
137598659,-0.0040185694
110798147,-0.013191769
88257310,0.0033939125
152306045,-0.0056157457
52766339,-0.005312524
102487419,-0.008341428
58875371,-0.0042721946
197993731,-0.01711426
27112699,0.004416182
180270196,-0.016248293
103763147,-0.003406885
102083194,0.004540016
92882678,0.008070543
57249266,-0.0025463786
32166572,-0.011236818
99770997,-0.005928946
160018600,0.0061799125
88729320,0.015241755
93846067,0.010082577
185827868,-0.0025239715
20121420,-0.006770413
74570863,0.030081052
21956434,-0.005764921
114278763,0.010260789
40969559,0.0020802605
87581237,-0.0037437454
131900344,0.010885318
191185155,-0.0014027741
12722169,-0.0054965476
44262744,0.00028010874
51888367,-0.00097371277
178671159,-0.0076174294
16196471,0.015977765
25378230,-0.00092272175
69073874,0.0055758213
14703813,-0.010413444
149261392,-0.0039981683
162830214,0.009617077
154446583,0.0057757227
133099688,-0.00944747
183602509,0.0013659139
657032,0.0056809257
102836253,0.0011554641
103123654,0.009521082
110672253,-0.0014303973
122606070,0.0125204045
103593142,-0.0012238589
174029073,0.0007561923
180159180,-0.0033431905
179682252,-0.024034433
35614649,-0.0021110654
103569818,-0.001482471
72719766,-0.001748262
93760604,-0.0028788543
182810557,0.0016205976
5470737,0.002839038
80253476,0.012898709
30434923,0.004023547
173601936,-0.0034484249
102836361,-0.0076913172
52901502,-0.0013975075
45584843,-0.0055099754
57325039,-0.009548065
140839031,0.0017738076
10216936,0.007730068
82405502,-0.011429954
67944922,0.00863018
18286080,-0.0069233477
85050297,0.006502508
173846407,0.016985808
78668462,-0.012335131
101449651,0.003193153
139554389,-0.012478647
146597242,-0.011044726
24225099,0.0068847495
1014268,0.010236681
103987528,0.0020272667
131957236,-0.008908952
23166199,0.000026551257
39797684,-0.0006178962
74923761,0.016457343
62176707,-0.0023570226
103930624,0.0007215425
165253520,-0.010855927
126878076,0.0071660653
84699273,0.030077828
171203960,0.009079505
43145918,-0.0021769882
101396614,0.0006974624
182393943,-0.0042488896
192420020,0.0057189763
133546474,-0.004876394
102394007,-0.001016752
197278740,0.000990654
186733251,-0.016410748
110202504,-0.0019228236
46392921,-0.007283435
78622202,0.017459515
72075525,0.004125063
158616403,0.010131701
114689206,0.014276832
70588308,-0.0070417104
28109734,0.009771157
28046408,-0.0064366916
43835474,-0.012288226
152849759,-0.00704444
102755280,0.0023487138
22961915,-0.006005488
103475525,-0.0006726759
47695982,-0.01272455
162256823,0.0111940345
144921447,-0.0134389885
167785009,0.01480401
194061393,0.0031229549
181530893,-0.008130618
73801045,-0.0005572174
100427642,-0.003972504
46389142,-0.0033796136
102380615,0.000050969014
116726325,0.00042416822
169408312,-0.00074543327
158021651,-0.009111647
121953150,-0.0012075762
196258635,0.0017358359
132112747,0.02730109
4966125,-0.016187118
48323590,0.019881392
37766044,0.011526235
120650367,-0.004101706
129730866,-0.0026750409
51176600,0.0056176577
192469274,0.014038371
133223002,-0.020625327
162468353,-0.016261227
110312348,0.008599
191745192,-0.0041400786
28696838,-0.003757128
139397679,-0.008287027
157373735,0.013483403
125289575,0.000691763
190979584,-0.004872288
103515693,0.0023544205
70078519,-0.011050827
172452335,0.014358385
33846212,0.0024999056
148972840,-0.0056319544
93109474,0.001378257
69683788,0.0006704373
23691337,-0.0032671937
131221461,0.011406322
152425295,0.013520313
65588221,-0.0026893583
139140576,0.009894722
104120370,-0.00020009984
91202223,-0.008031989
102595662,0.00085478125
120675637,-0.0013939949
5235929,-0.0013650493
67481746,-0.008229572
12979917,-0.0007606194
111154266,0.010249211
33135231,-0.0017988492
137605718,0.017210882
110029274,-0.013329806
160462885,0.031766284
1676610,0.00038647596
36353633,0.012673371
103904507,0.00024758527
133959263,-0.0013440525
44081984,0.0017407903
50130784,0.019987984
62206947,-0.009205241
102719262,-0.016676374
17641167,0.004727068
19295028,-0.010070547
63695169,-0.011298062
109373828,0.007576032
39914350,0.015342819
183882184,-0.006621538
43639679,-0.014512659
66347058,0.006565454
87382277,-0.0033734925
101423291,-0.00010910467
66034768,0.009970352
150271998,0.010546168
114986217,0.018544324
95561282,0.0012761446
67228542,0.001050245
41302676,0.0020108894
143629004,0.0052394057
181363936,-0.0051106834
108701864,0.011627185
182546926,-0.0016583527
98748217,0.010704453
68421055,0.0018041407
74308375,-0.003676181
92862263,-0.0035071399
137646338,-0.011449431
47890578,-0.024377307
144196727,-0.007602816
7556867,-0.0071944906
6931394,0.00045495856
145778377,0.006475015
41864426,0.011313685
102836534,0.0019223519
187923027,0.00034569428
40331171,-0.0073054372
53249453,0.0007835196
180001135,-0.0044027413
38729629,0.008116895
40470064,0.0010041386
80447222,-0.004084848
102861088,-0.00168517
117740226,-0.019132948
174978472,0.004869641
176541827,0.0013561548
103904379,-0.0016076011
136413139,-0.001609979
103476019,-0.0019371262
80630137,0.009933512
101463160,0.0042751
76059270,0.014928982
103052318,-0.001482471
98549466,-0.0067464206
195903175,-0.00888947
188046047,0.0043422687
179919805,0.0014699905
138611502,0.010247167
170230533,-0.0045715617
155666349,0.017487824
153852609,0.019403795
134163231,-0.0084139835
102393557,0.0012034216
124549333,-0.0026115635
196319301,0.004229673
27494141,0.011384444
139194977,-0.004000513
107583988,-0.006185317
156624740,0.014683329
199944212,0.017073907
104715014,-0.0040526805
56544248,0.0063552908
11996177,0.012964715
126181392,-0.009095208
132309176,-0.01912393
178488542,0.00020218962
2241684,0.008557291
42635867,0.009942664
38413214,-0.003604727
125768918,0.003695929
140892627,-0.012284175
184921121,-0.007332869
59520838,0.006786993
141822502,0.0010993816
153812477,0.0012998495
131262590,0.0066468543
23875294,0.008078521
182184675,0.012166262
141204442,0.015203353
31116593,-0.0005579818
62205508,-0.008346558
99678968,-0.0036469372
98253364,-0.00617571
40121737,-0.00393319
84898761,-0.0061984174
118302555,-0.0032523214
174921127,-0.0012162273
131385955,0.008480225
138032193,0.0070256996
85918661,0.01939315
177690937,-0.0018685705
220078,0.008200274
169519680,-0.0046486133
69078053,-0.0022237294
104425909,0.013264158
102609106,-0.0011191888
163342984,-0.006092741
30977077,0.010708853
76330266,0.014799545
47316039,-0.007858922
102423567,0.0015039647
49586348,0.010042549
172569867,-0.0034221583
16671016,0.008472216
94699938,0.001208658
7100873,-0.012049094
46625474,0.0012868845
177280804,0.012034646
112964342,0.0014085718
85441514,-0.004127941
86733421,-0.0089777
128778733,0.008422809
103543651,0.0011348149
2838248,0.020653794
54464134,0.0142866755
93677153,-0.0014355211
88612114,-0.0025904262
98774491,-0.003608278
22300082,-0.013988987
108300915,-0.013198185
82853675,-0.009962289
20413657,0.011028243
9258320,-0.010773075
81021511,-0.0090022
41707740,0.012006495
12502023,-0.00018205793
173869165,0.0042596078
115479549,-0.0020226797
146048938,0.012262964
103764464,-0.01716118
113607807,0.007887756
120478085,0.0064326352
52290820,-0.007106862
40383089,-0.00028341942
134148609,-0.0128545575
144320139,0.016701592
55808184,-0.015563463
157600398,0.0051096147
186499271,0.000075472344
32210658,0.002207197
172595232,-0.003931648
158970409,-0.0012039369
103986771,-0.0027788612
102806768,0.012926336
127286270,-0.00082520966
38012112,-0.00054186216
102433815,-0.0017873518
168014943,0.013212932
183742703,-0.0058424803
53506061,-0.01210619
185924977,-0.0009592829
102447998,-0.0010992968
91870965,-0.009467246
113538812,0.0015249492
54166799,-0.010879815
189186581,0.012642354
164903884,-0.0059149107
27465206,0.01617418
115830176,-0.0032707145
138334342,-0.008854821
86914549,0.0072925286
102755352,-0.002007517
66098575,0.009495976
13649417,0.016274828
65524270,-0.002152348
19394601,0.021163689
26902849,-0.0069782957
36597480,0.025482725
124569902,-0.0025765006
186528464,-0.0048291534
136390861,-0.013129341
199146602,0.0062823617
11924983,-0.002943744
108418980,0.005050279
130716733,0.008685726
28484139,-0.0047257617
75132082,-0.014316113
81662882,0.0023391673
102761282,0.0015039647
190199916,0.008874482
183539159,-0.013594987
126906162,-0.0092967
43857347,0.0020220755
80297819,0.019650934
95511427,-0.0029130368
136148566,0.0017155004
68436845,-0.0060302457
150132497,0.021427916
193573416,-0.002633082
133438113,0.010853603
45962922,-0.027830066
78861741,-0.010124917
185202734,0.007862167
188325573,0.0031711566
2349911,-0.00026953965
7156009,0.012477552
94131870,0.0070170807
164633357,0.0018595881
102890412,-0.0016742006
102570198,0.004415385
104093262,-0.00041447475
156521259,-0.0037335702
117806587,0.0044084545
189392540,-0.01061044
28253362,0.021989783
162265367,0.012240615
61728928,-0.0063559455
65972980,0.005203758
119911050,-0.009789989
85750480,0.0011227903
158047047,0.0049873097
104677965,0.0016897623
105486524,-0.0059421537
129432029,0.006401222
103999546,0.00003425891
57518604,-0.0020966178
103583237,0.0073494324
148260732,-0.0070765857
175737465,0.019667743
87813453,0.006381078
78989963,-0.020851457
171453135,0.0015549508
102943624,0.0015303424
178807449,-0.012706546
183354317,-0.0014869211
2411840,-0.0037304207
103999662,0.00003425891
181002364,-0.014189305
141216411,-0.0044464036
8762369,0.008183903
42851635,-0.0009861446
65596473,-0.00369118
133306188,0.0047489298
147697118,0.01809843
87374795,0.01529711
174865530,0.0011211243
5817065,-0.00968945
59165889,0.004662473
115481788,-0.0139752645
129566227,0.002047712
105109633,-0.0030204393
174509381,-0.014780905
151955433,-0.004847786
102754660,0.0020705191
103489546,0.0009204159
164380321,0.02314745
103863124,0.001255151
94663641,0.009975768
3681294,-0.007115335
102542291,-0.00065104984
157891790,-0.0006490276
179739560,0.01729458
188026188,-0.008582349
116104593,-0.0053577856
70526117,-0.0036156275
102729028,0.0021907513
47959446,0.0056632888
196050889,0.012513631
133814843,-0.00027830558
978300,-0.0023500829
48815713,0.010771654
103582597,0.000568234
186221885,-0.00080428564
51565258,0.014716243
165709714,0.0063712266
119274816,0.0042842617
74817344,-0.006153423
198943011,-0.0026309162
123690682,0.004984474
153637828,0.0022441584
134362333,-0.00820586
9269205,0.005737095
25559185,0.002478421
145869917,0.005487809
94583628,0.004994778
165392906,-0.0011979596
149014806,-0.015957862
126115402,-0.0049374546
110291747,0.026714098
74321147,0.0017891101
56674540,0.015886823
164556433,0.0074867187
48973617,-0.0109145595
130067988,-0.004714398
104179662,0.0011589575
126882752,0.0078327665
161909303,-0.0043467632
117797696,-0.0112361945
90743072,0.0010495286
103743387,-0.0012055446
34886817,-0.00704563
118671922,0.0046266178
103959459,0.00011611049
198555106,0.022234324
42148553,-0.0033639753
159359962,-0.0010968122
199424718,-0.016390216
27339685,0.0024064942
102605253,-0.0015878638
187303556,-0.0122368755
102515406,-0.002201651
86375521,0.007871126
27618830,0.0021566083
37121777,0.007887076
39154896,-0.0037174523
148721362,0.015176395
102604887,-0.0015878638
102728271,-0.002052571
74272135,-0.0019024124
52533229,0.002458687
131328230,-0.0032241188
1867030,0.009422979
42620887,0.0016724367
101313596,0.00821277
158351251,-0.018241338
73539136,-0.0008224596
160410571,0.010678421
17718338,-0.009766651
198998536,-0.0012779695
112177514,0.019228604
177149537,-0.0060931593
71106916,-0.0026904785
64135553,0.01031869
102689614,0.0010652044
96832681,0.022528864
69947484,-0.005492944
47402879,0.0062321834
26874530,-0.014313812
168257523,-0.011689987
103528743,0.0004484197
170338272,-0.0060319547
102450567,-0.00049796636
103686187,-0.01001465
103730082,0.004348528
8931764,0.0065108794
127773308,0.0070382445
26365284,-0.014200349
111224348,-0.0058452734
34355492,-0.010676781
156378055,-0.004411714
184763072,-0.0105297025
103555851,-0.0007259016
70081188,0.00214074
103529084,0.00039452763
53673000,-0.0029323632
13478461,-0.006264146
112625424,-0.006391909
195001608,0.0088307
144728914,-0.0031614096
170362637,0.006223024
32234517,-0.004698118
16441082,0.021270113
172102060,-0.001564243
120757549,0.00688499
55516672,-0.0041693705
162562086,-0.0009264276
73369938,0.00999499
103542798,-0.002038755
103850343,0.0017598327
150991448,0.01069511
199035840,0.011926037
153029600,-0.01490602
10330563,-0.00088083884
98580673,-0.011688003
80366421,-0.0010898357
80610196,0.0039065043
74525444,-0.008881642
94658298,0.0069327937
148008608,0.0016399575
180070656,0.0032586795
119299703,0.02352112
28687079,-0.01368954
26574300,-0.015647946
180029521,-0.016344888
160125627,0.012097018
168957253,0.0014111222
7466966,-0.00022461498
182487202,-0.023216128
112565121,0.00066096446
82814171,0.002492376
96286167,-0.0026204889
51316577,0.005777193
2434489,0.0075507388
28060910,0.00046629246
22804628,-0.0050237994
94171907,-0.006303948
152981467,0.000050412396
111737735,-0.012806047
194591178,0.021172235
94066910,-0.0073463893
88134129,-0.002351533
156952258,0.0027587896
83853986,-0.002364852
15614909,0.00142788
60315556,-0.008907477
163568922,-0.0200207
37357294,0.0068139755
123557722,0.017521199
148990552,-0.020667195
73672847,0.001285847
74410369,0.0075752563
101410398,-0.0016994635
76237994,-0.0033391856
104120397,0.00017952183
162443525,0.017218955
122193895,0.012567101
95525165,-0.0147864055
31900998,-0.014140981
126147321,0.014184947
170813210,-0.008879891
161622938,-0.0044859857
47754990,-0.00448937
180142934,-0.010655107
49414060,0.0005337057
182332930,0.005541666
167668980,-0.0076785265
80779040,0.011280713
102582243,0.00094578415
154529912,0.0031547653
53567958,0.0032667862
129627010,0.011200626
154733117,-0.017238306
177560936,0.012180052
10408467,0.005669775
69788069,-0.007380001
135669083,0.0055963467
137285353,0.0062463693
101846105,-0.0002646242
111379379,-0.00457113
165742816,-0.015496429
77196991,-0.01206963
104905114,-0.0069913096
12971377,-0.007706909
123862781,0.006283598
80115254,-0.010664675
8562471,-0.0020858457
121643044,-0.020359635
121903481,-0.011325014
90630752,0.01671917
72763438,0.004144927
102394043,-0.002013297
190063576,0.008900999
23902764,-0.004144865
56029846,0.008217978
122173720,-0.001979975
160650290,-0.003989383
112578429,0.005579597
77023586,0.016761247
103863897,-0.00019470687
103404233,-0.0015804665
113210802,-0.003239406
128283231,0.008633896
81006586,0.0039582914
154267809,-0.0028467954
128292142,-0.0077546993
93688226,-0.008702977
188343430,-0.000034652665
178424764,-0.0055511137
136995459,0.0075112865
24025159,0.009161781
89725676,0.0027387273
101938743,0.0005811079
139173253,0.016105372
3091869,0.0021423413
197433964,-0.020309076
179292913,0.014077273
66393596,-0.0069788788
47620753,0.00851849
157821288,-0.0017586511
175850330,-0.005351152
47314088,0.008242376
94318896,-0.024592692
64056925,0.008069161
99903483,0.020405805
102555693,0.0022540558
113952609,-0.0059406594
90550833,0.015102785
140204701,0.00561919
102527515,-0.012161578
162418220,0.013921739
144652046,0.0065871007
87184344,-0.012479571
5471839,0.012015192
124652105,0.004697259
98913222,0.00015197844
83786403,-0.013370674
25010458,-0.008652785
104962471,-0.025796825
56547355,0.0029860963
166184342,0.007000445
85421241,0.0032074132
81934206,0.012319054
69012804,-0.0004408983
101092912,0.013822262
96477854,0.010447885
109617102,0.018048313
2563965,0.0025045678
47399822,-0.002736128
168569170,0.0074106567
118891008,-0.0018951877
68055237,-0.0038218573
96971535,-0.001715544
103554171,0.00035388433
42030928,-0.009959841
167478659,0.001305119
103557453,0.0015343246
109867081,-0.026465125
102384459,-0.00073310867
116706020,0.015203385
71584771,-0.012544386
18010672,0.014176982
199141555,0.0091038
68761971,0.005531967
102943815,0.00016931933
181110783,0.009001373
35849532,0.0033154204
56029356,-0.008177914
33212841,-0.009097435
136544063,0.008572652
35296081,-0.0027353317
61461393,-0.022606837
38406593,-0.016170233
38815855,0.008404352
39992452,0.0017057895
143275700,-0.0146039445
34305157,0.021210069
17396435,-0.017140575
65448993,-0.027809076
30049199,-0.012607713
88898557,-0.0147355525
7780130,-0.017486691
186802543,-0.011126425
30211811,0.01113479
148152504,-0.008641457
29536274,0.0022973865
161919793,0.0049821907
103932198,0.0015713255
160139179,0.0007259993
56430105,-0.0027460987
102955386,-0.007184481
129409405,0.005395021
148075941,-0.0048588174
5091155,-0.005842564
146195472,0.0084036365
102434390,0.002227651
121799069,-0.005374754
69943695,-0.008079869
55357695,0.014428454
130759001,-0.0115342885
98222955,-0.0052422276
102727597,-0.00003500731
82933812,-0.00599921
186138752,-0.009916599
109329305,-0.0005161777
19668478,-0.021307044
52870423,-0.006750492
72104485,-0.003621406
118502445,0.020193521
100598018,0.011961624
772297,0.012496619
166542181,-0.00097620167
30871268,0.00096901815
136892692,-0.00053921505
141723824,0.009904928
32751215,0.012116604
87191900,-0.0071434923
27066130,-0.006893057
186346762,0.015806254
93617651,-0.00096252305
159001748,-0.0130328685
144898676,-0.0014355672
152729702,-0.0055821273
12575232,-0.009068127
67924004,0.009344503
136832381,0.0142533155
103121992,0.0023936813
139681741,-0.013306288
185576193,0.002038515
158553351,0.011337174
184004207,-0.019789483
86913448,-0.0026665877
17663500,-0.0042538987
143499201,0.009893348
105588954,0.0025984603
86430094,0.0023722071
65378056,0.008228794
859271,-0.006415628
149730540,0.009660545
147133514,-0.0104174055
11390352,-0.014121673
2922005,-0.015062247
191527494,-0.003592736
173211633,0.0058955667
175691161,0.0067392024
103025282,0.0015039647
73899453,0.020324936
123583819,-0.02293146
103502898,0.002296052
47735574,-0.0049442803
103701888,0.0013727546
34743233,-0.0018733295
147049005,-0.0013666473
104984439,-0.008611355
120009475,-0.012864119
23124604,-0.004983185
114303892,0.0013606054
182387860,-0.0058801156
69635923,0.0003894143
147663877,-0.011714079
100100544,0.016656967
78441887,-0.0002826919
962069,0.000364717
97323075,-0.0044972245
118379430,0.021676585
178396112,-0.005670537
99126801,-0.004130736
102502492,0.0068384274
162196086,-0.010404661
100202747,0.009264323
115460717,0.008956813
134857689,-0.009229168
142963763,0.018654782
146155992,0.007504546
45595491,0.004140808
121101729,-0.0047054207
139483862,-0.0032947855
82783531,-0.0007179386
1977133,0.018875668
7408249,-0.002483561
108605308,0.0057488196
188128654,0.021183409
45272988,-0.005490116
102756269,-0.0034586743
74713104,0.0029145766
43563217,-0.019295078
192435778,-0.011792491
157121725,0.0022345157
42997595,-0.008450778
136378072,-0.006026211
9035368,-0.0034053286
1352794,-0.0009167102
103575890,0.0012125991
6535642,0.008823782
172401295,0.0029090743
125200077,0.01599334
201593,-0.02453897
9319790,0.007817015
102802550,0.0012125991
149963605,-0.009878034
156204809,-0.004240772
86149473,-0.013699797
173183456,-0.0027016588
4767239,0.0003867126
166633977,0.0073527484
5166521,0.018325234
78339501,-0.003723631
114924003,0.01675142
162615100,0.008647765
81121664,0.012299883
95132969,-0.012600187
159635638,-0.008517808
71005890,0.0025300616
19082015,0.0054258397
23398561,-0.011946511
102595615,-0.0029158974
133098906,0.018488575
46111012,-0.0014803611
129937549,-0.0056932974
187610836,0.009784747
30088774,-0.0161412
101776887,0.003441589
9445091,-0.011666508
46683769,0.0074982685
73097407,-0.0016920889
188065458,-0.008930167
177801071,0.006004139
158529323,-0.009412529
193175857,-0.007359811
44812226,-0.007401587
139556279,-0.0026593122
102972001,-0.0015554935
8644763,0.011360026
83292309,-0.0043475027
131434785,-0.00052912754
96496619,-0.0095193125
70381606,-0.012956326
12647149,-0.016261723
15646677,-0.011518058
112799264,-0.017257871
77092973,-0.002093577
80122520,-0.00090843096
65552492,0.0045292205
196858593,-0.0044684103
131963046,0.01126369
5590061,0.0012733653
38489855,0.028480595
123970108,-0.016402077
12259494,-0.0019165258
127906607,0.0024346581
131147268,-0.009773374
73669176,0.0064946334
158391767,-0.004786856
44395266,-0.00851133
70501355,0.007904831
137968064,0.001015817
3617324,0.0005597825
138465007,-0.0027646634
40825056,0.0013805913
112643219,0.007342646
101490693,0.0010867693
183580096,0.015889062
83449282,0.00018158936
183575158,0.0016028296
91855198,-0.01376878
94293101,0.016918637
156221783,0.010327681
82685470,-0.0013222763
100454060,0.0042387885
119130369,0.0031736754
28313354,0.005055816
60979759,-0.017572615
163153062,0.0030932715
4658627,-0.014887214
153757457,-0.007890422
144940729,0.011406381
150625515,-0.0010114633
177122429,0.0053861486
291874,0.0075940965
51663766,-0.024585335
150307702,-0.010880881
102261175,0.006948737
65713805,0.004860936
85500513,-0.0068065566
124742948,-0.0011643511
162063853,-0.00038381192
50725817,0.011080454
109407691,0.0057599237
140535353,0.012649285
149319323,0.013801445
23741650,0.0006051388
111354459,-0.0048106248
82055209,-0.0049920524
41921754,0.009236855
121465872,-0.011262495
165013329,-0.003375544
141390191,-0.010927854
145415487,-0.0028499018
102472651,0.0014942816
54578370,0.003108637
198970337,-0.0041395025
168300761,0.006036638
70032363,0.014806425
142586652,0.009360777
102367953,0.003407219
104094278,-0.0011875238
160177319,0.0011075515
133290789,-0.0036401737
102729198,0.0034429515
165157251,0.0044207824
174454741,0.0075595966
104061243,0.00086500245
163265649,-0.0038850259
19389507,-0.005806857
177500002,-0.0022035784
155016751,0.0001337313
88052768,-0.011455915
39354239,-0.006952257
148792897,0.0059798174
121605976,-0.0090216
148157135,-0.0013596275
190128499,0.007443818
190466945,0.0060556442
22610509,-0.00054961286
68711277,-0.009315135
28769436,-0.0062166103
184121142,0.004989777
196847635,0.009454371
13024150,0.006561925
125975026,-0.0058917734
24651600,-0.011046882
21728085,0.000488768
102891422,0.00006274448
54317602,-0.0076294118
102609998,-0.0027022208
22874697,0.005499628
127364398,-0.009277712
53428710,0.008377211
140132972,-0.007342418
4452029,-0.013486367
60650404,-0.001136225
160329358,0.013887969
47262990,-0.0010028669
116622267,0.00051367993
64215979,-0.0020612804
115118681,-0.010059397
127764864,0.0018301267
135894015,-0.0019228939
100655031,-0.0029471722
152685813,-0.010025979
73566957,0.0019013393
146581515,-0.00007647211
122753192,0.0028239058
102126162,-0.000030240888
93793155,0.009361004
175279843,-0.005481376
102281236,0.012404744
89564899,0.005630847
30830594,-0.0019775939
121871356,-0.007990058
130656029,-0.0042200536
50062590,0.0020189504
102515416,0.00048371052
115794370,-0.0062231603
147373263,-0.009597275
118880973,0.009311433
26958724,0.02287826
46843661,0.003407275
94420602,0.013576547
103744317,-0.002677511
156682309,0.001707007
175408966,-0.005159032
73386009,-0.008676175
75179948,0.003932578
40789702,0.010962769
181456635,-0.0036352207
99228464,-0.004273344
23044099,-0.0051124976
103031630,-0.015234259
159371423,-0.012016581
727441,-0.012849633
103502272,-0.001788643
122051568,0.0027801213
116854295,-0.019509818
72928818,-0.0015039962
138521142,0.0067492947
104160834,0.0030511336
178625108,-0.0028177202
167209836,0.0069758985
87217222,0.009156559
166089198,0.005234509
165591132,0.009184077
196650770,-0.0014669703
104179851,0.00066658645
10868781,-0.0016322245
108836788,0.004216848
149548920,-0.0062505947
190892672,-0.008345134
45719536,0.0210323
12696478,0.018297238
2137501,-0.010377213
88809491,-0.0028283333
125875697,0.002962773
77324172,-0.008922266
102693693,0.00061658025
62221339,0.0025371402
82071630,-0.0034304112
94276377,-0.00031051724
174810770,-0.0053365873
103051660,0.0010867693
121070976,0.0042280364
101409171,0.0013845637
73822503,-0.0071483115
137326307,0.008125493
163854487,0.021964924
41990653,0.007135359
179105858,-0.0055118743
141553193,-0.026668407
82743183,0.0032395248
110310661,-0.01462416
176526144,0.008864098
181018503,-0.0058454466
50074503,-0.009186653
141059175,-0.0013127605
103148388,0.001320085
102847501,-0.00007924964
160386106,0.012160144
79622380,-0.017431518
103920432,0.0060672928
130876286,-0.00091226626
185261030,0.0016302312
176032287,-0.019135933
103404063,0.000042041225
103515807,-0.00097014505
72022926,0.009216736
103052543,-0.0034124516
81983158,0.0039278
157769183,-0.004912234
102728983,-0.00096575817
79551861,-0.0029350454
93163112,0.00052913954
102756287,0.0020544815
66509364,0.021571908
102678441,-0.0031140305
182900484,-0.00018071424
130825783,-0.008004865
61807642,-0.0069879093
152278323,0.007885898
44704377,-0.0001918594
164301345,0.009896564
37123625,-0.005376293
102226830,0.0027709275
25415201,0.013313478
148803223,-0.00052201166
118517266,0.0011481573
97323525,-0.004893842
37197895,-0.0019860128
58103837,-0.0012354691
102729450,0.0036184362
66210328,0.004840515
105518930,-0.0018102862
195816601,-0.010073093
114102257,-0.01480941
191305946,-0.0053160307
43974030,0.0011362409
144359795,-0.007813587
155400942,0.00252985
104120507,0.00017952183
96536236,0.0049634627
35857256,0.011614455
77076419,-0.00618503
102836244,-0.0022168977
102289662,0.0014696879
131768699,-0.0002145192
102836485,-0.004516693
30470943,0.0017755346
4950965,-0.009092105
83245097,0.00012719771
3835700,0.0061223763
97585856,0.0020026432
150507996,-0.019561397
48997845,0.010291813
118508956,0.010715608
4919939,0.004799479
96905557,-0.018106192
186167697,0.0064548175
52073676,-0.009431416
103403485,-0.00076220155
14775836,-0.025797553
141719528,0.014235335
92426748,-0.013735369
175054643,-0.010383995
78801725,-0.00736874
28985100,0.0008995619
39756982,0.014921446
114243082,-0.009455445
198242392,-0.008519993
48358089,0.022609951
42072670,-0.008201375
183210747,0.015528511
40390819,-0.0048434627
146022607,-0.0021541659
34015733,0.006857608
31772297,0.0052417396
88706868,-0.0059141372
103877245,0.00016325506
40515643,0.004834762
91085166,0.018039426
95030703,-0.013798394
103595983,0.000042041225
36066780,0.0027935845
189729502,-0.0010306586
199042390,-0.015353299
75433748,-0.0017421145
120070059,0.005354239
103826020,-0.0017733274
102555142,0.0049700877
103583291,0.00013427291
47327275,0.014383322
17543471,0.015310733
181796567,-0.006174476
166512802,0.0073120245
102596270,-0.0018632424
74367415,0.0059093027
55064819,0.00058119465
21681872,0.00026709147
64749667,0.0007979581
42404534,-0.0033662238
18453663,0.01339078
144176337,0.0051275343
17333608,0.010965549
20007555,0.010877632
186193189,-0.0020791793
129011961,-0.005135076
70772073,-0.0042374628
1287940,-0.015363136
192828476,-0.029396437
53890730,-0.012567461
169185601,-0.009796889
103850882,-0.0027582913
102516374,0.00086500245
40366325,0.0010673536
102729251,0.0024804543
115214639,0.009335085
83055063,0.0072293826
9779213,0.009092265
154232057,-0.022774855
105475136,0.013388997
18191544,-0.011964704
115959456,0.010301013
168669698,0.0017621705
72770584,-0.004584867
102515235,-0.0049292566
67082014,0.018554535
148566712,-0.0052104336
101808554,0.015271581
183161510,-0.008308604
76307,0.0044777137
14907795,-0.0069397246
199077923,0.0069832182
167661409,0.016045304
144001757,-0.009558641
159504853,0.0051625017
134437921,0.0039004555
137251950,0.0051579736
164431530,-0.014289445
96803061,0.024923982
103026453,0.00018506742
103918558,0.0010625189
171992221,-0.0045236996
100401764,0.005257388
63380570,0.0125532765
169779153,0.007176219
2100397,0.006878752
55834351,-0.013760024
54855756,-0.030103987
196948262,0.022117214
167261760,0.018488802
48942113,0.010834993
95069738,-0.008142629
4708408,-0.0035065778
188981169,0.0035276907
63266258,0.0015668129
20556298,0.004334786
148653433,-0.0005500434
149015186,-0.015713446
195350747,-0.015848951
135419096,0.016175201
27514149,0.0044084177
194479166,-0.017830644
103587441,0.0010625189
72194086,-0.009099981
91245168,-0.0003736034
150415626,0.012100207
102728647,-0.0059932633
60518730,0.0039206697
69728381,-0.0057519465
102756324,0.005261605
145182405,0.008192074
190041082,-0.0035976763
70389902,-0.00596059
102846171,0.0007856283
8253520,0.011497974
69160267,-0.010504268
95309662,0.011139053
39790472,0.012099815
100610676,-0.0032680992
146596837,0.00049080775
94627609,0.013950829
69711905,0.013957571
124162195,-0.018193077
58157000,0.0074479696
96660056,-0.015529761
61419849,0.0043352447
138061637,-0.014594859
183492724,-0.00433903
166074814,0.0032065797
163478332,-0.011618036
74922040,0.010971897
102555584,0.0059720986
118714295,-0.025356233
102610528,0.0023247148
104763493,-0.004078864
78740953,-0.012174532
46265515,-0.010869258
33202324,0.017138489
100382825,0.0001971678
10874910,-0.003123354
33656413,-0.0016015688
157892669,0.0011756348
23082794,-0.0013710936
85437082,0.0017830748
115951293,0.004351962
75586269,0.00074974756
38393727,0.021816723
178553358,0.0054117576
103986133,0.004178637
1644344,-0.006895813
88865485,-0.0044493387
62286415,0.0025549994
77161337,-0.0012116302
103031418,0.0018266982
172407199,0.008706367
181935790,-0.015105556
31738816,-0.011375408
132832832,0.003042207
60766478,-0.007270134
61627364,-0.009132794
173713714,-0.0021363713
101816516,-0.0048586167
121083312,0.012761394
103403404,-0.0003317855
76107083,0.012883264
61970507,0.0037808625
146268779,0.0036706019
103743171,-0.0014010526
13370402,-0.0061076144
9893982,0.00063299004
165305848,-0.0065297317
196122824,-0.0044437936
75930416,-0.010437563
195803129,-0.00032186272
120094724,0.021023914
102434995,-0.0010692576
52816902,0.0059014857
143041084,-0.02145735
22728040,-0.0065009957
94530503,-0.011235075
176195190,0.002642703
106883263,0.0139769
25973373,-0.013601343
36566556,0.01459809
2655477,-0.02305231
93918977,-0.0023580021
103024663,-0.0006049428
134549896,0.0000073005817
186168246,0.0051971553
11572308,0.0053035496
102353144,0.0052473685
112916377,-0.0066947835
125544776,-0.013852223
117967048,0.0013663726
41306699,-0.010766721
146665195,-0.0011281268
157278205,0.00039285823
34173159,0.024584757
27499497,-0.00836611
171720947,0.010060774
103595307,0.000042041225
94752134,0.0021353818
81999245,-0.0106736785
114732472,-0.010165082
169316716,0.01840526
53504283,-0.009880156
131278521,-0.008723644
77478919,-0.009193403
85049332,0.00017900902
25464575,0.012942559
183846535,-0.011060955
86582271,-0.017917717
168672444,-0.005674826
91345457,0.016672522
26568528,0.0004935303
166462452,-0.008623757
153851470,0.011632132
6628513,-0.0044891066
175671395,0.01991471
326182,0.024534324
100267466,0.017075408
102777426,-0.0075617568
143077037,0.015330899
54411982,-0.005247814
68301115,0.011555579
83345217,0.0013098813
136195472,0.011208185
103863693,0.0008650468
184708133,0.022985207
78350014,0.0016258357
42550641,0.0025855869
124713253,0.001520718
26673042,0.023259599
11638387,-0.017596766
149328827,-0.0075368127
2676076,-0.0033398687
33630648,-0.0005195907
135401491,0.003019688
191777575,0.0010086412
148574520,-0.024083626
54850858,0.014503392
101437115,0.000050969014
57347216,-0.002577112
120306662,-0.0030217639
19189641,0.009762385
62125576,0.013313788
110509058,0.01028419
161744026,-0.009826213
101188921,0.008798245
93560065,0.0075120246
102891450,0.0018592657
103850361,-0.0015810635
74378919,-0.002648634
36375477,-0.0011872071
102691941,0.0006836898
33889943,0.0115252305
147291663,0.007939058
54241777,0.018279156
23282309,-0.02431603
29057933,0.0017183184
76361867,0.0035468459
179435679,0.0013388626
113774181,-0.0059649637
168410631,-0.0052337847
77465227,0.011824714
103554315,0.00035388433
113421746,-0.002238795
102688633,0.0010652044
125374490,0.00040385147
162848566,-0.007662734
47964503,-0.0029676121
133383381,0.020023746
66200840,0.018284189
43958266,0.004826709
183521091,-0.021513432
103500888,0.00043089228
152906164,0.0031708586
134567436,0.0010441695
126148345,-0.00050549884
83503109,0.0056110905
133530368,0.0014818154
103877388,0.0033910833
132766482,-0.005868608
170513422,-0.01239993
145011337,-0.0020076206
15145507,-0.0026269204
24798389,-0.016526252
103530055,-0.00015650883
125795577,-0.010428604
46670746,0.00012523061
185729099,-0.0036865284
25782932,0.0036837175
84126498,0.013490486
21593511,0.003361549
102420441,0.00006728553
121817836,0.00596843
71559540,-0.0062918514
102542687,-0.0023211555
83433413,-0.0035239046
54414032,-0.006689208
9681019,-0.00522908
35889474,0.004771175
170111146,0.005439145
101423534,0.0019223519
126754952,0.0024745364
27868868,-0.0073637348
133337559,-0.0063951183
96576493,0.008835303
30878638,0.021574434
100873500,0.018388035
173786286,0.010575056
97228081,-0.0019039011
152741413,-0.0015466538
102434083,-0.0006049428
44796355,-0.01393013
135693696,-0.010543218
14906171,0.017812252
104373542,0.003392282
89426202,-0.013934121
27514122,-0.00071104825
42329512,0.014122158
30537794,-0.016610697
21094148,-0.006651593
98916453,0.016334198
108015659,-0.004267086
21167527,0.0034694325
51408528,-0.0019661232
148137208,0.0072087585
21934817,-0.00019819396
83331939,0.0026587932
36206011,-0.008851447
175540364,0.013459225
104092651,-0.0009580654
150423124,0.003384507
128409877,-0.01195435
98205448,0.012316763
60126162,-0.013350807
188316273,0.015185383
140879170,-0.0038341465
145598969,0.010702567
12324654,0.002466265
62345035,-0.0206993
79813725,-0.017050855
285077,-0.0145458365
179649480,-0.0037135254
141629426,0.00803603
136663096,-0.01704421
8196210,0.0032658742
43780715,0.018473947
8552212,-0.017500244
116729813,-0.007325229
26083665,-0.002021148
18520248,-0.008284455
7281507,-0.0023145226
103475995,-0.0010692576
181277274,-0.004707414
48017941,-0.0065610856
114756439,-0.00090820005
57990923,-0.010799372
25048576,-0.007288816
124982642,-0.0028623387
108383457,0.0048175547
31228945,-0.004419437
96742457,0.0048854337
157255596,-0.0008025563
151372103,-0.0016843681
74185290,0.00020400962
77468751,-0.009496846
60114284,-0.009405479
184567686,-0.020867739
114543507,0.00095777994
14475519,-0.014003404
134346259,-0.0050643226
46239988,-0.008668895
76898653,-0.01672616
183834685,-0.0003765291
103403270,-0.0018632424
127527577,0.009228796
62129611,0.004611331
103404395,-0.001099789
167502018,-0.012149793
50139753,-0.008299835
144069450,-0.002038764
15196311,0.0054265806
104179597,-0.0032221538
130950177,-0.0035717492
195786196,0.014252939
22876965,-0.014442621
39866901,-0.006541953
49253448,0.0026109137
115260068,0.00033881358
102621160,0.00061110925
139348733,0.009925021
57106349,0.011466952
195972634,0.014664072
18186717,-0.011765775
2967558,0.00547874
176414783,0.005248176
162855524,0.011013257
127143963,0.0077342475
172060243,-0.00015361187
18028463,-0.0029584463
102747693,-0.0023448044
177266456,-0.020791177
15401801,-0.0053961454
53399409,-0.002770386
196168553,0.002175089
83458279,-0.024913626
92641538,0.006800481
53098312,-0.0029451272
59575141,0.0035215393
28808902,0.012517472
102436034,0.00021289448
95031556,0.009987716
82565467,-0.00048282437
82572164,-0.013197397
192055298,0.0033458364
26468533,0.0057113753
136084885,-0.0028999601
83522726,-0.010851065
62709521,0.0004302035
50438525,0.017997691
181884277,-0.01683698
2885236,0.0045067635
11113444,0.003642454
132065216,0.009494065
144800320,-0.0012428337
125805083,-0.009527434
35482690,-0.005089603
142272393,-0.0012119785
109272046,0.012127592
197030742,0.0004690007
23329454,0.008342663
89496506,0.006842482
103121244,-0.0061843796
178987227,-0.017402662
44810009,-0.012754982
45090145,-0.012051874
104094324,-0.001099789
160731183,-0.011655898
44591762,-0.0049651177
68759515,0.009581804
10788598,0.0007297791
187101913,-0.0034339814
56075804,0.0038050765
17884401,-0.00816034
101642634,0.0010369695
109800178,0.010389405
20154111,0.015075935
150307481,-0.0010812544
87663172,-0.009136043
71888200,-0.009335698
103983586,-0.0058995998
149061090,0.0026183985
191677638,-0.0019875718
73742709,-0.01270175
36780669,-0.0067954194
60830309,0.0004865634
70667815,0.0063233725
132300097,0.02269476
102846567,0.0007856283
103863753,0.0007918106
23858635,-0.013690256
9998777,0.013446773
78627607,-0.031027786
7978275,-0.010256121
143785790,-0.0032997741
183345198,0.01103907
992313,0.0035565959
102393162,0.001706045
67865974,-0.0010480275
143590412,-0.004510594
125908332,0.0031887789
198773329,0.0003149679
118845819,-0.012395455
105933238,-0.02122581
132083772,-0.007814918
55256454,-0.022829985
136433940,-0.017214762
137126683,0.013171907
12214044,-0.011805407
103864950,0.0017591703
134910971,0.0055635804
7708802,0.013543274
79983307,-0.020226475
123837720,0.011116081
73052566,-0.008291187
142582781,-0.009259021
103542142,-0.001992639
144004846,-0.01258174
49410979,-0.019099941
104160243,0.0030511336
114608226,-0.0011000427
79904880,-0.0065062093
199070964,-0.028404308
61106380,0.011505651
127378628,0.00843775
118076877,-0.0049507115
30451061,-0.0045205364
58235615,-0.0044260467
57114529,-0.009111751
103556290,0.00021289448
97397868,-0.015675748
17672055,0.004537935
39833060,0.015849348
102471115,-0.0012863325
74934017,0.0054457258
101121850,-0.0011754915
191603596,0.00562512
132780939,0.015532051
77403395,0.0036422848
189365497,0.007974152
5450802,-0.0051043867
56943439,-0.010286816
88609259,0.017922183
50733947,0.0063283998
145201080,-0.010154265
96501803,-0.0088012405
113116876,0.0026995002
117628785,-0.015916923
104119588,0.00017952183
122910762,0.013670349
159963658,0.018965507
41577058,0.00028110354
105837910,-0.0025597035
140171284,0.01639169
131962333,0.0072686058
157872993,-0.0072903386
106162302,-0.012513116
133192872,0.010672353
192964481,-0.0005608379
14817702,-0.005033506
79772624,-0.01722166
164522620,0.008220153
56937335,-0.014599818
193356894,-0.0012469223
102502546,0.004951571
145496625,-0.0032087946
102541615,-0.0013449838
102385832,0.0146662
188367968,0.0016608062
126842810,0.0058493847
86234873,0.0076986835
142475157,-0.016270548
167937061,0.0069291717
122058883,0.00031559865
198496010,0.0016727599
102728148,0.0005006465
143736237,0.005744608
46389872,-0.00072841754
129280228,0.006691224
141787868,-0.015249348
27817766,0.0014119289
111097999,-0.024572505
174742483,-0.007913601
74450127,-0.00846807
50336249,0.011647594
191640529,-0.0075000576
31597880,0.013076948
99469365,-0.0044947076
123499513,-0.013012603
111096153,-0.006191953
40020837,0.005312579
157364780,0.0017652949
182567664,-0.007752605
29586017,0.004326562
64270726,0.012210699
23706715,-0.012938083
57080407,0.0023313123
181163181,0.011545991
48908326,-0.00000047657176
102448114,0.0016144774
35305599,-0.0011316092
42649356,-0.003266702
147331418,0.0063170046
152655537,0.003063375
102889660,-0.005444692
99176969,-0.010407287
66901118,0.0151969455
120875221,-0.0031734027
103026198,0.0034429515
156028309,0.028925287
79213734,-0.009163392
66317429,0.002411722
68125196,-0.0035922315
166109095,-0.0022586258
91889972,-0.00021030722
106729257,-0.013393642
192977544,0.01346973
144147768,0.0017765263
135824352,0.00597447
125706110,-0.004271204
35871072,0.0020697734
103284095,-0.010511783
83206052,0.007728946
61463954,0.0124048125
607610,-0.008717733
116633325,-0.0010863065
192992039,0.012855981
188927266,-0.008681483
32210003,0.010913574
122589585,0.014431677
182516619,0.018155217
121453289,0.0035730144
164340713,0.013049398
145508224,-0.0037965253
58078379,-0.012662426
182353536,0.004675001
10445317,-0.0029826772
104007148,-0.0036895482
103840247,-0.014495939
118079202,0.00042665584
187269612,-0.006875846
165800255,0.024859061
66082221,-0.0010310286
169855384,-0.003940168
105807175,0.0023359277
168747225,-0.009045958
173156744,-0.010403526
102890935,-0.002527236
102515315,0.0017071759
165322800,0.009417279
55803891,0.017217191
24939310,0.0029315953
104133870,-0.00013147987
45521747,0.003257999
194846549,-0.005017898
133488560,0.010414023
136320374,0.017309288
37282077,-0.007886639
90922529,-0.0068566715
33388156,-0.006416736
5590565,-0.011259361
121246504,0.0044179745
148021272,-0.0025980207
184658705,-0.021780968
174602652,-0.011748514
104160097,0.00090892374
154767417,-0.023271943
198516632,-0.006106971
33124176,-0.0037509438
103503374,0.00086500245
132708665,0.0053192507
152241900,-0.014567324
52474268,0.00025461108
167597818,-0.0016982141
100917162,0.009053388
8464717,-0.0037590733
145125668,0.004861475
49647380,-0.004291305
116327027,-0.0049827104
103323745,0.00016325506
24512823,0.0012622484
82793876,-0.008318277
1339158,-0.0068828654
60749284,0.0128754
115042351,-0.006815619
159569937,0.016684867
111420508,0.0025266518
94535235,0.024612026
185944358,0.0010152813
125502004,-0.008763552
5902767,-0.014812501
31466249,-0.007537208
6595899,-0.0017035147
131874158,0.0037607066
172546676,0.021439765
103026242,0.0008650468
196405932,-0.0064629065
192656605,-0.0007357853
81930110,0.0127165355
104119606,0.00017952183
159049197,-0.003011184
193148484,-0.013949493
32686282,-0.011073748
66656900,0.00014257368
137997810,-0.0073618535
175448030,0.0012366761
183076222,0.0103182765
72936647,-0.0008769366
118009973,-0.0072887256
127703372,0.008108398
103744698,-0.0012872188
74048527,-0.0010738553
141298562,0.017294448
161302762,0.0008356775
101783909,0.004328623
26726152,-0.0018062799
67105988,0.011928951
47869822,0.008218516
103323693,-0.0056514787
33336306,0.016831001
191908277,-0.0033001048
43494568,-0.010287782
106515011,-0.0021092084
102316220,-0.01686535
182346712,0.012001797
66559255,0.0052068233
45470698,-0.013693716
8716075,0.027950725
157692715,-0.006270334
119854735,0.013002989
103701906,0.0003250767
41313166,-0.010925691
149472111,-0.011062452
181805044,-0.012332903
172329069,0.0059031164
161055202,0.009357426
12712663,0.013373296
112140503,0.025668036
98074911,0.014107032
169598015,-0.0034071542
135074377,0.009129847
157627048,-0.00010696051
102836647,-0.0076724202
77246905,0.0024072654
195170392,-0.0030109715
102569614,0.0016600956
36468067,0.0022388727
135882366,0.0033512665
103716912,-0.0010663585
55022563,0.008589874
164896555,-0.00455946
30055635,0.029113263
157990307,-0.008901081
102542253,-0.00008864346
93439953,0.0041689575
55690502,0.0055573955
18708021,-0.0105892625
171916818,0.0016568549
171529277,-0.009244529
7009738,0.01136793
102583519,0.004134016
116563228,-0.006722632
174097015,0.006899583
83449333,-0.005687767
26632334,-0.01080093
20297793,-0.018193426
56391429,-0.0034564403
81451189,0.017422121
176993898,-0.012100142
69980946,0.007307253
103740789,0.00061110925
170515563,0.0052786265
97713146,0.0025310628
102501918,0.0018266982
152912132,0.0057225586
559342,0.0038068702
68475413,0.017956587
89677187,0.008398539
47646718,0.0039545647
161133992,0.0061742375
48984052,-0.012149711
28779111,0.006189741
105020413,0.005178322
102847187,-0.00004076239
121642129,0.021334248
145765765,-0.003199799
102352615,0.00034012872
32633018,0.012188113
148646840,0.007878302
120105289,0.0053048674
65005730,-0.0038322422
3369901,-0.0048353276
103543941,0.0011348149
102579798,-0.00063518365
196501784,-0.008129476
45636221,0.009711231
132886153,0.015858108
5894227,0.010559964
17543464,-0.01894483
72383692,0.00206671
104160171,0.0030511336
103403418,0.0018266982
164529623,-0.004616882
27018295,-0.0071482877
103529498,-0.0031336704
22936724,0.0081721665
51131728,-0.0026768947
190510157,0.0014182547
45082719,-0.00033056954
8833200,0.0075076115
88245437,-0.004312148
8150252,-0.012462525
15885802,0.002925985
37368604,-0.0001935564
134742180,-0.0004272143
71331830,-0.013477624
162529438,0.005156347
102367317,0.00060923514
27214541,0.010336103
74379594,0.011645001
100102583,0.0075614345
176436567,-0.0074422318
117099288,-0.0020521106
100189937,-0.02253864
170836078,0.009157841
86321690,0.0048799682
59866141,-0.015420884
9567726,0.003493216
165412327,0.02042311
136940999,-0.009073721
116404978,0.009322781
193946166,0.0077310163
142524897,0.0027622872
54101130,0.004973269
39456215,0.00028506425
177462028,0.00042785387
42769695,0.0011465895
195736226,0.009423406
102907025,-0.00024183118
111475369,0.02288685
131111281,-0.010779568
37946623,0.008746684
180901737,0.00016564826
154224343,0.0025317252
33283428,0.0019563802
170801327,-0.016240591
101383550,0.0012125991
102605287,-0.0022135724
138547030,0.0020602813
102970606,-0.0012725982
134042326,0.00006104366
171159392,0.0004936847
139804811,0.0059464984
7396110,0.017544564
192499807,-0.0047312025
102728388,-0.0014697216
70986661,-0.013740978
118012292,-0.009170036
121667728,0.012843784
49930798,-0.008598873
50479470,-0.0035124382
168975658,-0.009163676
130158223,0.004537258
102569235,-0.005473981
72279125,-0.009976166
47608448,-0.0050964216
70180809,-0.0038310413
103595817,0.000042041225
31669658,-0.016730001
189944438,-0.02212776
90620441,0.0077235284
156214793,-0.0083800405
3291760,0.0002305074
95500244,0.0028560178
25611245,0.00023795945
6584150,-0.004200245
25000049,-0.008346517
116070475,-0.01010171
136415908,-0.0023653181
110810840,0.0031568962
102541815,-0.002840977
110466797,0.0051592053
102436558,0.0010625189
197255827,-0.0066646175
35489369,-0.0010839625
115508183,-0.013893975
5074646,-0.016094813
14833612,0.00503928
98599898,0.002486982
153950489,-0.014183863
95153869,0.007979603
70875017,0.0073569654
170626375,-0.0038174093
122335778,-0.010829234
102582807,0.0017908908
36240658,-0.017966582
62631635,-0.0055641346
87356762,-0.00034686556
31293142,0.010926538
118554109,0.019249482
179110844,0.0058414126
86711651,0.0005787844
145869555,-0.008991767
107142057,0.012186248
126488390,-0.016444264
184881389,-0.0058954787
79328737,0.0016006813
119607404,0.0028747097
147051623,0.0063630673
132969844,0.017244166
193306239,0.0065372544
47245786,0.032782894
40016487,-0.018235072
185780367,-0.008492965
70743860,-0.0033218348
152680797,0.009724713
76597603,0.01599956
104570008,0.00592907
89389423,-0.009397972
59362001,0.0080948295
180379197,-0.003338486
66249431,0.012090508
150106190,-0.010504663
173475483,-0.0030979514
107583152,-0.011144213
101410558,0.002111863
162561812,0.010759486
103490289,0.0017369952
75031998,0.014659365
51141568,0.0022417917
81096919,0.007924027
90279160,0.0008352904
23509933,0.008328336
199344191,0.0008796585
102582998,-0.00030069356
5924204,-0.010434512
199480661,-0.0037841569
134057723,-0.008131921
184252802,0.013985079
184459701,0.00006404571
11345034,0.01002265
102564115,0.001219347
115324740,0.001447104
115578556,-0.0003787978
102461291,-0.00065104984
63954309,0.007824464
549907,-0.010228651
105723707,0.002516536
73737104,0.010684637
149488811,0.007712902
102755485,0.0025765742
76354429,0.012611427
85218688,0.00020527886
74460246,-0.01759072
31998735,0.008128413
108851541,0.010241004
62580205,-0.013240056
57633212,0.0008694774
88206397,-0.000023132508
35729457,0.0027064928
183206055,0.011155947
101578782,0.0029354692
7724664,0.0027919693
111614444,0.00027902937
67031084,-0.0077774003
114466834,0.008646002
99872118,-0.010937312
121241302,-0.01192
102971498,-0.0026157435
16828356,0.0031622062
151444118,0.0066516995
131113580,0.012673933
131062017,0.022547076
86581881,-0.006271633
190531779,0.01754359
44335716,0.010989429
112139894,0.0041124085
52545469,-0.0036318463
56044995,-0.016187571
20739440,-0.02185802
193779818,-0.0005726089
175501252,0.00063069107
79522294,-0.009084939
79507651,-0.0020238464
44645972,0.005384638
41159284,-0.0025885864
102728262,-0.0052536256
130235922,-0.007703615
140336635,0.005796457
82559518,0.001853632
53992100,0.011873988
86127990,0.008530372
132861484,-0.004848909
193668430,-0.005621646
170727477,-0.007972588
175427855,-0.000569341
119975002,-0.0010538388
68945164,-0.015956117
19343309,0.006836828
65016213,0.011992673
171720440,0.0079196105
159757088,-0.0031719136
4212905,0.014225413
31650960,-0.008071336
59712239,0.0037094068
96119325,0.0010539532
89639038,-0.0077393213
97320142,-0.003459372
102110690,0.005238288
28632390,-0.010340696
8637128,0.00796658
6865879,-0.0147650335
137336101,-0.009655734
185601337,0.005702254
85954334,-0.010058415
107844065,0.0071875113
182232915,-0.0013984997
62188107,0.0015108332
95626123,-0.0040374543
15094575,-0.00347549
196487917,0.011386983
174009731,-0.0149107585
102436160,-0.000061325365
13404013,-0.021263186
82157800,0.004719822
179035064,-0.0176142
124633012,0.0051680086
9757401,-0.0034744027
102835642,0.0036576039
151977353,-0.0055800206
25620589,-0.0038194081
162918578,0.012063372
127072683,-0.014288247
102463202,-0.0043748096
183979042,0.009688441
102596057,-0.0020852722
7828376,0.016169012
188215280,0.0053728973
133316421,0.003161713
185132122,0.012720615
89719730,0.003408646
102433761,-0.00491485
4433751,0.0013870839
50153130,0.0066844504
5380952,0.019157613
161521262,0.0184445
53957042,-0.024849227
24916251,-0.0024147683
85657949,0.01581442
184459898,-0.0047215433
72164478,0.0010175591
177975883,0.0003654615
175690677,0.024530003
35116087,0.008103873
733781,0.011539353
35251492,0.010831714
96015833,0.018620806
196532009,0.011164566
102353244,-0.0020384789
128443097,0.0061086477
116168305,-0.009345037
80273159,0.004366097
121502483,-0.008489102
17197414,-0.0015456434
64504248,0.0110274805
58269563,-0.0051094177
27804771,-0.0078069177
78452787,0.0045631165
158330116,-0.0027417918
52325399,-0.0039472575
2312842,0.0032057543
103917115,0.0034381927
67608603,-0.005036802
187894630,0.00009043212
103569890,0.0022736331
119827779,-0.0016360279
140236968,0.007779273
161748397,0.027251588
199108792,0.0016686157
197866771,0.0012896371
140530463,0.013212108
17577493,-0.00008007077
69000068,0.013019634
144878552,-0.0076046786
100608795,-0.002816951
98205444,-0.012201448
131210412,-0.0049217013
194391582,-0.0075825765
64897725,-0.006640814
147599197,0.0031276387
11249009,0.00055603724
118220613,-0.009856008
102366953,0.0010518732
83574427,0.0047601867
155562498,-0.0013552845
176178264,-0.0012900005
151450686,-0.0149527155
194617797,0.005246852
156343014,0.018626155
153382697,0.0087823775
171503339,-0.0025655483
68998913,-0.005267305
181022927,0.02326906
69404479,-0.003000283
9007464,0.009225497
103309751,0.00095103856
173461571,-0.009339469
21141429,0.006910865
52393612,-0.007196682
192526494,-0.011414461
5466721,0.009235325
8475954,-0.0100898845
77315192,-0.0022833135
89993350,0.0019421453
144373288,-0.006624171
14739915,0.009720797
134356413,0.0058676456
159122889,-0.013482806
121847345,-0.018772323
101776941,0.0018802747
8884259,0.006605568
88008328,-0.00063237763
73064360,-0.005532253
58109451,0.0044418913
114449708,-0.00049730553
172433046,0.013610569
26493693,-0.010726503
155784567,0.009748007
67892354,-0.0034597658
102609756,-0.00073310867
71288000,-0.005030806
11509472,-0.001994941
16618042,-0.0086549325
171555287,0.0014168855
149334319,0.0075403806
72305827,-0.008389741
155578979,-0.014153158
192085876,-0.014097147
106063260,-0.010343582
48439617,-0.007649193
96663075,-0.0050601778
147451566,0.0017058706
160941369,-0.002016703
72943608,0.0009263866
140595109,-0.0026470723
188360008,-0.004889995
11461702,0.0014199974
181175262,-0.0049501634
25217506,0.0022943357
19820522,0.0120080635
27566582,0.002649844
18421933,-0.000019824842
56725041,0.0142066525
65992056,-0.00049848907
171274321,-0.012158889
82740230,-0.0056919605
151934808,-0.009836577
350064,-0.0027284846
159760041,-0.0042789327
148836447,-0.009730374
143856543,-0.013870117
36465205,-0.0032900444
42154591,0.01162908
145578493,-0.00706205
195779455,-0.003910137
140325482,-0.017374817
28047534,-0.0008557296
148042531,0.015909024
123257279,-0.0036121372
155657297,0.001863467
70115866,0.0072608483
55346638,0.0032907024
103557050,0.0012125991
73955739,0.0014846841
174189129,-0.00023408882
93430067,0.0037281679
6012432,-0.004926708
109443401,0.020204296
103569744,0.0061736107
103916224,-0.00080929307
16343997,-0.008590598
103741806,0.00061110925
92137379,0.008696097
128604421,-0.011416076
15033912,0.0005766384
136211616,-0.0062407777
157848181,0.0006015599
174898866,0.010595549
156698042,0.012921276
149679968,0.00005172637
136065286,0.0071944273
138716793,-0.009625214
75852097,0.009418415
83543958,-0.002581897
116227354,0.00259449
164167016,-0.018279348
52110286,0.0012670513
32262422,0.00039219283
138955031,0.00879301
129805657,-0.019257499
72217027,-0.009291549
188141936,-0.007374774
125142670,-0.009495348
49205363,0.011736567
103904361,-0.0042145285
2869984,-0.00007897861
60462695,-0.007750769
143655764,-0.007193083
111114462,0.00045739743
31607196,-0.0077573135
178910900,-0.020527143
103516398,0.0015215212
18433157,0.0101161655
177021638,-0.0004473188
28739854,0.006916244
76729358,-0.015270647
33214617,-0.012965779
3984311,-0.0066355453
34833720,-0.023099
107338651,0.0033135447
3551989,0.005537608
36991054,0.0014276962
18298187,-0.0007604724
102756413,0.00017952183
110618655,0.010968341
100107969,0.009045507
110665626,-0.007012758
23498274,0.010522842
178415880,-0.015048747
198337034,0.005638261
161109922,0.007623654
20102307,0.004091543
18217874,-0.007155025
110864734,0.0027289097
150815123,-0.0025107595
16237591,0.006198754
36899891,0.019843774
179245538,0.012981879
137746659,-0.008503883
3411111,0.005620152
50039391,-0.0014863778
102755343,0.0025500571
102384315,-0.00073310867
178888522,-0.012448317
103828553,0.0011772091
53168557,0.013460461
103555660,0.0014116102
73758735,-0.00381912
172354025,-0.0024277924
129876406,-0.0034707375
145091448,-0.002420989
127473973,0.0057533584
6284130,-0.007623756
168487693,-0.0041497303
64857320,-0.0031893607
74318986,0.0018996348
127348525,0.00289483
187349314,-0.008004418
62130221,-0.011758091
104937920,0.027474992
119197219,-0.006106333
161410790,0.011849397
169025035,0.008183119
97289252,-0.004385414
10330139,0.009678779
164564866,0.0014513795
102944647,-0.005260217
17566325,-0.0011807081
102971993,0.0017369952
68491267,0.020488713
8578069,-0.0035468382
6101769,0.008362713
83069668,0.018306822
103120941,-0.002267582
102889959,-0.002527236
192887408,0.0039939475
103515088,0.0042267526
78441385,0.0077255573
153898464,-0.002657303
81875464,0.015250903
90579173,-0.0048034093
117744005,0.002714547
133669550,0.0097115915
38679704,0.0074481824
36865178,-0.0100910505
123312803,-0.0046714917
134115442,0.015803162
132329270,-0.009248787
111733550,0.009346369
102609753,0.0041485643
37179907,0.0095362505
102352660,-0.0030072285
125910162,0.012615579
21566131,0.0038504265
30710348,-0.0013154851
162636518,0.0038571013
71125659,-0.016165664
120753253,0.0051053995
47436070,-0.0033455417
128367477,-0.016930604
165279957,-0.0032392156
41042096,-0.018511685
10731112,0.0066076317
86392206,-0.00894093
25850046,-0.010607531
15936350,0.0038125159
16157202,0.011688228
115815532,-0.015462404
124892131,0.007910853
50114302,-0.011180096
150509311,0.012117349
77541061,-0.0005555851
97590601,0.014758941
152494022,0.009436744
199424719,-0.002555562
198039533,-0.0041176323
43541087,0.005424206
17571138,0.0052113063
170225924,-0.008761559
102620412,0.0006009175
125673504,-0.006995598
103500557,0.00043089228
51744700,-0.009595707
83898813,-0.0038193807
162531021,-0.0029116713
88530675,0.0066805063
103918953,0.0020504561
9554414,0.009264186
175130091,0.007249003
65093695,-0.0061765183
33561870,-0.0015094546
152886772,0.0018237183
185798866,0.00086539215
17827468,0.0021061343
34492527,-0.0039208964
56010809,0.0123898685
99447271,0.0027170547
148187296,-0.015279196
101485019,-0.005637265
193872513,-0.021297624
131904377,-0.0049861968
134191545,0.0035389771
118225903,0.014970785
18693431,-0.007802209
102944315,0.0006539972
160932045,-0.019456629
121739380,-0.0020856787
45439261,-0.002220992
118784533,0.00880508
71161609,0.0026025504
181483893,-0.0026329951
88730108,0.010256682
167816629,-0.008829821
38005967,-0.0023909933
90705549,-0.00921887
163257732,-0.022182614
162357834,0.003772667
701156,-0.015443071
175352128,0.019983305
73737439,0.003222142
83676101,0.012417135
102528171,-0.00011007351
156162594,0.011400463
116348690,-0.0053690597
125555204,0.0080515
69772750,0.005264973
40399085,-0.018897861
161174657,0.0059025446
47576661,-0.029131344
152861952,0.00471637
177976739,0.0056970185
76383364,-0.005518912
124002765,0.0044581387
12991898,0.014554767
38789732,0.002161223
42934171,0.014145394
109421087,0.0008895663
102944416,0.003966386
32305688,-0.003700405
28418497,-0.013676206
161634649,0.016571295
5791159,0.015941447
3718157,-0.005000702
183772368,0.010034035
46879888,0.022442888
100298601,-0.011172304
102621001,0.0049496335
73729053,0.008886687
157968268,-0.0054062316
110828507,0.00571509
163785796,-0.00951871
143955907,0.0016741308
33248465,0.0032666314
170837134,-0.008602437
83508426,-0.0015310481
16393372,-0.0031380365
194080377,-0.01623808
57349732,-0.010671288
3445850,-0.003555705
164459143,0.0036282009
43670192,0.0012917758
181183294,0.008964485
102795088,0.00090164744
153561982,0.005047961
111099295,0.0057655075
85059957,0.0025918984
138948064,-0.00038056477
26150540,0.006656958
193619078,-0.0076849484
191532001,-0.000017637949
51003565,-0.011112091
156849411,0.009389632
133471370,-0.0069693034
87789353,0.0028108687
195124020,-0.010143523
82676872,0.026872825
102420088,0.0012823542
35158141,0.009002835
135175107,0.0023070846
45717621,-0.002482207
102579583,-0.0006049428
192540012,-0.000759295
102514815,-0.0043062028
9380529,-0.012679016
114615342,-0.018014718
103052459,0.0010652044
176542067,-0.0040456243
171718579,0.008770095
117623063,-0.0057887165
102516010,-0.0000060406446
150404793,-0.007830453
102729058,0.0010625189
127412796,0.00025599668
103569782,-0.00080848887
129595970,-0.00965292
21022378,-0.0019364577
94034069,-0.017414767
28662481,-0.0017380358
147451379,0.0011256925
38518890,-0.027397005
76176385,0.006894719
102761193,0.0015189039
830593,0.0030212863
183267630,-0.00513925
192576646,-0.0029403004
56363918,-0.012210722
9148941,-0.014680301
196786759,-0.009795591
16662789,0.020572538
183556574,-0.018132506
135517717,-0.008094491
103743106,-0.0025766497
52251369,-0.0008678988
101137221,0.005819681
97502874,0.007236561
25668508,0.014133438
125240653,-0.021631658
95431895,0.0021042551
76943149,-0.012642333
29223102,-0.00777445
180754923,0.0143576525
183651594,0.01115525
186912257,0.009857899
44097665,-0.012350276
80220434,0.008685462
153077277,0.0042262906
30712646,0.005928426
43235741,0.006837205
102619642,0.004881463
101450660,0.001291418
134093225,0.009861063
113788891,0.0077756676
76672066,-0.005583003
109199100,0.008220874
67514764,0.008171384
63001726,-0.016880922
125605137,0.007153886
33741971,-0.011815601
37730008,0.013975529
142174064,-0.009019576
82697750,0.012632188
147378740,0.0062961476
15701194,-0.008438069
73092336,0.0076571894
19630305,-0.01292206
118306250,0.01056028
103582615,-0.0005357198
123529073,-0.006653426
162790025,-0.006514292
48355804,-0.00984418
192218964,-0.015283583
94862922,-0.003410793
174746565,0.0061255316
102528870,-0.0025465693
183091251,-0.009156764
115823816,0.0020693566
136041221,0.011109212
184621559,0.0100101
106446723,0.012754892
176057801,0.01627974
157303970,0.0105534345
196316100,-0.000563849
34911888,0.0057579135
123258205,0.0002829624
27752477,-0.00031765498
58465272,-0.0024723015
184923828,0.007883031
21747033,0.007629851
166819654,0.00096652727
52496129,-0.013036983
44685358,-0.010585563
167033726,-0.0019661302
18447863,0.008060031
15992492,0.0028755118
4642367,0.0070574367
65729568,0.0019876347
174206726,-0.0021181516
44907179,-0.0043378468
102755291,0.0014812724
114182508,0.018462788
27165984,-0.012496024
94182221,0.0012157061
132559080,-0.00037516697
11301322,0.0025431497
40382122,-0.0020365117
59123188,-0.006274185
144095218,0.008052523
47531000,-0.018775184
4276159,0.0010987828
98256655,0.0010995277
48242832,0.01136049
161817884,0.007812767
73148254,0.0042562936
48226002,-0.0057398574
187028226,-0.014653206
58773613,0.005752279
190401112,0.00037156447
69186266,0.00714055
104299908,0.016545793
38846747,-0.010859971
68561442,0.0015614135
102754597,0.001017677
107467742,0.006231197
23879483,-0.0035855176
186869231,0.012107079
68805288,-0.010448823
59847589,-0.005171029
30209256,-0.0004902978
111673725,0.007654367
186164187,-0.003935429
10737229,0.014820601
56673130,0.007836791
30057708,-0.008681387
58350181,0.014214861
129005887,-0.011853474
182122313,-0.014540534
172281035,-0.010166183
72839950,0.0040291236
102971291,0.00013427291
66507143,-0.01505415
123789205,-0.007340174
40722508,-0.0073793624
102289887,0.004710036
175127190,0.007586701
80027629,0.0011080626
163574084,0.011219889
111868729,0.021905066
185993805,-0.0060908888
12092551,-0.0104430765
114535538,-0.0009145823
2638065,-0.014238571
60159673,-0.00402538
74210237,0.014459816
158951683,-0.008630754
103594941,0.000042041225
118528839,0.014940298
134031777,0.006551873
156310783,0.0045402963
50002591,-0.010297526
174048487,0.021783015
103999030,0.00090164744
22361161,0.009185016
5270921,0.0009136823
99018175,0.0062310235
142191559,-0.006651773
71223400,-0.0040503405
191187927,-0.00022438451
113376079,0.0037458213
118696461,-0.0024449448
193225283,-0.00463266
104282737,-0.0016949334
90544620,0.015336041
85095096,0.015863027
89674079,0.0049751657
102619851,0.0031041335
99546152,0.00896975
115121773,-0.0023539404
19065797,0.003885284
107317489,0.0023115447
135543095,-0.0006234503
81405165,0.003503568
135805817,0.007224429
173964655,0.007885536
164837155,-0.00054572534
182113003,0.002458957
197634801,0.0011818011
130827123,-0.008842823
95532200,0.006803733
133298810,-0.010714004
100493667,-0.00053822924
144304097,0.0003807525
15237313,-0.001122984
56282932,-0.0047294996
101422642,0.0037297576
168880477,-0.006428494
104198930,-0.013622448
58858841,-0.00056092924
19859793,0.006233144
135157767,0.0007538358
95672517,0.008868385
161179417,0.0075729457
103403083,-0.0006049428
135197682,0.0055458196
56239434,-0.013251139
83100018,0.0026959376
35217508,-0.007168843
82785571,-0.008851992
42989603,-0.0038728144
97762786,-0.011997288
121996740,-0.0025409749
103986088,0.0041952464
92477351,0.008249913
119250739,0.006475898
23245358,0.002253403
149970883,0.009658308
126371753,-0.014405708
136071423,0.0005096645
169367005,-0.007443299
196934224,0.011162214
148434412,-0.0033095789
33630645,0.0068834773
120307331,-0.014592541
21803253,0.010854044
124431896,-0.009127139
84496981,0.012310774
163096104,0.0043298374
54763477,-0.0041940813
9234475,0.0041580177
134990814,0.0049316986
131563269,0.000020520542
104133866,0.015877608
72362050,0.0024685827
100822831,-0.0023232605
157100434,0.010089858
126115312,-0.013667386
154844227,0.010227801
172360549,-0.0038572627
140469374,0.0016790233
102595941,-0.0023971237
36073051,-0.0008193534
103149028,0.0020802182
187764186,-0.008441132
78882629,-0.012951776
120722234,-0.016515957
137145541,-0.015820244
53634296,0.006346309
137865383,0.004132871
76787829,0.014480785
154117272,-0.0004163145
107262915,0.0066955285
89368766,0.0049205646
40965000,-0.009183145
19260224,-0.008600291
18702637,0.011040355
68023108,0.006814863
110592508,-0.010212513
192276409,-0.005798815
147859219,0.00683357
156887367,0.0052311113
102861351,0.000499038
153388012,-0.006849711
155940967,0.0061043412
57301822,-0.0018759227
102970815,-0.0024614132
136548,-0.004300521
6677249,0.012232461
182241333,-0.01581355
124487230,-0.001374118
175623819,0.008129859
191815561,0.0011994805
169894652,-0.001167673
101382162,0.0014696879
70059815,-0.007773558
102352606,-0.0033275182
71844890,0.0109894425
68692195,0.013769755
146985188,0.0293428
63608395,-0.013939172
103797584,0.0011732086
15192301,0.015898978
31080305,0.0070903334
198720546,-0.0073128855
94983954,-0.0015269541
58364831,-0.009451981
168885415,-0.00678196
83336385,-0.004672115
103960483,0.00011611049
66488055,0.0022073982
66298898,0.0070998976
89155425,-0.023026858
120224709,0.016519763
128995399,0.0012556858
1123829,0.006999591
61220433,-0.00450595
61302698,0.004117594
86034877,-0.004194995
152843540,-0.014549613
183802715,-0.006601312
97706350,0.016172817
196734094,0.006933181
29334467,-0.019369287
42211913,0.013857621
189922206,0.009664685
161187324,0.0012672101
139815915,-0.0074506486
102921163,-0.0006049428
9836597,-0.003780678
1306793,-0.00912133
64233986,-0.005731617
189076493,-0.020059632
155983342,-0.0004906645
169064512,0.0059681716
74278573,-0.00066952256
121295309,0.0047988733
83946942,-0.0056597297
102126912,0.0012058603
41633507,-0.0010716276
188714303,0.0026289858
94508369,0.0044129295
28061587,0.01391023
114931764,0.01167136
34224557,0.0068129203
185085541,0.0034440858
125972676,-0.012052955
73699327,-0.012690473
86926155,0.012588071
124628200,0.017676374
38095678,0.012407729
21638509,0.017197918
87872423,-0.0017311585
28242329,0.013506825
103515815,0.0017071759
3136047,-0.0027620639
106610288,0.0063089975
10727855,0.013871752
60189955,0.014471638
5266293,0.012962874
86423650,-0.00094625686
61699843,0.0076171034
132667343,0.012985627
30870134,0.0042618304
21791142,-0.0075575835
105823644,0.008112012
118814756,0.014779445
48631779,0.00041104486
5742351,-0.0041204174
75628040,0.0015140619
178089186,-0.0006071751
82924482,-0.008993399
14108993,0.004897869
103475256,-0.0019169406
32337845,-0.002371047
177807422,0.005498205
168825511,0.007647095
111979381,-0.0076489854
28430120,0.015165049
31894781,0.004252169
164099097,0.008856606
43572846,0.012686201
71837027,0.002463873
84698521,0.007829127
192325917,0.0077232644
114981557,-0.009190832
139023129,-0.015735693
93095381,0.009144561
93666748,0.0024430808
192489757,-0.0030770493
102434615,0.000050969014
90042675,0.0008975437
178332351,-0.002613616
101409567,-0.0013538097
33794587,0.0044928296
75491595,0.00027765805
157156141,0.0015660293
4541317,0.009504279
126275197,-0.0015120612
108206556,0.0036319022
109500658,-0.017365731
187769680,0.02342931
103323888,-0.0036829645
184473885,-0.008237576
123658074,-0.008751848
180743904,0.0018041602
23636749,-0.0015342376
157939167,-0.005501075
123376067,0.0122357225
176040427,0.008763391
58411798,-0.008836272
111976854,0.0021521726
176733715,-0.00031376176
109107582,-0.0048626456
14802616,0.011582917
116854387,-0.0040680836
68082127,-0.0006215258
2718793,0.0028243468
155104836,-0.0138263665
74561573,0.0027129916
186874536,0.009634856
116391236,-0.0053739888
53187964,-0.011991396
157371444,0.00009755661
157959248,-0.021233957
29179520,0.0018619997
141525234,0.0027253458
160661635,0.007922845
198059056,-0.01137914
4651313,0.0063684112
95453718,0.004392134
54638200,-0.0072877416
196152155,0.0013379701
103121271,0.0007498647
149913983,0.0021299932
83447008,0.008480726
80191280,0.0005993042
11157471,-0.005229506
26994428,-0.00839493
146416992,-0.0027562666
96899524,-0.007545399
158946724,0.012103147
7311878,0.013566624
164289119,0.00007106937
13817925,-0.010154269
103930671,0.0020544815
52722817,0.019718805
152280405,-0.0071831755
30026899,-0.003028934
137482464,0.010517333
31931117,0.015478804
123834504,0.0002850592
29756930,0.015556542
30186235,0.02109195
176136251,0.0064049414
99129308,0.0071237097
102906789,-0.00024183118
75041772,-0.0115533
66069138,0.0145808505
155710743,0.020945434
178475740,-0.013205564
101476815,0.0029273762
58644498,-0.007097915
89594636,0.00017896647
34015579,0.020309942
30198999,-0.008526948
143621895,-0.02020034
101191838,0.011668714
43801079,-0.0015456639
113286863,-0.00507378
59202230,0.001405922
112381616,0.0059481054
139732296,-0.0139579065
101382097,0.0023064956
83408614,-0.004443122
181054316,0.007678089
94314039,0.0019671298
156352077,0.009690687
186713362,0.009181175
129148445,-0.0018083636
103304809,-0.0017957515
195855348,0.017395968
175131674,0.015527964
99929031,-0.0047818045
146023448,0.0153042
122990265,-0.010050256
102619597,0.0013377471
111297299,-0.005140197
102574132,0.0003739229
130571583,0.002432337
10172270,0.026858926
5279243,-0.0068861204
130234458,-0.006815744
102586317,0.0000009680799
85913941,0.022840919
113918466,-0.010588314
15992261,-0.008155375
79568081,0.019842036
135532866,-0.022222187
22226176,0.0064878007
102609160,0.00017014792
155736943,-0.008782818
138597910,-0.008584386
15518975,-0.008958915
165087342,-0.0010533211
44238435,0.008295291
112663477,-0.0049503655
90684828,0.015252476
86449165,0.009501751
66470629,-0.017623281
145375268,-0.006321233
77450918,0.0118873995
123023628,0.0022060827
132888242,0.011626061
5620450,0.0019675167
98771544,0.018572908
178577913,-0.018993309
146792206,-0.0038299866
88121012,-0.0039128507
36623061,-0.0020995014
11303312,0.010064105
18612550,-0.009389468
193217643,0.0017630352
103707387,0.0015630205
131466322,0.0024293708
102861744,-0.00168517
88507387,0.0037551709
27851776,-0.009120434
20193364,0.008904421
106006462,-0.006782867
142774882,-0.009169922
117088979,-0.0101069035
197387295,0.005327668
147773145,0.014430647
103148262,0.0007177352
171455249,-0.00250289
102846459,0.0007856283
102847555,0.0010476777
127940804,0.00016143383
177113805,0.009965248
173597811,0.014513966
17440936,-0.010200221
170643379,0.0039135246
137347914,-0.020686451
152967833,0.014927934
10601792,-0.007525197
120014782,0.016197234
95453913,0.00012349283
154644469,-0.026948502
150661440,-0.00659792
126368150,-0.0067826766
103798501,0.0028440596
22495285,-0.01098031
175655295,-0.00907463
103515171,0.0021297152
144640419,0.0016873969
145407091,0.010689476
35875148,-0.009349453
190866047,0.016356243
21217067,0.011637645
198908311,0.006224313
165990369,-0.007537397
122882401,-0.008003955
171130741,0.0017231397
102423441,0.0015039647
189178800,-0.007712097
37790925,0.015499231
73147443,-0.0006072448
26686971,0.0069811023
188707441,0.007100857
102620270,-0.0018632424
102555952,-0.0031140305
149040479,0.0026583779
48062514,-0.0042598937
46684157,0.006890003
93307011,-0.012989489
105089187,-0.014324015
178720188,0.0047900365
174721706,0.008387977
131878085,0.01135506
103849606,-0.00027045642
102542193,-0.0033395356
177661685,0.004986796
37261383,0.0056075673
80315443,0.009212079
47739914,0.00314168
73063884,0.025295317
87945278,-0.0034495397
149065342,-0.009860525
128383362,0.008603677
45170412,0.010237595
69551991,0.0130062485
30465363,-0.005496505
33577528,0.0055355458
15320878,0.0005382637
187375918,0.012295474
102353057,-0.0014408102
63897163,-0.0033124962
89657689,-0.0055511137
102801171,0.00021517594
42538880,-0.005111606
151938743,0.0023428984
127035766,0.001256814
42332886,-0.003212181
191770845,-0.0013700678
45690017,-0.0012104857
64309013,-0.0015785887
41143991,0.013297833
101326030,-0.0005350379
102606459,-0.0003317855
141187953,-0.02750734
24344537,0.0080315
104094144,-0.0010663585
25456307,0.022024363
122412360,0.0048037134
72620723,-0.0036101746
142202052,-0.007899457
44562895,-0.0039518247
47643657,0.0052433577
191216631,-0.0040418133
54608941,-0.0038796982
100694561,0.003285239
96106360,0.009905047
136150478,0.00213626
49176971,0.01079243
103744043,-0.0016779795
154778847,-0.006992952
148160443,-0.0013748455
64780811,0.01154451
102755390,0.001370335
103403057,0.0027021132
53626310,-0.0053162705
103864114,0.0011594183
55806013,0.008519138
27088201,0.010399822
62147448,-0.008323579
99687768,0.0016978825
1898080,0.017306615
109090984,0.013326458
123820191,0.007142849
102353067,-0.0012094885
141798153,-0.0009044585
135945999,0.011721549
99217513,-0.01682714
140964042,-0.004191759
102516453,-0.0010817725
56377703,-0.0080245035
11064357,0.01684465
102407390,0.0013693669
13027973,-0.009861875
190974774,0.00021144123
136733145,0.008356322
79889137,0.006535173
168457372,0.016133768
102061790,-0.012647005
146623850,0.012767436
93451823,0.011137272
167281320,0.008828403
103282496,-0.0073440676
154403179,0.0058534686
157770869,0.0047054137
103850148,0.0007304221
58360825,0.0047223303
102461614,0.0015531312
103986163,-0.0006049428
88305290,-0.011671845
129570491,-0.0011850282
147303793,-0.0011188684
102621046,0.0034358813
160180810,-0.0074927793
65675447,-0.008676584
146699858,-0.013572426
101422624,0.0042231
102609764,0.0021126443
111867638,-0.009279516
50455852,-0.012099697
103959693,0.00011611049
103404413,0.00017952183
147894476,0.00073531014
168837475,0.00093595794
80493654,0.0032214453
61953870,-0.0035253689
102471351,-0.0012863325
47297072,-0.017805483
180985011,-0.013090301
193282887,0.0052236393
93442530,0.021360286
191928732,-0.0061425096
66259569,-0.0060987645
92950707,0.0040608793
65388111,0.000054821026
10772655,-0.0002754974
174674292,0.0066938046
73662272,-0.003929484
169589413,0.0031046805
20448055,-0.006979708
76868561,0.004274812
103488261,-0.00042467975
54655241,0.0028900774
88512033,-0.008577155
128970390,-0.008235455
66091796,-0.011884936
59469971,0.006582671
51967309,-0.0049889446
18981706,0.0062268376
127218506,-0.022685084
106512252,0.0070886062
33682707,-0.0028792354
180192965,-0.02030377
96404542,0.0050635594
178538692,-0.001635011
26012410,-0.015919445
39704044,-0.0020616304
50641721,-0.006327862
104303212,0.01700598
100731904,0.0055564325
107013559,-0.0029715444
80044223,0.018044472
130547176,-0.000033619173
24788984,0.013679787
25964751,-0.0040226257
178385758,-0.005563196
196971773,0.0041492465
192486313,-0.019236699
122138943,-0.004355906
152311932,-0.0019252041
6080150,-0.013885498
104482113,-0.018641876
103701762,0.0013727546
120187982,0.00017555554
6537515,-0.022841629
148377413,-0.018507136
105461596,-0.015403092
69264914,0.002178908
123756062,0.010670425
102085941,0.0027021132
61764042,-0.0005815812
128196066,-0.0036006158
59606228,-0.012205579
22706892,-0.013591942
103987483,-0.00007434259
103052898,0.002296052
96765830,0.002183963
117054269,0.011726722
103627597,-0.001129247
164806451,0.008336618
28093615,0.011300619
121961134,0.013169684
102847149,0.00029362203
52782317,0.00014074285
80317617,0.0067587225
42751915,-0.0009882058
158419220,-0.0063695973
147050564,0.017028082
104119959,0.00017952183
151596506,-0.0021279305
115447679,0.011138571
140706924,-0.001151833
199060015,0.00065280084
52442562,0.016649306
152322574,0.0030738828
179226829,-0.0070818183
89736037,-0.0048886663
102101148,0.0000013018947
102471261,-0.0012863325
23230898,-0.028280037
101375280,-0.0059400587
72737714,0.021274032
45859711,-0.009075656
102408557,-0.001788643
86719736,0.019528288
64126737,0.005493656
88140098,-0.0045882748
174782037,-0.009061715
17143343,0.015022374
27988245,0.008931223
102836461,0.0006836898
178761625,-0.007947438
122577315,-0.015276335
92572380,0.010079515
102609243,0.0021720598
102421953,0.0020535495
75307412,-0.0035820582
92887151,-0.008043238
119549464,0.0033959441
118210208,-0.0006467914
33184577,-0.0032084503
173513433,-0.0047170343
46689119,0.001185742
17438673,-0.0031246762
35891341,-0.000680008
127871143,0.004333267
81290663,-0.006879973
35275469,-0.016352708
33621080,0.0026476712
138670660,0.008244026
102433597,-0.002273526
143520493,0.010447855
136283775,-0.0017707382
83122901,0.009385945
175600548,-0.003886919
102407298,-0.00014172343
80408001,-0.021777214
67226642,-0.011004441
45201447,0.009731833
32894189,0.000085680564
172303237,0.004802506
130615876,-0.004496137
160716282,0.011869551
102990557,0.0012300923
149799031,-0.0047419956
37521094,0.012770505
196024322,-0.01477337
182122222,-0.002687978
102168719,0.014894956
103593870,-0.0012238589
132912201,0.00975212
75063208,-0.01610818
194696192,-0.010544565
148708201,-0.002569891
126043199,0.0018313053
101648266,0.0069830804
79666054,-0.0017602638
158442715,0.010195219
50891063,0.02007218
132648396,0.010376411
102434290,0.00015156894
102606693,-0.0003317855
40937635,0.013240256
169294670,0.007797555
169880729,-0.005632656
102951912,0.0022751184
175206943,-0.014941655
63356261,-0.027709188
72828736,0.004729422
102837278,0.004113407
140848716,-0.016788363
38314686,-0.004362203
149379496,-0.017619947
148361440,0.0041568177
155488950,-0.0049860035
30410147,0.00529642
119193552,-0.010738651
89583878,0.016240945
118595430,-0.0001958706
102755615,0.000050969014
69428832,-0.010251034
106628358,0.0055106846
189200925,-0.009176306
173784989,-0.0065287035
125207136,0.02313028
150041493,0.0074680024
103121193,-0.002267582
195720591,-0.018243909
114126130,-0.021270745
12178179,-0.0053598913
54627223,0.006638606
171796911,0.0020866755
131525563,-0.02115394
25741008,0.009471698
188826191,-0.018858973
32904448,-0.0026509224
35981755,-0.014237364
193176318,0.0036636242
67685844,0.01263288
112366420,-0.0005412221
108123457,0.008489207
73749659,0.006099963
191276308,0.006421584
102861762,-0.0016200433
9604702,-0.008692277
30284193,-0.0035806803
60541654,-0.000068855625
183756274,-0.020162996
100350097,-0.005586128
81524631,0.0057599903
86516095,-0.008074153
102409007,-0.0008033342
26536375,-0.0075485525
179687566,-0.014986428
101939412,0.0006009175
30613214,0.0071739946
197480321,-0.0020278124
109266662,0.0010217178
71922670,0.008592767
124554521,0.022655198
65294281,-0.019880299
37121898,0.0036544465
39469381,-0.0020699685
152825853,0.010587562
17474701,-0.0027164652
193439175,-0.011478285
59059508,-0.0042182948
29124046,0.014623976
102128076,-0.0044184034
102420163,-0.0006049428
187704166,-0.0029570614
103587912,0.0010625189
194583722,0.010546603
10868935,0.0018448506
188576519,0.0024176696
119154495,-0.016649423
24667805,0.022304391
162121107,-0.007981713
42766962,-0.001045398
100637971,0.005511949
52639282,-0.0065408223
155662485,0.009675789
81717908,0.0073984438
181842024,0.0062943087
35106988,0.0036670545
63741048,0.010232284
78744195,-0.0013707568
103583498,0.00035741623
87414326,0.012818906
168128089,-0.01578409
93616192,0.0000588108
196438240,0.021491032
153574223,0.004566338
43872536,0.01454754
190505754,-0.0034012413
59851971,0.0025818513
102515404,-0.0003317855
77953277,0.002182525
148385092,0.010419439
74712419,-0.030198378
153961521,-0.015649788
135577452,0.008315573
194624672,0.0008178836
83845464,-0.0024925491
102609557,0.0011756343
171360081,0.00048803186
102367815,0.00016325506
35992894,-0.015595945
98962078,0.022351105
186175751,-0.0067755072
55123066,0.0014489221
149133127,0.0069863824
82534834,0.012635811
107011195,-0.00775234
64939366,0.0001414982
170279476,0.0046388363
104749702,0.008843692
103120588,-0.00077834044
3195697,0.0007546887
124442864,0.006535594
159833636,0.005551933
102906261,-0.00024183118
85181600,0.010258234
102124662,-0.0006049428
102846088,0.001308003
68828815,-0.0061879284
102606037,-0.0015878638
54338809,0.022345478
193854877,0.019138906
197696289,0.0035581666
103404062,-0.0012238589
73535861,0.010641006
63747892,0.013402872
44982420,-0.005402764
7229143,-0.013754562
7587852,-0.009809239
66670235,-0.011789063
93280389,0.0045982595
32385849,-0.0004819137
100294294,-0.0055105556
92102587,-0.017010018
118855734,0.00046780054
169147880,0.004492344
102460671,0.0015510127
101409953,0.00058838003
8716076,-0.009342229
199094306,-0.00028512374
104094055,-0.00048304378
143804311,0.003945593
3844480,0.01181543
160903200,-0.0043099704
110291227,-0.010096581
151172699,-0.002707753
103161211,0.0055986564
106986240,0.013942191
121693770,0.0116707
195081375,-0.003799493
148107446,0.004261105
114835788,0.020970168
148121620,-0.005108202
102433941,-0.0014840312
53205483,0.01583454
38746558,-0.019049788
104968737,-0.013541159
100524677,-0.0053243116
179216645,0.0034188717
177228622,-0.008147276
36382362,0.01291924
98237455,0.00542742
173942296,-0.0011031565
38833363,-0.0000018248148
65812319,0.015190454
133942110,0.0011330557
43520245,0.0162109
27295059,0.0032126019
25630433,-0.02193069
35756765,0.0016050122
17896324,0.011725362
80090247,0.016815042
69332073,-0.0148233455
154430898,-0.01639863
191263722,0.0030894913
2410725,0.01452099
68681898,0.007438007
124803573,-0.014254558
88721234,0.012259413
174748812,-0.010381577
103542459,0.0021907513
38185326,-0.0017543031
132587778,-0.0020685776
84580925,0.005903994
105398413,0.008876599
116704469,-0.009036877
128014279,0.006966585
10231196,0.0054845107
182136992,-0.000008876133
182138063,0.0074775764
27898110,0.0019206663
100360218,0.011610478
163772245,0.0060272566
132260665,-0.0132944565
194914516,0.0038911428
48588423,-0.002963097
79181246,-0.008617159
199186189,-0.006567109
12375477,0.0039749932
24968571,-0.0013052886
103987537,0.0012568163
58223571,0.001789556
108256344,-0.002237828
66073667,0.014840859
181004112,0.009811731
7316696,-0.01154144
171284154,-0.008025848
155006242,0.007896691
102756450,0.0020041764
152200313,0.010436476
21778993,-0.017300123
88815764,-0.008680336
61903605,-0.0107762
128514456,-0.0042731655
159170066,0.016340226
187545875,0.020546563
129726292,0.008143655
158756580,0.0037568118
129869488,-0.02051453
32123262,-0.010866566
198863651,0.009995246
43389617,-0.0028798394
89424701,-0.011846475
49233909,-0.01355477
162465333,0.015085282
187846425,0.0072380374
193104803,-0.008837351
51082033,0.01446146
7105326,-0.0031303135
181174922,0.0052480726
156144225,-0.0031701203
134601904,-0.009137025
141491429,0.0022187498
9266266,0.009533884
124768505,0.008197077
33464455,-0.00045185283
95757115,-0.003534556
172743663,0.0041834987
178975752,0.014463557
100440325,0.020971783
59220496,-0.012502944
53782993,0.011622899
176208821,-0.008336692
185447057,0.0031690442
186324831,-0.01910645
227957,0.029086309
114362055,-0.009142618
120430088,0.002765742
95731780,-0.0060248384
102529510,-0.000113600574
156504079,0.0010500915
103053395,-0.001099789
66478255,-0.019673953
76735802,-0.006778709
68645458,-0.014547793
55726110,-0.0025711926
60845538,-0.008211254
53640096,0.0072643524
86257176,0.018680109
60253059,-0.0025551054
167010974,0.0084983315
92015007,-0.00056752644
100012139,0.000647304
63783476,-0.007533172
106506617,0.0086813895
71386812,-0.009102316
25862795,-0.009086892
167127720,-0.0048164884
76374403,-0.0013374527
29826558,0.006542439
80769531,-0.005305557
141613437,0.0059593753
54359945,0.0062874574
56295225,0.009345438
60541099,-0.0011213891
183099850,-0.010932607
57558850,0.0089319
118709022,0.006489318
71148597,0.008691427
155869600,-0.0029630503
54495163,-0.011046223
102393459,-0.0023178495
116134085,0.006491047
5885503,0.0041337605
151367766,-0.0006961896
164929217,-0.020461947
86823403,0.0020069948
74570705,-0.007488573
1794493,0.016108401
102531138,-0.004285398
82076676,-0.014220047
170064153,0.012336486
171113970,0.0010546905
165858873,0.0064073843
69987482,-0.0058654016
186968470,-0.0038673
160099141,0.00772191
151342091,-0.008954793
54837851,-0.004416745
26733179,-0.0059397686
46012118,-0.016969075
34277398,0.0116359675
193952789,0.015285109
8175467,0.0017791284
61165871,-0.0047225677
14705111,0.011466818
169317759,-0.009076764
38371810,-0.007333912
107943528,-0.011167651
191631336,0.0069739716
176710107,-0.003791798
86091203,0.032038696
144642028,0.0007437646
53122513,-0.01542691
84951512,-0.009185924
45091641,-0.016706752
161640758,0.0066877548
198368790,-0.0015762536
43903162,-0.009796282
43827994,-0.004278879
138511097,-0.012228801
133788640,0.006384488
156467272,0.010923994
48344272,0.018158294
165488418,-0.00994258
8195527,-0.0093450975
184543436,-0.0025221885
98663557,-0.004328828
60441536,0.005637314
188286985,-0.017729372
160860286,0.004175598
197448547,0.0011624995
78859913,0.014793716
36135414,0.004864742
53606741,-0.006915655
168295759,-0.004841079
69485385,-0.008555514
72990168,-0.014679657
152174922,-0.009685022
11692314,-0.009019007
57425250,0.00851005
103544289,0.0011348149
182830644,0.0022553445
131784437,-0.009512124
11598022,-0.0033128809
163396116,0.011531747
95583125,-0.0013304311
193145101,-0.0033359374
130844473,-0.008914517
55004470,0.0029646012
103863890,0.0017591703
30786967,-0.0050996994
160600684,-0.0090971375
101382756,-0.00073310867
115212682,-0.0025200718
6655242,-0.003083091
80068394,0.0019559667
111403997,0.00006119593
183887940,0.012878993
33375477,0.0035029834
108920998,0.0032264052
7825575,0.0047891056
65868432,-0.007476079
187874203,0.0101429885
102435050,0.0012125991
129233242,0.0014476284
179395729,-0.017687427
68419699,-0.007949377
143329062,0.004465158
171901905,-0.0177875
79877681,-0.013749083
142579233,0.012059533
147687364,-0.014898517
153531531,-0.005127368
166385793,0.0015075181
152582893,0.0035217046
115734486,0.0021212487
133778755,-0.00067782466
161085182,-0.014248963
34732199,-0.016231336
189842860,0.009055443
117819862,-0.008860767
114481654,-0.01140271
103309057,0.00095103856
30696062,0.013724528
57581059,-0.0046212384
175627746,-0.020784467
13740020,0.0011048479
173333536,0.0013849555
104337743,0.0029174064
102621233,-0.0016225078
61710317,0.009046814
159521426,0.0030405468
197093303,0.004717701
128310209,-0.020417651
198441360,-0.0038251313
34491284,-0.0025465183
169247804,-0.0025530942
11629,0.0006559842
119459045,-0.0030728623
182672197,0.017864605
45031410,0.0017022991
78792944,0.001732347
48214825,-0.0086743375
124836991,-0.0084397
57897066,0.0064318106
189838882,0.0036393707
32250803,-0.005741152
102366106,0.0014373478
2179299,0.0069056386
170854903,-0.00040410418
25956162,-0.0029029904
188020271,-0.0012867573
138062976,-0.0022867706
24175268,0.010664187
191877353,-0.00097407814
89891281,-0.011549221
36306045,-0.005956831
195660615,-0.012997866
37293354,-0.006917686
87883825,0.016294153
94418651,-0.004015186
106325887,0.015816461
102580495,-0.0010692576
118598022,0.0060875798
154968204,0.009032937
171099275,0.0016701282
125095167,0.0038849898
150993251,-0.00026021677
102801912,0.0022751184
57860970,-0.0046677077
130079885,-0.0006590911
140226508,0.017350089
20445780,0.0062853713
114366853,0.0023966895
68705383,-0.013543096
33605850,-0.008820109
31196200,0.001128708
35344623,-0.006493759
156489251,0.0133911325
172252072,-0.008257061
178267316,-0.0031857118
14892960,0.0012627894
158067599,0.006654552
138905259,0.008550714
191130202,-0.0012357091
55404132,0.0015223725
60435845,-0.008630455
103863243,-0.00089412264
132782270,0.012113745
174474289,0.0000001938746
38143431,-0.0005693583
123190916,-0.018885871
196717714,0.009259624
151013274,-0.024269339
116363476,-0.00016148835
42874258,-0.0033092531
43396595,0.011502206
103403262,-0.0023178495
35304177,0.008560587
186454057,0.015145262
99833894,-0.0027313617
57445983,-0.0027781248
18425029,0.008151885
89660055,0.030220987
25651919,0.00864815
64971458,-0.008508254
43790540,-0.0017242251
64043653,-0.011003427
29971045,0.001567817
48846156,0.007849439
30149185,0.016160026
44032393,-0.023676008
103053037,-0.0001941246
199612969,0.0016171288
101436953,0.0010518732
102974300,-0.00049796636
63764425,-0.00620414
49826623,0.00804523
112030816,0.0038078718
23511285,0.01487352
64417188,-0.020358711
104133584,0.00043899944
26109218,-0.011961556
7279833,0.011617935
103570317,-0.0037990923
57619172,-0.015227983
111642280,-0.017583504
186839843,0.0028641527
60344356,-0.014042835
42242488,-0.0008739853
189182447,0.0026927455
101153440,0.0089517515
121814464,-0.015598891
118990849,-0.012613932
46623230,0.011457196
120646714,0.007555815
188311866,0.00776285
48865526,0.0012687574
78027048,0.009987074
191209575,-0.00957923
119939408,-0.0005665797
887047,-0.008790558
77400640,0.0041641165
120509498,-0.0010335002
143170917,-0.019419668
115981841,-0.014217114
97015411,0.005683138
52709256,0.014611808
75788733,0.0028096351
149536022,-0.0069745705
134673130,0.0039482093
103986160,0.0037442953
153651736,0.004205607
191729982,0.00013463722
103404450,0.0036184362
103170321,0.0065340637
122415168,-0.0010852667
104175088,0.0036184362
181842552,-0.009845901
133855416,-0.0021064111
77896524,0.007295139
21177229,0.011391296
26216992,-0.0038961933
199012893,-0.0045066546
141802007,-0.013832312
77281061,0.008747529
123193861,0.007060757
39122862,0.0025622332
40351292,-0.0057466477
43584379,0.0047185915
25837949,0.012067584
161547224,-0.0045793927
110160331,0.004382084
14401424,0.000352434
186912735,-0.013633585
17171409,-0.0060024196
19446102,-0.0042774845
34244239,0.009217061
8832801,-0.0041585653
86407543,-0.00096856226
69277393,-0.009186346
145115198,-0.005631964
3827747,-0.01049456
88956646,-0.0013161902
22299791,0.010630339
144304186,-0.0007398307
7588408,-0.033855513
109806208,0.006426211
152546495,-0.0066288305
161194839,-0.009439334
133397616,-0.0011366066
97520051,0.006143121
162720745,-0.0031338031
12740093,-0.0011281278
107628741,-0.0021421204
72992387,0.0023038827
57666819,0.0068413275
527172,-0.007528801
89746903,0.01503231
22988576,0.015149106
19565286,-0.01981579
143759106,0.0141184395
72325603,0.007842448
62744481,-0.013408533
123229745,0.005233912
67680924,-0.0010178043
37685689,-0.0013102676
194402545,-0.004862456
170251233,-0.0030916387
165842895,-0.004585578
11609041,-0.0067679523
188919318,0.0016303448
45742145,-0.008964264
102620459,0.0010652044
73047798,0.008691543
151723632,0.016921183
16154879,-0.008775795
158993351,0.0058946335
156460449,0.019391123
34384998,0.0034918245
136124362,-0.009424552
135649755,0.0017196772
50358269,-0.0045789885
103998459,0.00003425891
166910226,-0.0025922458
103554789,0.00035388433
103702555,0.0010476777
119743855,0.00545031
157228619,0.008995782
185448313,0.002569981
90007061,-0.022201575
162659018,0.01153133
194437010,0.005025166
184997258,-0.0127602685
85105072,0.003321049
102220576,-0.0123474365
43655800,0.00007881588
20097599,-0.0035242399
90642443,-0.018566385
152969148,0.009456908
118079594,-0.012443927
87310337,-0.005981171
1951587,-0.007174523
149143204,-0.0051371856
139631474,0.0074726627
61917295,-0.011119039
29888098,0.004306757
95959998,0.0023321859
93131600,0.0065406794
94545280,-0.00085798197
59383335,-0.0066509917
48358189,0.004513542
55282569,0.014543103
124290302,-0.001982903
7574074,0.013974944
164630901,0.010851466
89097824,0.006796276
133266456,-0.01689726
82437273,-0.014250143
3330506,-0.010104241
118548303,-0.004289304
33053623,0.0070362594
112646327,0.0051423083
132088361,-0.004709413
141131702,-0.003111752
103594743,0.000042041225
35264808,-0.011652565
167183179,-0.0021262344
129023972,-0.011289236
192124320,0.005623931
7162101,-0.009162443
163293985,0.007338268
18052905,-0.0041341367
72413455,0.0042636986
155192128,-0.0014158228
122172356,-0.00574354
192104095,0.009546015
168230176,-0.0054555624
194086357,-0.015531297
41862781,-0.014234506
140353440,0.007134798
102353498,0.00003260482
38735216,-0.0052588643
69763869,-0.0103986785
199732292,-0.030572947
144839827,-0.006417828
91766573,0.0049727703
170341230,-0.02473374
132935444,-0.0006427791
33444982,-0.018448902
13454173,0.013609001
108673728,-0.00012237977
97842341,-0.011091045
127980215,0.0123269055
102756233,0.000097512355
4015108,-0.00080962334
142454889,0.008660943
44666136,-0.0025471852
178630975,-0.010258928
20786947,-0.00480806
136314490,0.0024702067
182409657,-0.0030053528
86849067,0.008984442
101450193,0.0038047594
18721282,0.011476348
129439817,-0.008477467
103741147,0.00061110925
87763236,0.027487831
173052288,-0.0011491441
83660491,0.01617773
153643517,0.014859917
177240551,0.005532903
49030292,0.0012190823
33036811,-0.014674609
171710409,-0.00082814414
114687478,0.009592285
102366764,-0.000100150595
55524830,0.010401679
48190809,-0.0009202698
51559046,-0.0034565865
25447734,0.0037061076
154803063,0.017126756
154048997,0.0049220733
138240841,0.00820407
103789506,-0.0134829795
170976516,-0.006516251
35528385,0.011145455
58839319,-0.0075627826
30875591,0.0060105193
130516810,-0.00818902
15336515,0.004140429
75131701,0.007151053
80029233,-0.0064067966
151500458,0.0016430815
64760145,0.00021517489
182857382,0.006031401
103025280,0.00006728553
109858240,-0.00855388
179516673,-0.0059220255
4965666,0.014951906
89982159,0.005930426
112864213,-0.0064264713
89851618,-0.008521476
24698388,0.009851894
167802037,0.0164754
89755858,0.006657946
187054737,-0.0055332705
60770951,0.017360102
112895535,0.017601354
153771556,0.0019493436
166123396,0.004865649
27696574,0.009635371
38562368,-0.00033411244
198510355,0.016744455
27310377,0.014542138
87370481,0.015517874
108325156,0.00269909
133600018,0.006397748
137849820,-0.0066221706
94556712,0.010121784
187347466,-0.0034893274
102353084,-0.0013159235
111403204,0.013059737
125419621,0.0014298789
50466285,0.023863962
188611360,0.019084418
119997311,0.008147205
94407892,-0.0030269895
71172882,-0.0121039385
124228504,-0.011339422
54796278,-0.004375163
118785373,-0.012897177
193078708,0.016963195
43233196,-0.014390778
6467285,0.0025632852
192521525,0.0012421353
73992898,0.006434365
191514190,-0.0019448545
122860467,-0.015873495
159636580,0.014234571
28280069,0.004379977
103489953,-0.0003230113
125318017,-0.008365687
3394445,-0.00021241535
107016907,0.00078329764
175741042,-0.0019231761
24379750,0.00226954
159985450,-0.0089652
82986305,0.002316223
34171292,0.00056156446
102837453,-0.0018496729
103986961,0.0006836898
61829554,-0.0073154625
164174870,0.012661259
23091863,-0.003443248
195837737,0.014103549
32847365,-0.010036072
36186468,0.008384544
102619761,-0.000033390334
83753761,-0.009833623
102621010,0.0023544205
170272467,-0.013770628
160684781,-0.0069655566
148404465,0.009524261
76355661,0.009787381
96356115,0.0020715562
23335319,-0.012810022
104160861,0.00090892374
138744030,-0.002759294
132099904,0.00092824775
52795327,0.004808965
86869983,0.0060680476
192701354,0.010880088
105367438,-0.004768598
100471036,0.012609827
180553634,0.015799087
59951265,-0.0053885193
179990874,-0.01622936
102605289,-0.0015878638
94364277,0.013308509
153634424,-0.01131871
45361983,-0.0039883503
129297858,0.003142971
103025390,0.002227651
126927708,0.018740904
108547261,0.0034001507
17355845,-0.0019237837
107476343,0.0061890725
21881542,-0.013606261
134631239,0.001863854
70685552,0.00017642177
132434781,-0.0047311857
84126398,0.027550876
196079968,-0.007735075
108964046,0.015927084
177926397,-0.008306399
137416833,-0.003089834
123093302,-0.002082216
144020329,0.0043157386
72568402,0.0035220918
197091741,-0.004864271
151307324,0.011087788
6053981,-0.011855821
160844270,0.0007046537
181480992,0.00421598
37860868,0.0011218917
109474039,-0.008209213
21262435,-0.008566803
173011573,0.013197508
78414532,-0.0025089881
19198690,-0.0066879955
102609780,0.00061290176
84752595,-0.017942999
103403564,0.0007856283
171920681,0.004874784
182298654,0.007134557
66920508,-0.0062921224
40766977,-0.014549013
81381423,-0.0035820901
182727854,-0.015599541
114469532,-0.0025686547
185054416,-0.010586572
152106841,-0.00551459
82062875,-0.005792129
106757908,-0.0080264695
153896293,-0.020529851
156399291,0.003935867
103025765,0.001320085
183926366,-0.0073882076
38387302,-0.014690014
106581110,0.0024552888
189713241,-0.011089391
151859394,0.0037252165
119584683,0.0015645396
176778513,0.003238428
60264011,-0.0034965326
27229556,-0.00075775967
162882772,0.012829931
77937925,0.0033013076
26776985,0.00044175042
180741698,-0.0023544736
187386421,-0.01835726
104093084,-0.0004948464
102921351,-0.00050804054
81170735,-0.01900008
78669165,0.021945104
39967844,-0.006326995
21535657,-0.006653866
103569124,0.0021300744
78385077,0.000041746018
40877002,0.0001260255
102407412,0.0006009175
196391035,-0.0031652981
111479359,-0.003370368
181111489,0.006504246
102448043,-0.0011966277
103121406,-0.002618234
167611293,0.0034070408
188086222,-0.010030733
111636464,0.005127334
82151184,-0.0031117115
32506291,0.012838909
100782746,0.009112152
133704152,0.0046072276
8277849,-0.0058712796
103569764,-0.000100150595
125271568,0.0076858434
38622720,-0.0005791684
54109289,0.0027741399
54901326,0.0020555397
127759587,-0.008094744
70394094,-0.010696319
61717876,-0.019271372
20305002,0.0059626107
120429356,-0.0016393625
156427433,-0.01033552
33092741,-0.0032964332
16871842,0.022712955
102369050,0.0012125991
193191316,-0.010654002
174048892,0.032197285
7408331,0.021154761
99712626,-0.020578247
37865332,0.009315316
57735273,0.009290277
103905206,0.00031154064
184147051,0.0065554916
100337400,0.018924588
103485516,-0.0049695955
