166137046,0.0023975526
103475667,-0.000060015147
103500001,0.0014310952
157903449,-0.0012256836
40222110,-0.00019930367
61118097,0.0038882224
178686543,0.001915777
77555834,0.005608185
139561917,0.012212885
135020012,0.0043967357
79105525,-0.010364519
21518040,0.0150801595
103555043,0.00016852342
103488594,-0.00014643096
101397058,-0.0000028700997
102681993,0.00001606254
143795873,0.0015750579
120182599,0.005535412
103475499,0.000036444468
102610771,-0.00022092895
102611471,0.00009101305
11377752,0.011296699
102380632,0.00006638433
103601290,0.000042312167
103676307,0.00003653506
102756456,0.00014173827
80604086,0.009080176
34876513,-0.00069888553
133263933,0.012261495
69785765,-0.010822148
103907616,-0.00014598078
82397616,-0.0075624106
102678764,0.00032991346
103554056,0.000007857801
97391516,0.0027103268
122352013,0.022195904
103024548,-0.0009906444
110034365,-0.015408205
86314550,-0.0033918484
103704762,-0.00002340338
136557036,-0.010020195
33457247,0.014881228
150351799,-0.011447724
102673597,0.000004900916
102607510,0.00026116078
112109763,-0.004216343
96792881,-0.0042534433
12399290,0.011342854
102606744,0.00046514958
133253065,0.008955006
96929735,-0.0035514953
176195275,0.006369035
9140313,0.011559333
102729041,0.0000064935684
128388645,-0.0047080154
135495242,0.02043675
103877334,-0.00017415488
155618415,-0.010691311
61609280,-0.022979604
103970523,-0.000018010098
17799254,0.008546718
101929651,0.000040211948
103492887,0.00036375315
144584892,0.002482216
166483945,-0.009489294
64149400,0.0034292978
181247167,-0.0050787013
102837143,0.0111543415
102434412,-0.0008912545
101578919,0.0073982948
114272428,0.01013431
128860584,0.006811997
14634207,0.013944575
102501791,0.0003442651
102679954,-0.00010933548
103985264,-0.000025582985
102556953,0.000255133
100478817,0.00010236488
156462292,-0.008473274
21785062,0.009634776
127174232,-0.000362226
115555169,0.0011170853
102353669,0.00041080645
23820809,-0.0014296308
173933034,0.014356353
161791083,-0.011075763
103992913,0.000013884415
143517958,0.0055257925
89384917,0.0070262635
193538540,0.0025182697
13397725,0.005949209
103557138,-0.00041983734
79656950,-0.005812132
101490918,0.00033545322
103878026,0.00006331205
25386998,0.015522639
67707967,-0.012245799
102543012,-0.0002733343
102599412,0.000009896028
103672941,-0.00004475612
101403460,0.004165998
103960033,-0.000051572344
103530425,-0.000008391016
103811405,0.00014451101
102455271,0.00005040241
102923300,-0.00004857295
103797124,-0.0004792519
141884227,-0.016944885
102498001,0.000054189757
187811068,0.00048695013
54357615,-0.005307709
60302817,0.008131203
2486890,-0.0044060224
102414888,0.000008224838
154617698,-0.011516205
77073868,0.0062931525
78848805,0.008451744
23255535,0.016277876
191052075,0.0019908925
178392826,-0.005617717
103404062,-0.00033376578
104161941,-0.000043053005
22180914,0.004883963
103323786,0.000006277795
102937091,0.011128006
199122941,0.0027460244
103558317,0.00014182451
135936639,-0.0037089917
103188088,0.00008451461
109329004,-0.013230153
22100948,-0.00070810295
23471647,0.0075405138
102446390,0.000052188218
103580678,0.000082804705
20178328,-0.000010279789
182274399,0.0060053873
36657798,-0.007423241
41974869,-0.021177934
103519155,0.000011514874
125382025,-0.001041586
25826537,0.007367286
56271401,0.0052953116
89393204,0.006133523
111178059,0.019819038
160339521,0.0023772886
103743359,-0.000106007705
103972382,0.00001316757
102367641,0.00043984325
176424228,-0.010162941
102362298,0.00024412521
129083259,0.003930478
163649955,-0.002912698
29641746,-0.0045788973
69308645,-0.005728669
102729384,0.00047315084
102401297,-0.000045988367
102348906,0.000090082496
112979569,0.0022468222
102450993,-0.0000244043
103500215,0.000023668294
103584005,-0.000021204452
12975709,0.006399145
164830035,-0.0106292
102448585,0.000051079627
80889760,-0.011273879
158959894,0.004329418
103475382,0.0001689174
102890301,-0.00005570254
102556611,-0.000049021084
103675941,-0.000050285318
103918639,0.000018542205
45508943,0.015527118
102792001,0.00008166157
102890594,-0.00046672413
121525797,0.0017984767
99186160,0.000040211948
103877475,-0.000157014
103502296,-0.00007817855
103933519,0.00004133833
161857773,-0.0021642975
131758942,0.011752398
23605492,-0.005955268
104093351,0.000112249436
48452405,0.009198896
78176326,0.01873075
61437367,0.0006110114
103987591,0.000049959264
144259390,-0.011080275
106104235,0.0011826684
190512175,-0.0047892667
196529784,0.015034563
103809198,0.00006433327
99033102,0.0049324012
103682817,-0.000026039568
103560890,0.000007778699
27085810,0.0037389516
103797898,0.00013407017
171417816,-0.017266924
101423408,0.00054845645
130375899,0.0012926373
7092242,-0.006349621
99195326,-0.005138295
156690125,-0.008557444
197092114,-0.013914969
106773133,-0.0057360358
103589493,-0.00007258861
116554859,-0.020430781
19793603,0.0037793166
101940060,0.00010248829
25827824,0.013480749
102748025,0.0016871543
117589530,-0.009691268
102356898,0.00004219148
103597887,0.0003407324
104107715,0.00003285231
103503091,-0.000022617784
108836438,0.008102949
102944317,-0.00011735284
45826007,0.00393573
103581584,0.000031669195
104147489,0.0000067956007
145086859,-0.00005437753
165386799,0.016729308
124261134,0.011784402
103598817,0.0001047423
102609782,0.00026078502
116579526,0.016343713
141000010,-0.01904805
142915408,0.0068703997
102529556,0.000007857801
78149422,-0.010105112
103041026,0.00003233139
100211067,0.00006215294
193786083,-0.020738758
125753139,-0.008201057
95362244,-0.0005327004
103518151,-0.0005801711
176383185,0.019743524
144487237,0.016040914
170899128,-0.0033531869
187864201,0.0002393989
151605591,-0.001359954
140414655,0.0053346013
103716261,0.00009926116
78604008,-0.005653277
103744509,0.00017395949
73797776,0.010689843
103496148,0.00018268473
102970547,0.000051560015
98124809,-0.00567468
45781737,-0.0037397146
118611369,-0.009988164
45726374,0.010859166
199822574,-0.008781649
104137660,-0.00008879187
101537007,0.002122556
102693648,0.00005516709
103903588,0.001307638
28849664,-0.002486903
5586906,0.0020650385
132005679,-0.0014199814
126266358,0.009319267
108384592,0.0050556115
103716916,0.00040306375
102579124,0.00017101702
104017104,0.00013909845
199523890,-0.0039803917
121092553,0.0021539347
102515622,-0.000021651056
103904507,0.0012604574
18250146,-0.0058019906
119872469,0.008630357
103987150,0.00020355172
24790147,-0.011580098
194840649,-0.0049080383
65195393,-0.004084907
72846764,-0.012206027
133091261,0.0074324505
103483588,-0.00008740047
102892501,0.00051872095
102967528,0.00009638656
154342726,0.012714174
103528842,0.00001192116
103322244,0.000009154981
103473036,0.000056606
103532534,0.000021282689
102543213,-0.00008806934
111134555,-0.009568108
127130030,0.0030883243
102529317,0.0003533595
102393097,0.000017896315
102755683,-0.00042509552
114422725,-0.0194543
103530155,0.000110650646
88938652,-0.003623882
94740394,0.022698708
103920171,0.00018842064
102755268,-0.00003113971
101463970,0.000035011337
93044431,-0.0012098385
103594555,-0.00082983996
165350068,0.008902565
103122207,0.00024101199
103755789,-0.0000118567505
116303876,0.014127369
103565983,-0.0000263568
102387952,-0.000024239622
103053459,0.00007243228
103851026,0.00012988238
74787941,-0.0015942885
95032406,-0.0010836839
18532851,-0.0033720965
103174633,-0.000007908042
103337352,0.00002968106
103959761,0.00002616136
86687926,-0.0066179577
157983509,0.00190794
127391913,0.005855672
95286243,0.006671725
167111023,-0.005794008
103498147,-0.000019534593
52919160,-0.010493497
103848171,0.00025061067
102420592,0.00008681359
102906324,0.00010724513
92371206,0.0017651577
102610662,0.000009436248
101881662,0.00001982674
104032116,0.000082893
41380945,0.0037816106
103877310,0.000032651235
65381832,0.00435187
5861643,-0.021133967
103598057,0.0002454552
104106735,0.00014903526
102542986,-0.00003111366
132276756,-0.0113924015
103876651,0.0003563983
103570884,0.00041447327
164739115,-0.004817229
103593879,-0.00062254287
103495941,0.00047779985
103716440,-0.00011862351
100649225,-0.009476827
98550359,0.0009104309
102367593,0.000033075987
76294184,-0.0038205397
2724711,-0.008249336
145058698,0.006987864
102387834,0.00006594395
102410413,0.000012127264
103797556,0.00009053624
154419509,-0.0006579922
63261564,-0.00039547175
11602762,0.009953324
159557589,-0.0114029
103916507,0.00007169033
32907626,-0.015625762
103569816,0.00008977628
91731478,0.0065329988
102757761,-0.00021744086
137060406,-0.008175641
103918005,-0.00013931417
102394486,-0.000019647736
157512403,0.02047255
102679761,0.0003661826
75932926,-0.0061584446
102610820,0.00013762257
144993671,-0.0072038635
185728448,0.007090352
171804055,-0.012444323
28940694,-0.0025649746
170817987,0.017832048
25775067,0.010205538
103733057,0.00011075272
102597557,0.00021266312
110800978,0.0079392
114323048,0.0042702053
192216477,-0.0077734157
163275846,-0.03179717
168226154,0.011277963
192562188,0.008404653
103025245,-0.0002535862
104013198,0.000033995635
103501605,0.000037367186
103548364,-0.00003231032
103904235,-0.00073026237
64735028,0.012408303
152680789,0.0022364412
103878456,0.00009701828
103811614,0.00018173891
102604114,-0.000122004865
94095174,0.0054824846
98182167,-0.006802628
3209470,0.00251303
102744039,-0.000048865186
103324007,0.000054021482
197390977,0.01668439
191474191,0.007931697
102501917,0.00007028402
103596243,-0.0005083282
118559050,-0.026901253
21069266,0.015694493
103811416,0.00015234503
164353457,0.0012748035
84678270,-0.01535477
102408023,0.00004457365
102477014,-0.000044241293
120377624,0.027251171
181171045,-0.0030868158
103686753,0.0001391489
102606163,0.000018517747
112729497,0.0030553238
102379967,0.00012131373
2296988,-0.006791778
66035796,-0.002515754
182922332,-0.008969191
44236828,-0.0075040483
103569115,0.0029615408
103051858,0.000069487935
194491077,0.008349856
103574413,0.000054723485
101477494,0.000022806362
103535697,-0.0062588626
156578833,-0.002426219
102515256,-0.00002603235
103986162,0.0002391761
103503005,-0.000021204452
103054941,-0.000006633225
104162280,-0.000106095154
141186453,0.02299683
102835657,-0.000023906767
101449663,0.000040263025
102391651,-0.0009932391
91696506,-0.009911847
102649588,0.000046828092
96204477,0.0025274872
103876886,0.00011267577
102832824,0.000026679794
149950871,0.012375065
102369756,-0.000026834676
35921078,0.015335025
162191899,-0.024144972
68797534,0.0011180333
97852084,-0.0016318937
146062988,-0.0135538615
103959861,0.00068910123
103491162,0.000055400487
80736080,-0.008396724
103825150,-0.00002572341
179772768,-0.01161838
102905652,-0.000019775405
145475152,-0.00026734298
103797762,0.0003270503
138627062,-0.010904186
85945431,0.0027636087
102402097,0.0000707043
47596692,-0.01828546
103532246,-0.00005940634
63587603,-0.008644889
102529771,0.0000010174222
103702074,-0.00011474601
54645697,-0.0009940902
102366449,0.00015930246
41041806,0.016787592
87735792,0.0021674323
102729157,0.00011770472
102365898,-0.00012879659
46468655,0.009427116
132296579,0.005306806
102958624,0.00006591821
60740318,0.008579426
126413088,0.01598939
102556780,0.00019920897
103001498,0.000052895437
49842671,-0.008122042
199660421,-0.0061557125
177947908,-0.0027174454
102969693,0.00011722967
103651743,0.0002499224
179683961,-0.0009169431
173977925,-0.0059475903
79980716,0.00043174627
39779223,-0.0146017885
103605985,0.00023347013
102919761,-0.0000027084657
102474459,0.00019669681
25915392,0.010795627
103403067,0.00046932395
102728534,-0.0006662349
104107007,-0.00003604697
103797364,-0.00013918123
101405412,-0.0000073759575
104134509,-0.00015151632
100504743,0.000040211948
103515449,0.000022268028
103503283,-0.0000546447
103849043,0.000031907173
34011274,0.017357469
103809351,0.000035198813
103403881,0.000009154981
102876898,-0.000006454161
169361324,0.015589746
103848798,0.00019925492
103809953,0.000096595024
51270353,0.0057628877
179254880,0.0020714758
63584992,0.004229072
130086075,0.011109037
100211973,0.025065143
103555147,0.000014825786
139081076,0.0059508136
27699771,0.0014614784
102473057,0.00028069824
102971414,-0.000047828584
102501912,-0.00056154566
172886949,-0.0044909576
103594528,-0.00018398909
104001743,0.0002123716
103572557,-0.000008638707
103502310,0.000032651235
79653785,0.011966162
103557916,-0.00010479411
103532614,-0.00006231264
102971400,-0.000087534165
103850687,-0.00026857705
111127129,0.010613835
102447171,0.0014139974
92217419,-0.003194973
102370815,0.00001540828
103175084,-0.00003677722
103583299,-0.000041907035
164559565,0.0090238275
122801412,-0.00011871327
102890683,-0.0014210059
102374307,0.000041871055
103957183,-0.0001928346
102877528,0.000104041654
102603046,-0.00009560839
110107842,-0.007487388
103717196,0.00010600602
103025760,-0.0000655102
103728798,-0.000040459352
103986782,0.00023383895
103931291,0.00029971794
102596705,-0.00036127845
142078381,-0.014268464
194181711,-0.0035714954
154329824,0.004203047
103569916,0.0012370526
166268082,-0.020793779
25662894,0.006779493
194577887,-0.0053241868
103127289,0.00002595188
102492693,0.0001441018
103512760,-0.000007102928
90810820,0.008404768
124348403,-0.017716018
142227851,0.004052948
103053136,-0.00023991466
103580318,0.000018547085
102888269,-0.000026335936
102353417,-0.000036921774
103566870,0.00034265
102569314,0.00026754147
163592104,0.0065679755
90188706,-0.004077689
107616665,0.0034811604
103123642,-0.00004410133
103819317,-0.00011886826
98360401,-0.0055378466
104134845,0.00003248843
102569390,0.00023368982
102717261,-0.00006228502
103702657,0.000054855947
61389573,-0.008330015
176818844,-0.017726593
102887334,-0.000056911515
167197158,-0.013594151
104134778,0.00059592596
103119441,0.0004209041
76759841,0.009090593
103932648,0.000017141092
102948954,0.000044894896
108848980,0.0017162744
102556493,0.0002764599
103325307,0.00003036764
88416015,0.0046578753
22274988,-0.0053866683
121590953,0.0048743472
92789233,0.009610709
102374817,-0.000103706974
103863814,-0.00009153578
103676235,-0.00007129708
110975663,0.003289073
101923887,0.0001370344
126473719,-0.0028678067
150576901,0.018698135
124122821,0.0003105433
55558794,0.011095228
170969819,0.011105693
103606850,0.00016067337
103542933,0.000043426015
103570149,0.00013320631
102973743,0.00017743438
62295059,0.008168635
57044215,-0.027082374
104133554,0.000039285165
126785347,0.018888814
183400144,0.01651473
103546007,-0.0000143810585
103707817,-0.000023237886
146451665,-0.0023036234
70851647,0.0029618305
101882067,0.00001982674
148707737,-0.00095302146
5917306,-0.0015504856
57738793,0.016351141
95963682,0.010206519
102477900,-0.0003060674
103823390,0.000034012235
196527034,0.015041183
57287521,-0.0137522565
102747890,0.0003640003
38455456,-0.012826436
102349555,0.00014664141
102472651,0.000242981
103850406,0.0024775406
113020451,-0.01851699
103503354,-0.00007350566
120988964,0.006681439
176343125,0.022813143
101278959,0.00010236488
103476210,-0.0002531111
166413685,0.0033050745
102921160,0.0015442645
102577510,0.000008598069
80276673,0.00081135414
1491688,0.009298805
188827554,0.01278932
102455388,0.00012471754
31954734,-0.0017403122
42628013,-0.0068002264
81847556,0.0032321322
158524365,-0.0032157302
81897890,-0.005310167
84403742,-0.009694883
102420106,-0.0003278754
102944645,-0.0001410642
61420055,0.0065923044
155983656,-0.011397861
102944297,0.00022092056
70234151,0.023200162
60065394,0.026970228
80148088,0.013419352
46048841,-0.011348188
102688160,0.000041601397
104120505,-0.00014119006
132585838,-0.0017714096
103336483,0.00036503002
173154790,-0.011005746
167662312,-0.0013606758
183006384,-0.028874367
103339147,-0.00006489855
103594502,0.000012690616
31207893,-0.001427222
118202702,0.01793727
101654647,0.000040211948
100721067,0.000040211948
103741535,0.000023120154
103557013,0.000027487124
101450039,-0.00013602212
103162382,-0.00005874464
103503912,0.00027216316
169592708,0.0055696266
168987937,-0.0014256954
102621056,-0.00013859697
103404345,0.00003248843
102582148,-0.000034325258
199283193,-0.0035798831
23352418,-0.028532788
161755473,0.002238114
57141703,-0.006702021
79581650,-0.0061918357
6735630,0.007096514
22563381,0.004924516
64238571,0.0015566674
87911750,-0.0017339473
87755404,-0.017732916
111039391,0.007029397
103918510,-0.0014614648
82077876,-0.0086276205
96713950,-0.0031112682
78138186,0.004167365
102706761,0.0000880154
42391046,-0.00081255793
150853125,0.0065108486
102620994,0.00014187298
23964648,0.0045930953
175935727,-0.006977124
181300023,-0.003726818
31330332,0.013186506
102461039,0.000043769996
49580839,0.008854372
32381637,0.0075613414
183435161,0.020753732
43044825,0.0077699255
91342445,0.0053979233
180388602,0.017796958
55237981,0.022267634
127820115,-0.014847306
104093397,-0.00011622496
184406102,-0.006483492
121734266,0.005716982
102745651,-0.00010939808
194843745,-0.0033719
102066693,0.00001266224
120330965,-0.00095341867
57582137,-0.013527734
182281859,0.008015893
150951883,0.005698817
93166273,-0.007526716
153113669,-0.019987958
41287486,-0.016547421
102420583,-0.000041096944
154949806,-0.017258782
147270068,-0.006186781
72408913,-0.006056294
102890659,0.000022546581
103515086,0.00017173124
62794042,0.016276866
103070057,0.0000057532866
1393787,0.0028208226
84699420,0.0015745977
69583533,-0.0044741426
103557006,-0.000056494227
102944647,-0.00044549807
102461255,0.00007865388
189142618,-0.0015094845
103930537,0.00010575624
103569087,-0.000018965296
155019862,0.0011748876
82849292,-0.013243701
199238427,-0.010337128
145442261,0.010689963
34887101,-0.0045253155
3766659,-0.0060555385
102404084,0.0000069775624
113285137,0.0043539354
103025294,0.00011207852
102610035,-0.00000064937194
82422404,0.0049255816
37617892,-0.0066661476
135412263,-0.01441011
126081593,-0.013712133
145470991,0.006114584
102678377,-0.0000071963514
156698459,-0.006269875
26974904,0.01754887
102891448,-0.00042443036
100360492,0.00006215294
103403359,0.0001333156
150904958,-0.003433672
199990483,0.005763456
102515649,0.0002486048
104160809,-0.000014621622
103324781,-0.000017183158
184380807,-0.010057578
102944407,-0.00004932279
102502148,0.00044362294
12055789,-0.0020435604
198424313,0.006065797
102678151,0.0014107139
103936633,0.00016073755
108930788,0.008178806
29551458,0.0028725897
22452117,0.0041618524
100102651,-0.000037446604
102820815,-0.000008838342
161666710,0.005849223
64058343,-0.0029062137
138891992,-0.012517516
103554395,0.00006117327
140231457,-0.0012444587
129286540,0.0022926624
157583300,0.009278804
138821162,-0.003931946
102972158,-0.00008414059
102890748,0.000040840285
102836667,-0.00011751654
156172408,0.021710303
102837807,0.000018533547
121900172,0.0056576245
69961322,0.025352048
103487406,0.00015939494
104121317,-0.00014962791
12638269,0.012749592
97609809,-0.011361664
100170584,0.00006215294
8175717,-0.018487643
155292828,-0.005677079
102619650,-0.00014458314
103862334,-0.00011791361
103541236,-0.000020936388
102926983,-0.00002797115
102461327,0.0002857968
115943836,-0.0103430515
48539624,-0.0067964336
103694575,-0.024102287
103556371,0.0001479497
164692451,0.0062251715
103864745,0.00001686762
85937448,0.009525815
101437532,0.000114665614
103864042,0.000007048946
180594812,0.00020065162
102408912,0.00053558126
58757006,0.00019169097
101700417,0.016809227
102300077,-0.012117424
1904079,-0.015563127
102801486,0.000028877375
198679138,0.0069003743
31567606,0.004205866
103515755,0.00039356123
102569488,-0.00007959889
82035580,0.012755501
102836276,0.00006641814
139781416,0.015722116
19941398,-0.00722063
28359539,-0.01008908
11362963,-0.0034739026
103903615,0.00070500356
72918970,0.0014132422
102556504,0.00008172302
102729281,0.000012504768
92100825,0.010831919
101396412,-0.0009622892
103052982,0.00015474671
102459918,-0.00006179133
101832456,-0.000004626273
39697563,0.0043758713
102596398,0.00033560672
149773024,-0.010522952
130485216,-0.0014543064
196746832,0.011441705
88225981,-0.010401499
103998557,0.000103751016
165002186,-0.022565972
70251127,0.0054786163
69788123,0.0035789749
34971220,-0.005906353
102502671,0.000037001075
103580280,0.00013048084
165608350,0.013610762
103984588,0.00036546667
156341128,-0.0023512214
13847811,-0.01703028
27643877,0.010643569
182245484,-0.011723771
102460615,-0.00047383076
102141384,0.000007830942
103569483,0.0000074489208
56182572,0.0056349
115854604,-0.01201206
103932351,0.000031483243
102625523,0.00004457365
106511637,-0.0018236106
21350775,0.004946655
39457426,0.020821493
103959815,0.000088085406
102966387,-0.000025079038
13830145,-0.009984112
102596407,0.00015526394
70644870,0.010570761
103743743,-0.00037071333
102578244,0.000013815141
104133879,0.00016231256
103731753,0.000025871337
42147788,0.010112218
104173636,0.00011892123
4319498,-0.022759033
102770193,0.00009900979
138636850,0.0054205447
103816959,0.00008859996
104121341,0.000033995635
51190923,-0.004711795
130887906,-0.024486072
100775343,0.000040211948
20216497,-0.0066864155
60633857,0.010170975
102433851,-0.0007441088
137301401,0.0035104817
104147574,-0.000060154915
103121648,0.00018268688
103772543,-0.000038139733
82784202,-0.023145169
104177298,-0.00024242119
102971454,0.00007899245
51854774,0.006026543
102432315,-0.000013806839
102516130,0.000055068987
44008575,-0.013072476
22518013,0.0003664765
103598255,0.00010666212
103851354,-0.0000018700275
103479913,0.000063520696
50732519,-0.003334048
102528768,0.000022213448
180223438,0.004667492
92270949,0.0026339781
103052543,0.00034273084
102619663,0.000021279291
15878816,0.0015697381
103506171,0.000059876198
103606317,-0.000074371696
102391537,-0.000020359103
102603753,-0.0003581533
104046160,-0.00037308733
62023684,0.010204059
96876100,-0.016258227
145193081,0.006108982
103717398,-0.000052081155
102447925,0.00004517501
102569387,0.00012308032
102579387,-0.00029053254
11795400,0.0011074719
102405567,0.00014823799
50250917,0.00370281
124181983,0.014175113
192842473,-0.009148401
112586975,0.00765586
107118784,-0.013917299
103532318,-0.000078460136
102447350,0.00011620208
82626926,0.0110956235
129072469,-0.014516405
102728983,-0.00078886456
89371495,0.0010828476
184756590,0.012865213
103530781,-0.00020554719
103572387,0.00004741149
148378862,0.008306502
193828522,0.00414836
103505280,-0.000016616043
102972038,0.00017200674
2158548,0.00887787
128718777,0.004238958
142580108,-0.004540058
103324624,0.0000406302
182632719,0.008406025
191846972,0.0025262192
186648527,-0.007408628
103162716,-0.000107388696
101382475,0.00004517396
54526962,-0.00088726607
26281632,0.007481307
121728649,-0.01336739
10565053,0.012181016
166951599,0.0070200465
73127075,-0.01050584
176439848,0.00020072087
150069156,-0.019805925
103566315,0.000122051744
101379753,0.00016548765
103850667,-0.000060015147
103544282,0.00021051725
103122026,0.0005678616
129582548,-0.0005347235
167668034,0.008075996
103593943,-0.00003623398
103741651,0.00028944085
132512149,-0.0053117755
8979083,0.014713238
132919721,0.015174517
24049867,-0.002620529
103986790,0.00012621714
102515506,0.000071487004
103715343,-0.000040701972
46982920,0.0052557257
51838062,0.0038159394
53943416,0.0011765558
102387351,-0.000023065968
104389102,0.0072611426
102755318,-0.00000085902866
59112761,0.0030195424
13328135,0.00646312
102741459,0.000019567131
103324631,-0.000018716199
180960014,0.0038778004
103055289,-0.000006633225
128444064,-0.011556197
82848452,-0.0054180077
119885518,-0.0029905795
103956160,-0.000052258558
138464752,0.015114031
103489660,-0.00006205563
166570453,0.019075032
103053301,0.000007999199
99011352,0.007853327
26172524,0.011150311
70015012,0.0059881215
128467474,0.0035582106
152568641,-0.008726273
56135292,-0.01753104
103403038,0.000005651894
121489261,0.025804
113047930,-0.008588367
102837285,-0.000009852082
162073337,-0.00029388056
101491116,0.00032112037
58765110,0.0022467307
102971317,-0.000044921904
77129096,-0.0005075597
186124035,0.009571183
103025801,-0.0001890422
32352527,-0.009056634
75737959,-0.02398376
3705845,-0.021357981
58700013,-0.0009870351
103547414,-0.000047828584
103502459,-0.000073644136
102570066,0.000103728715
164456009,-0.0014242509
102417315,-0.000035010584
103687606,0.00015384577
102747576,-0.00037814837
101963067,0.00004517396
103713780,0.0000067458445
43621070,0.029404823
3443901,0.006703741
102747913,-0.000057257137
81583742,-0.0042545255
103052038,0.000005651894
103557246,0.000028962997
60223980,-0.0012024425
140829213,0.01638074
102433769,0.00017980662
102972137,0.00020604109
102621413,-0.00037439636
139862516,0.011247801
101894614,0.000120716926
145774243,-0.0003665038
9898681,0.0022843725
186669834,-0.002348666
127942812,-0.0011103605
181724531,-0.0036867189
102542678,0.0010866135
102349941,0.00012471661
104181188,-0.006166773
103615815,-0.00006805868
103338097,-0.00024075525
104125743,-0.00003536998
102373815,-0.00004325067
30152763,0.021069696
11384568,0.02668633
104309059,-0.0064629116
71442599,0.0029376803
71234913,-0.00906142
51361741,-0.014757443
102687780,0.000035758418
150849475,-0.0038363542
103403622,-0.00008621533
103917852,0.00013547635
71227585,0.003253293
102610601,0.00026612938
147366831,0.004680528
72223124,0.0026699947
102395057,0.0001085126
170642038,0.01133161
115640914,-0.011948386
102945028,0.0008694058
102569642,-0.00019233528
102687453,-0.000008823347
185152037,-0.0032390933
102799815,0.00009613207
192703249,0.0016934446
121452783,0.00047556811
143392878,0.008968976
199127558,-0.012482673
88441561,-0.000058300688
9081851,0.0014574304
34514000,0.008107232
92294288,0.010237093
93517295,0.010929465
102404193,0.000018924715
103324609,0.000032317585
104107565,-0.000028485196
5838272,0.015485306
114035484,0.0012866484
8317982,-0.0020085736
103501678,-0.000005418031
104365995,0.005184444
103619660,-0.00014098443
30918157,0.0140436925
175896866,0.0077314316
2602872,-0.0032373595
80841462,0.011592588
37996475,0.01117778
102501807,-0.0010118902
119141184,-0.005619596
139987358,-0.013297293
61901979,0.0022492765
97031266,-0.00045382913
11917770,-0.012613424
107468083,0.003940266
25221721,-0.000981155
179644649,-0.009680088
103555815,0.0030197874
73656476,0.0081458185
102755361,-0.0009130567
103338744,0.00009706932
102407642,-0.00018639972
122872346,-0.00013286436
59548310,0.0099231275
102579010,0.000062514824
103731160,-0.00007169486
103931992,-0.000059368413
5463433,0.0017018807
46753980,-0.0035593726
102967057,0.000066250606
13689671,-0.0013910909
102596327,0.000032952106
103702160,0.0007838715
102972993,-0.000047942704
102481588,-0.000022578624
6723628,-0.019491209
31676533,0.012737258
124884599,0.008005636
12702893,-0.0065096705
103499407,0.000021188836
158937451,-0.007708772
14109736,0.010658754
106933007,-0.01438956
103527142,-0.000017161576
103503140,0.0000124438575
194719064,0.007324572
102836235,-0.00040212375
183862267,0.005454353
102929687,-0.000140822
184597053,0.0007449201
133589723,0.012540258
63784055,-0.0016355682
101615148,0.0019292546
136531099,-0.02051172
101476662,-0.0010249659
103810941,0.0003200741
102362507,-0.00006810192
102582816,0.000103007595
103798788,0.00018208886
115826782,0.012813149
68579912,0.0052075265
129661549,0.012000456
103904389,0.00026782395
102421317,0.0015226799
103108317,-0.0000022321906
184387524,-0.0008039486
179580176,-0.0047521624
99661815,0.000040211948
149365270,0.012894717
68619975,0.0018841695
103052608,0.00003919544
51332162,0.016892234
102370959,0.00001540828
102381057,-0.0000047333897
102435693,-0.00000349245
65248878,0.009145538
120027384,-0.00021522383
102502593,-0.00013238461
62111389,0.0009457357
103797816,-0.000016964677
199534312,0.008886229
9484524,-0.0080499295
123544800,0.00790004
102527660,0.000078836616
102569261,-0.00058619276
7180124,-0.014628353
103025277,-0.000031744054
102712671,-0.00011346795
102476462,-0.000039263115
71543166,0.001393166
103121303,0.00007431514
185471271,0.00068947487
99378603,-0.014370162
103794735,-0.00036916303
129874787,0.01099146
103122003,0.00011842514
103729624,-0.000049056103
165688219,-0.00641985
155316364,-0.032061648
70775762,0.009078233
104176501,-0.00029611358
135065743,-0.00025195337
103890735,-0.00001567317
9077508,-0.00681061
100776028,0.00006215294
103825066,-0.00011660587
59856264,-0.0020872892
102713642,-0.000067953006
102790761,0.00008166157
167514802,0.01292048
101472421,-0.0005594293
144114792,-0.005702247
103025295,-0.00009310396
103121012,0.00005987078
16685052,0.0016822412
18432524,0.008902816
103567205,0.000065080174
74679747,0.0014694721
103596097,-0.00010402144
103596693,-0.0005101762
152800420,-0.009631833
160797334,-0.0065193344
103478498,-0.000005775546
157022599,-0.002461873
12644797,0.009849919
58581318,-0.00015766987
101153701,0.00010236488
102504261,-0.000007475487
186511516,0.008514744
103057493,0.008857208
51878242,0.004545712
52546947,-0.0074320263
104172918,0.00007865323
92202205,-0.016057035
103500063,0.00017141066
197567843,-0.011320115
103688240,0.0071444325
102408141,0.00019847749
102405243,0.00016959627
46378120,0.018034818
118497442,0.007041251
102620981,0.0009818411
113575700,-0.009526139
103973992,-0.00006996931
102832778,0.000048519974
103584085,-0.000029700212
37427473,0.013088207
53985028,0.0070758355
7790427,0.008443059
38171900,-0.004513565
69700615,-0.0038926166
56739645,-0.0012895083
35582846,0.008846093
120849443,-0.021056963
103726671,0.000054719687
102620594,-0.00019399228
103475633,-0.00007903069
103594391,-0.000022932702
103587261,-0.000037656595
102491534,0.00029980595
103918520,0.000042013395
103797483,0.0000074489208
134216225,-0.01201998
102921746,0.00020906806
104125606,-0.000018745213
141410404,-0.0025490804
113292111,0.008070043
109023026,-0.0005799045
127520960,-0.008707674
15131742,-0.004523606
104161555,0.00032579037
102972003,-0.0000049740074
103741834,0.0001686577
102406953,0.00017034357
168621969,-0.0096396245
103474975,0.00004517396
166809256,-0.003987295
170616881,-0.013751844
142582538,-0.00016992426
102542314,0.000022244243
22137426,0.004663791
102944380,-0.00004381045
127438652,-0.006287554
146071418,-0.014253727
104180408,0.00018467045
102409887,0.00021196847
13413638,-0.011856588
39821863,0.0051097185
109512952,0.00488187
13020482,0.0071738428
103849624,0.0019264816
14077175,-0.013057305
95407112,0.005441242
128248422,-0.00030280056
55661482,0.0026862738
102797262,0.00012763242
103501770,-0.000065872664
102819693,-0.00011559555
99825769,-0.013752911
124947455,-0.0056279567
33427491,0.00749851
66720843,-0.011320392
193465716,-0.011036397
149483821,-0.0023643202
101777412,-0.00073853723
160215309,-0.011101894
124264687,-0.0067476043
103917405,0.00023216239
10205253,0.009814152
161285093,0.0056280494
101490837,-0.00004655043
108634842,0.0012314054
97803015,0.00033612648
102755287,0.00017630601
104394888,-0.0073080896
103025413,-0.000056286888
103058817,-0.0001100283
101409917,-0.00025372853
102583522,0.00005944498
13056035,-0.018720621
102542614,0.00022598212
194373155,-0.003778826
103134115,0.00019868184
40964480,0.009568027
102880959,0.000065564265
102944891,0.00029109296
104176537,-0.000029916911
102728348,-0.00009658762
102610114,0.0012777614
102972285,-0.0001031099
100466424,-0.010883947
72527205,-0.0100264
102460662,-0.0007824321
103025371,0.0002271175
103584011,0.00008349242
102471459,0.0007352768
102394576,-0.00007183892
116420871,0.008255052
186305753,-0.0013898659
51817839,-0.00887089
148609094,0.0018562644
135234475,-0.0027908578
102945055,-0.00033752914
195629735,0.0032991208
22725824,0.0011686006
165682969,0.007470779
172047886,-0.013850149
59680857,0.0110308295
104079762,0.00010729518
102542997,0.00028224886
103664289,-0.000047604142
103122351,-0.000043069685
103491753,0.00007320341
102890373,0.00015919647
103717494,0.00012342555
11794499,-0.003763393
86570930,0.005590209
187500300,0.0059809415
104120273,0.00005883906
101423669,0.000032101216
63031504,-0.003493599
70733606,0.009683515
158721343,-0.0013691795
103544298,0.00043156644
101490971,-0.000016909868
103810520,0.00004298605
103515778,-0.0001102229
118424224,0.0052468316
141358264,0.00014405148
58529190,-0.010611441
175803324,-0.0072008953
28011813,0.006453078
185052627,-0.0034923565
102820743,-0.000008838342
85527448,-0.02832515
113062320,-0.014411073
120642227,0.0017037484
103542133,-0.00023984643
103701905,-0.000056567365
28031408,-0.0011287561
37586742,0.008928048
102367053,0.000043166845
145814774,0.008379241
154608154,-0.004262101
103403232,0.00023672386
100478534,0.00010236488
106804416,0.0021378177
64537631,-0.00391899
126469199,-0.014223488
114836478,0.007295984
54902047,0.013904135
7627756,0.003600386
101279307,0.00006215294
103728753,-0.000018089615
109745537,0.013858762
116630817,-0.011009495
103323594,-0.00002863221
103917130,-0.000024191562
103744591,0.000035206533
140454567,0.0032726522
30960014,-0.01417611
102847043,0.00017519684
103593781,0.00010132282
16871236,0.0004814647
26620678,-0.019206477
102363441,-0.0003541738
101908624,-0.00020194352
102512245,0.000024279936
131208177,0.00037925175
103513922,0.00010419477
102928034,0.000014269534
159471181,-0.003729963
101279534,0.00010236488
109094822,0.010182817
149318975,-0.007324814
104093379,-0.00024934456
103985280,0.00078302104
103025244,0.00029805457
157262017,-0.0018623105
38190275,0.0052762167
69885817,-0.0046547395
103583270,0.00014645967
41115864,-0.0035676348
43412189,0.0049815346
101396328,-0.00004402743
181260651,0.012134062
58597021,-0.003947464
103797756,-0.0001409077
103571387,0.00013912887
102598851,0.000029172721
144024391,0.009835143
103991193,-0.000028470075
102446057,0.00027786056
102693693,-0.00017794664
103488898,0.00035841618
103744754,0.00004920471
102469510,-0.00004231169
122131006,-0.00954457
72962010,0.0023942338
104107501,-0.00029759767
103584040,-0.000022062897
189641026,0.00031101564
102418134,-0.0000263474
102569413,0.000060495604
101908761,-0.00009463862
33768426,0.004169635
78147421,0.018664628
103404807,0.000092112845
102865438,0.025196549
134607906,-0.020225447
103556632,0.0002586268
103620029,-0.00015868738
38033064,-0.008539371
158631457,0.008078733
102889671,-0.002505892
104175261,0.00026614213
140510534,-0.00838921
104160768,-0.000049849477
147643446,-0.006338274
113930193,-0.00056654465
103808343,0.00006433327
102422381,-0.00010913139
102470244,-0.00024467902
167421581,0.006178792
158793066,-0.00082408864
102755992,-0.0006132427
9652910,0.02121376
92353507,0.0068582916
103714633,0.00013253071
103528034,0.00031262948
36279769,0.015185286
150470530,0.010636701
102729459,0.00007243228
181296757,0.012330174
3352384,0.0002043143
35299994,0.0150488885
102747837,0.000007427165
102595651,-0.0008781871
103594624,0.00022217487
107290959,0.0045131794
153931488,0.00442286
58328153,-0.0138618825
103905191,0.00005590941
102407655,-0.00007824338
103121549,0.00014559747
133690032,-0.0034981684
4087888,0.021981522
11026248,0.00024153279
103551151,-0.000016713415
98074631,0.010449135
175650683,-0.008393729
103891941,0.00022215398
87258865,0.028788086
14339453,0.0074952627
103809171,0.00015351427
51679542,0.010637997
102773817,-0.0000034997397
111655274,0.0047885445
78650443,0.010116374
4751943,-0.011294348
142487693,0.008566284
124646417,-0.012448466
94900626,-0.003861201
8403472,0.01689807
60800698,0.0051016337
18661646,0.006491462
104175124,0.00025701962
24348722,-0.015395269
102446507,0.00018382163
154708439,-0.0029328885
103606824,0.00006795651
104180678,-0.00043866737
102861088,-0.000098815326
190625573,0.0008672735
27421782,-0.0103057325
102515621,-0.000023781515
15987675,0.0032617515
37672238,0.015363217
154350703,-0.011263737
16374733,0.013794024
128108173,0.00030369608
62277447,-0.001591125
102081441,-0.000019374713
103025539,-0.00007305988
103784193,0.00009045558
101787459,0.000069487935
104172954,-0.000076035234
60692195,-0.012068616
99071529,0.0017036195
57746776,-0.020095509
13698877,0.018827455
103122162,-0.00058494316
103541399,0.000088683206
103676057,-0.000097304604
2712996,0.012553294
104107142,-0.000009455125
180694334,-0.012110722
102515661,-0.000021829908
103824754,-0.000029013818
90692320,0.0008072084
102890413,0.00010167592
154457032,0.0020499083
159497399,0.0026288568
102971281,-0.00006019759
103582959,-0.00019777611
103350415,-0.0054227095
103518782,-0.000107209984
101383713,0.000034575245
95584586,-0.009526433
59836807,0.0066937334
103515993,0.0000027586884
14347163,0.0010698929
102445887,0.000304123
102473898,-0.00007779711
102889967,0.0001527699
11512439,0.001910781
67089259,-0.0034899218
89556146,0.0019931125
55029727,0.016687792
102362235,-0.00010936883
103323411,0.0000007233457
12595719,-0.003121389
102755595,0.000051843097
102359370,0.000029620896
127425571,-0.018844148
103554046,0.00039563526
108303938,0.017312044
132226441,0.003681314
90044957,0.0038348364
116746810,-0.0042055356
102365543,-0.00030021407
102890463,0.000077735094
198578044,-0.001883458
172915526,0.009385034
46533394,0.008746515
186362949,0.017851768
103552660,0.0005068719
106563301,0.002926513
72802851,-0.0020918285
79140131,0.010688309
28394618,-0.005368037
102021179,0.006596745
102346501,0.00005440342
101553995,-0.012788685
103605315,0.000037335238
103521441,-0.00009588368
102515278,-0.00028048884
138922475,-0.008843609
103052232,0.00023672386
88013142,0.004293009
104032134,0.000032395343
103706262,-0.0001687672
95930627,-0.0042968597
103037406,0.000040357358
100116351,0.00010236488
102389271,-0.0001500624
104176615,0.000112236645
102968370,0.00002986097
149657002,0.00035842322
51498196,-0.023659838
118951611,-0.0041331765
139275747,0.008995307
102944498,-0.00010778695
102515443,0.00006286684
193754830,-0.005716128
102407498,0.00217198
103586193,-0.00010898806
133999392,0.011089884
136102813,-0.0015424668
103515271,-0.000016183318
103744941,-0.000021872493
102395453,-0.000026575122
85444125,-0.007509747
103475515,-0.000024817382
44743706,-0.015068461
120085558,-0.010295103
103512342,-0.000037770402
175521560,0.007852929
103517499,0.000015502177
117803508,0.0040754806
102932193,0.0002232836
28178993,-0.0008111431
180901974,0.0021547154
102501770,0.00014998786
94385414,-0.000029931645
92558527,-0.0073268563
10922517,0.0087184645
103488315,0.0010150286
101422769,0.00017980662
118806183,0.014808186
103473055,0.000012895687
102575379,-0.000013749068
102679893,0.000016270125
153882823,-0.006853074
103500753,-0.00029297464
66801446,-0.010881131
120584835,-0.008959138
55512175,-0.009458191
102577660,-0.000025443194
45427774,-0.005423262
101382952,0.00096811034
103758028,0.000022475317
102472025,0.0005422199
89499823,0.011118586
46708448,-0.0036548197
102367955,0.00019312181
85141488,-0.0031714824
74726408,-0.028678011
126915397,-0.0003289436
147346538,-0.01287038
102354140,0.0000124438575
131284573,-0.009379896
103543655,0.00003608934
92477872,-0.002547985
164065635,-0.007794036
58150468,-0.022710511
7527914,-0.0021766513
91752035,0.007489806
101829261,-0.000016280883
103516169,0.0006862791
30720989,-0.007785184
11280384,0.010418936
44879501,-0.030848293
103025515,-0.0000014474317
102905233,0.000033788143
31115203,0.009855819
121787677,-0.0058897333
102568588,-0.0014905309
104107115,0.000008840651
88881694,0.010772834
48543100,-0.0071936026
15549901,-0.00007005615
102555817,-0.00029578162
102943905,-0.0000321
1075426,0.020980354
86169706,0.012325802
102976317,0.00018997103
102824493,0.00008728794
28673062,-0.004194312
129475978,-0.0053148204
73577047,0.012351694
51398492,-0.011416533
120799513,-0.0021676554
79042021,-0.004550654
103814289,0.00034268157
103324567,0.000048323054
135271996,0.01055243
157806511,-0.009936717
177100763,0.0008634331
102935148,-0.000008571418
103485742,-0.000048857175
46666774,-0.007946882
155000410,-0.018927023
102624567,-0.000054528435
107397164,-0.0018670144
69581014,-0.00686465
102380660,-0.00052953593
40268494,-0.00025964822
102602485,-0.00009560839
102556817,-0.00016420195
103907412,0.00012097999
102502689,0.00009045558
144346658,0.012279013
103107771,0.00012814261
100170952,0.00006215294
102502317,0.00006157581
102837154,-0.000097566204
103544387,0.00012457793
148410669,-0.0014809632
45135969,0.017082077
168158409,-0.005800264
103606905,0.00014359991
103489031,0.00007396393
57468361,0.006874506
101831067,0.00007996324
103474887,0.00078558107
39048985,-0.0008717534
51257854,-0.0023283586
68188446,-0.032944098
90168039,0.0053968234
178271302,-0.008475762
147380503,0.005745252
14243098,-0.00046768592
104180533,0.000017597276
103403055,-0.00014654995
51743678,0.0169348
103877413,-0.000045865723
140186404,0.0077601275
104148019,0.0003853537
102637624,-0.000025178088
9908157,-0.014372996
90011744,0.007238123
103881771,0.00004920471
102421106,0.00001795862
96335398,-0.005423594
188778932,0.011439272
103932301,0.000007999199
101508321,0.00003374274
103706407,-0.00006108152
140529025,0.006790696
43370828,0.009761412
102371412,0.000007876082
103323828,-0.00004782155
102349651,0.00006921505
102359683,0.000029620896
63023593,0.0020233907
39923063,0.008194277
12681478,-0.013489608
50280944,-0.016821424
69070420,0.00084631116
17702018,-0.017527014
102289887,0.0013879365
102543003,-0.000054489356
198496307,0.013533181
103734115,0.000023111597
103107557,0.00014858323
135488149,-0.019882333
103917834,-0.001117017
159447737,0.0017282797
145564119,-0.0165268
181568014,0.0026292764
4407110,0.0006283113
103025992,0.000666617
118901547,-0.005721849
103513553,0.0000072662706
61753655,0.004355775
103556642,0.00001042556
128841125,0.0071625942
142092245,-0.006642186
54105850,-0.0017713393
103795094,0.00003121985
102581298,-0.000631984
101383025,-0.0007950897
37894910,0.011147027
103308693,0.00010060449
186453715,-0.014410992
143524156,0.013610399
83349458,-0.011905468
4684156,0.006728081
112892100,0.0122989165
101787133,0.000069487935
92611184,-0.0049070744
103557452,0.00023295681
102945425,-0.00008000401
103868534,0.000014774818
57772684,0.0048650526
102542296,0.0000328847
100774794,-0.0111831
33886754,0.000092674985
9865329,-0.0008136588
104403249,0.016818503
102967492,-0.00010895828
154442006,0.0031798654
103599989,0.00001938053
103986159,-0.000070352966
46304436,0.008187306
114517187,-0.002046615
103918496,0.000007675229
102471887,-0.00004250288
122180896,0.00076951965
192151160,-0.008368808
161200509,-0.013188685
102921737,-0.000015890673
52991987,0.0062033446
103162527,0.0000029652456
102415382,-0.000009034529
102620777,0.0000649156
80726963,-0.009531854
110167416,-0.002748711
155137112,0.0016319018
34140354,0.0007382457
103485133,0.000074800635
149333817,-0.0028017187
103673067,-0.0001878728
18135158,0.0031391222
90312629,0.01230538
29393531,-0.0017910177
103488737,-0.00006168744
117176498,0.0010856724
102748743,-0.0000047486274
27956015,0.0011774277
92871103,0.004715225
102502541,0.0000064935684
103905425,-0.000008787887
38219761,0.008651658
103503213,0.0000074418713
172385728,0.0059912303
191126709,-0.0065552345
193795008,0.008343668
102431614,-0.000023771705
101655001,0.00010236488
103543096,0.000045629342
101476769,0.00017980662
48102343,0.011511093
79258585,-0.020666147
102366970,0.0002242037
97148148,0.0233589
46368643,0.01174389
44598625,0.00008472953
103797916,-0.00074416515
153091946,-0.00880003
166211677,-0.0025298137
192709227,0.011695323
103501671,0.0010052553
103514067,0.000016531329
103545133,0.00003400421
103786671,0.000038028807
102462004,0.000053794014
103517817,0.0000778518
5716687,-0.003664714
149692093,-0.010306218
102686406,0.00005599672
182404587,0.0022098108
103528007,0.0002981095
102515341,-0.000003998024
103149046,-0.000037358725
183737099,-0.0039444105
68403365,0.018235685
103515988,-0.00012077808
24043471,0.003580839
53676309,0.0038842736
102516198,0.00022404698
103598281,0.000017616243
139803268,-0.0047049862
68752113,0.014626452
102409161,-0.000104562125
30137507,-0.019745288
100170441,0.00006215294
102472317,-0.000047480193
432406,0.0026559904
73743012,-0.030299248
97632009,0.017537856
103337992,0.000112195434
103688505,-0.000055042845
102944650,0.000045177367
2694689,0.0016576445
103798094,-0.00039394695
103816398,0.00008529639
103918635,0.000097274664
79627564,-0.00679004
16968329,0.0056510568
165420686,-0.011683013
70719091,0.010542354
102609260,-0.000028978404
102570115,-0.00004381045
103904458,0.000035758418
103119387,-0.00015216232
102728683,-0.000021358876
102836361,-0.00047277423
113611416,-0.001031876
23006844,0.0038099703
103556236,-0.000037531514
103960104,0.000013868412
103323405,0.000011633734
31067418,0.0075736195
101776824,0.00015753278
102576037,0.000092412105
112382600,0.0027676167
104379185,0.015478841
45951754,-0.009168235
154992323,0.008667989
102367398,0.00079663063
102627162,-0.00016681444
97695337,-0.005445027
176162929,0.006293142
102596892,-0.00024064597
102395067,0.00015150751
103973614,-0.00022555939
102581271,-0.000013907944
102408039,0.00019171975
102922630,0.000055068987
103607298,-0.00006566077
101382421,0.0000025073323
138159599,-0.0044018826
102583074,0.00067110144
108557261,-0.008783347
88637360,-0.006464582
103570035,-0.000008054044
102503289,-0.00027742432
183628491,-0.0137541015
42916100,-0.0054319487
103917751,0.00015398282
103917799,0.00004511331
103004817,-0.00022991374
123115970,-0.024242027
177478621,-0.008753455
10979085,-0.009249528
157693338,0.0096375
18164582,-0.00068610616
33771121,-0.013247136
32523119,0.009742675
193075323,-0.017475825
101450678,0.0008038211
103472314,0.00018920327
102601317,-0.000016349033
103583345,0.00005639523
102583134,0.00000870469
5583170,-0.009580086
195642079,-0.00056075706
101383133,0.000098994366
136923360,-0.0057963864
94523121,0.0107280975
148150891,-0.0076373224
178545022,-0.0112571055
103518124,-0.0002220953
118274988,0.011314892
74868730,-0.0012536488
102624244,0.000077856545
103808334,0.00006433327
129902074,0.0017496146
94282280,0.012994576
104150525,0.000020254956
176746085,-0.0015713675
103486546,0.00051460497
104120678,0.00014520773
29453496,-0.009932038
103794798,0.000083962754
103052255,0.00008039671
1663424,-0.0020910846
153350233,0.0060654753
103134790,-0.00014754904
101506896,0.00001443876
92310862,-0.0032441788
42780768,-0.0066727228
77336273,-0.007221829
189578384,-0.0043430016
155675172,0.017544108
43333662,-0.008457005
35954471,0.006771399
166379241,0.0018347742
103862235,-0.00011791361
104188537,0.00019800778
93649907,-0.00769578
174227813,0.0015534499
180598150,-0.0010430667
132522103,0.0011236373
15182204,-0.012937908
103816116,-0.00009444795
170272443,0.010791392
102605614,-0.00007471135
104176941,-0.000028155706
101450371,0.000009721758
4898026,0.0005441779
68104364,-0.004179463
103906615,0.00007629184
105603985,0.0039389133
103583337,-0.000035751935
127869612,0.008849542
103797835,0.000002752351
15620411,-0.02547961
102569328,0.00017122155
101882057,0.0000013366744
157708245,-0.018149484
163053079,0.016656978
103877997,0.000057175337
102727612,-0.000008296545
34828775,-0.0009173941
66992205,-0.0036721379
163411422,0.0009345714
137319338,0.0010001608
189519093,0.0023603493
151040651,0.003264583
103701441,0.0017676193
102429142,0.000006277795
103505298,-0.000042663673
102687019,-0.00007609894
26912708,0.005482525
138899189,-0.0088915415
151856939,-0.0070901904
103542993,0.00059298484
102421550,-0.000014300234
6280716,-0.008423528
103593952,0.0006320435
102891197,0.0000017841694
23710920,0.009742637
57652551,-0.0035865512
103904343,-0.00007188551
103152019,0.00012195953
103488261,0.0016510511
89925491,-0.019819036
143870627,-0.005692299
197282530,-0.027552621
103122291,0.000296449
103025425,0.000019996922
102502821,0.00003374274
192538575,0.010356716
102439743,-0.00013468789
27210029,0.004651854
41662538,-0.022199104
101478139,-0.00015155527
103589412,0.000055068987
183371191,0.00971034
102474211,-0.00001818467
100802334,0.000040211948
30677898,-0.008417751
129164208,-0.006987527
116455447,0.0052702096
142717847,-0.018976495
186702401,0.011487325
24224842,0.016199546
18524727,-0.01826926
27979087,-0.0052662008
86660099,0.010187242
130686272,-0.006320581
169310225,-0.010144831
62987573,-0.0006601992
101419606,-0.00007206045
102972557,0.00014080362
103053305,0.0005208571
98197933,0.0030727603
104119671,0.00010178822
103727935,0.00020864204
175392337,-0.011912137
55232692,0.007407125
122410932,0.0023409293
159522155,0.011767274
98732800,0.013079278
103502498,0.0024426982
103323760,0.000064569824
103488953,0.00008786864
103583388,-0.000032144708
100720851,0.000040211948
103540959,0.00070169865
102620341,-0.000019858491
65381158,0.008317461
102755801,-0.0001890422
41652771,0.01186148
107468437,-0.0013356102
164617156,0.021472253
103025557,0.00033944013
103823334,0.0001797138
102514965,-0.0000619083
33508549,0.0026822796
31073469,0.012865378
1249010,-0.024021855
3667219,-0.011088116
85834752,-0.0026111605
103619485,0.00005699331
180173186,0.0058995406
102626898,-0.00008733665
103122045,-0.00023467683
103543785,-0.00009325782
102515498,-0.0016099268
102354210,-0.00047475056
113328468,0.0030163082
101507634,0.00026787497
103529237,0.00010594459
61328052,-0.0034846803
103731106,-0.00017585319
25347295,-0.015295893
102600807,-0.00021613188
146235767,-0.00004126227
58877027,0.0038472672
103821789,-0.00002001347
70985216,0.005594812
42731117,0.013367544
103741606,0.0004049165
103970390,-0.000047503767
103507074,-0.000007877476
59854032,-0.0047612865
135499255,-0.028876139
5323174,0.0060491096
103404058,-0.000037656595
103122417,0.000027613205
59246354,0.02126945
102501957,0.00013209567
155338273,0.019668076
102373660,-0.00014695765
20042013,-0.020496355
103514387,-0.000109590765
102502617,-0.000050285318
132254156,-0.005430842
170495614,0.012455822
10747196,-0.019757517
103573743,-0.000106987296
103201743,-0.0001890422
102728639,0.00001289822
103052317,-0.0000150244805
2253839,-0.00815259
103705954,0.000008232718
193253391,-0.0021545389
66961142,-0.01997151
119601157,0.022131944
4326977,0.008413212
43777879,0.0036704855
195713468,-0.008996784
103876662,-0.00053458277
128281304,-0.01885135
102379953,0.00003682996
102968453,0.000037261652
13700042,0.005147632
146670412,-0.011206423
167104795,0.019413088
103674269,-0.00004449907
166686364,-0.007825833
92353056,0.0009667441
172309510,0.0072877663
103970271,0.000053851785
188220864,0.0054525356
148274167,0.000019662917
27261145,-0.0023647768
197953047,-0.010123892
103486499,0.000024647314
151950475,0.0031729424
72844222,-0.0012117857
189719983,0.0020865314
103584056,0.000063368905
104161565,-0.00004025531
101382772,0.00078784843
130931930,-0.008564678
11215966,0.0049801413
103970557,0.00020284975
102969269,-0.000035427336
102114387,0.000014819184
56863877,-0.008372192
25023428,0.0013144719
103986809,0.000121091936
103729634,0.00014133588
103917761,0.00062734855
101449877,0.00018043835
103557088,-0.00014097952
9972239,-0.012730582
103606132,-0.00008102468
181470179,0.00028130694
24171200,0.010735143
92042387,-0.0049511963
103474851,-0.0015283022
103864611,-0.000060868108
36648983,-0.011079262
191445705,0.010980055
31428589,-0.0050699934
106933106,0.0057296404
103530121,-0.00028689194
103557057,-0.000014471418
100587019,0.00010236488
160701561,0.011475435
102470271,-0.00014501989
102392148,0.00005922793
102967711,-0.0000076231713
103878789,0.000015536154
34837741,-0.02006586
14999646,0.01009613
26880078,0.016821245
103505507,0.00014361285
101642058,0.000014302849
102797253,0.000017744755
67501606,0.007440483
64836603,0.008939018
103682390,-0.000060856142
116977,-0.0079683205
142905916,0.011290509
102619074,0.000096119
102989614,-0.000043873526
189108398,-0.0057884753
100801660,0.000040211948
93152141,0.012409899
100332171,0.000040211948
96452428,0.00023206745
103567555,-0.0000945985
175525499,-0.0033161077
189210709,-0.0018332672
137894224,0.0021759644
63140630,-0.011656631
85968127,-0.020931685
157862226,0.008254419
102468133,-0.00004231169
102570093,-0.000117642514
103583817,-0.00092389254
103731441,-0.00013514383
98676716,0.006072088
102745671,0.0000035024977
102596535,0.00010830401
38607077,0.0007557617
110571691,0.018459437
40840589,0.0030231392
197190511,0.01723929
151389766,-0.010321332
102407494,-0.000056177465
102405789,0.00018108576
102728614,-0.00037184515
124818056,0.004569194
161115168,-0.00086484133
103512890,-0.000053092495
77630905,-0.008536231
103312501,0.00009486293
101407615,0.000037367186
101383522,-0.000087353685
103664271,-0.00009821258
103584455,0.00011592993
102620249,-0.000001379613
102421893,0.000016270125
103526262,0.00045801347
101486243,0.0000072365556
81125691,0.013559931
67819187,-0.0048172427
126949969,-0.006431995
103489638,0.000076234115
89974320,0.008952665
91769200,0.010962785
193684196,-0.0077675837
125656930,0.0069435793
56061963,0.013604894
102420594,-0.00010753107
103755160,-0.0000060090088
102610213,0.0000057532866
103601489,-0.0000066889606
30488,0.0074522523
51650327,0.0025356617
102353327,0.00019036909
79760694,-0.008505388
188997819,-0.0064916317
63391710,-0.012650197
103983897,-0.000116512994
103403272,0.00050102366
103499389,-0.000008754771
103587993,-0.000041286203
62831889,-0.003740656
104161637,0.0000009989926
8063653,0.004179038
102471047,-0.000009909683
116119831,0.013563181
102501396,0.00001443876
103570148,0.000458231
80224808,-0.007982998
103520633,-0.000047828584
159630014,-0.01261753
39161394,-0.009308587
103026393,0.000016270125
72956663,-0.01926164
101477390,0.00084382884
102606324,-0.0001763196
102576693,-0.000047109195
103323925,-0.000025178088
103972716,-0.00002572341
121783286,-0.012345199
52643012,-0.0050024395
103569010,-0.000034986177
103025610,0.000037846323
102516093,-0.00008456652
102788661,0.000025764675
34259237,-0.004487758
103741922,-0.00034150397
31689558,-0.0018897618
72504724,-0.009634513
160300578,-0.0025495943
103789929,-0.011736435
101383523,0.00004457365
103959764,0.000024577274
109527142,0.0063257567
102763362,0.007200842
147557598,0.008349242
155675583,0.008935867
102604624,-0.0001644858
102880510,-0.00008357031
92057426,0.0028410691
102388671,-0.00028152042
103863124,-0.00057000486
87336875,0.005969861
102582358,0.000006950583
169434185,-0.008732767
103556622,-0.00006456427
7932265,-0.0027925777
101506941,0.0013231909
102393115,0.0013069889
101508384,0.00065138534
101451455,0.00012641889
62834161,-0.006871557
102755882,-0.0016306388
19085192,-0.0054190033
103556898,0.0007446159
102381171,0.000057577898
102569343,-0.000044360888
102515382,0.00036874786
102728370,-0.0011900803
121260304,0.0027073612
29125663,0.009510959
128878087,-0.0005891888
103122693,0.0000041456015
103558597,-0.0001270333
157876267,0.0033007318
108580776,-0.008487763
54838944,-0.008502658
163090618,-0.005511076
103686387,0.000053062748
102394851,0.00017930915
197190482,-0.0015764643
75830613,-0.014532086
175101252,-0.0011256291
181247031,0.0031904273
198176540,-0.008907189
130798223,-0.009991948
103569377,0.00021522278
103122454,-0.00013389684
103526584,-0.00019150274
102568868,0.000043593252
103704916,0.00011892123
115229970,0.0059563695
20567900,-0.008308785
103052525,0.00018525132
12164971,-0.00055306073
196968674,-0.0029745016
195955134,-0.016299272
83274378,0.010039406
13714320,0.0068067443
131303640,-0.00033524167
146061052,0.0048507815
164534275,-0.0014342922
69996633,0.0025532825
102516055,0.0004948012
103497557,-0.00005151008
102421125,0.00017496041
104181243,-0.00019176102
139716496,0.012706705
133223975,-0.015392827
27354895,0.007483305
103904882,0.0001532964
102577815,0.00011147637
29205466,-0.017915038
85001682,-0.01149814
24047255,-0.012123781
161892184,0.0017938046
53267176,0.010353099
16560913,0.0139777195
157701643,-0.0028970912
126926526,0.0048011914
102582985,0.000015941023
28105754,-0.0013634969
103513501,0.00064954656
103960771,-0.0001397532
113262035,0.01254693
103877647,-0.0014727501
103570529,0.00015279495
52713272,0.0013986055
113113504,-0.015254712
159168007,0.011689996
71254543,-0.020567574
103488232,0.000050835613
102435051,0.000008627982
139506907,0.0050089657
174410375,-0.0013651984
149071174,-0.015192558
102393962,-0.0002990705
107913535,0.00008285438
103825149,0.00011977397
102811959,0.000008235773
103849129,-0.000009511537
102692498,-0.000010193154
24637478,-0.0070029506
102793555,0.00013437215
58249203,-0.00072585203
103503344,0.0000110810115
128516331,-0.02233595
102915789,0.000037846323
59965032,0.00004496166
95863742,-0.010104835
104133798,-0.00049142755
44364981,0.007043446
102729454,-0.00019999371
104138235,-0.000008787887
19909440,0.004486816
102836992,0.0014974881
159802969,0.0032131653
103244632,-0.0044079125
103121882,-0.0024776831
144447516,-0.0014517544
104403935,-0.0013981723
102444557,-0.000009499361
102861827,-0.000097841315
137317615,0.0054993914
197603150,-0.010033199
103403270,0.00018108576
103863970,0.00006057407
101448693,-0.000056792822
102932057,0.00018914888
102791696,0.00008166157
102361887,0.00011630489
166969897,0.011872817
103515900,-0.00049622275
102469624,-0.00024411942
123228636,0.01737328
112507894,0.0106986845
102924648,-0.000050483213
153375101,0.004954237
103503459,0.0008889298
103476091,-0.000006992472
103864824,0.0007174083
102620985,0.000033839522
102873251,0.000028877375
49663592,0.0068083396
103502505,-0.00023089597
102582835,-0.000048136044
103403299,-0.00006534722
146829530,0.013564395
101233657,0.008604635
189411601,-0.0035592068
161876898,-0.009347707
102755270,0.00018527312
103594115,-0.000050283496
165757879,-0.006424091
37099390,-0.021416435
102747387,-0.00016191736
101319351,0.00010236488
102935534,-0.00004583656
101383513,-0.00006574249
173407284,0.01965797
133609584,-0.004359957
78223508,-0.0054949042
75358771,-0.0076499353
150391972,-0.0025005676
128494057,-0.007844208
103703307,0.0000010676376
103600959,0.00012839308
103904313,-0.00028474766
104180986,0.000077064025
36700778,-0.0078174835
102890525,-0.000019300052
183551890,-0.010821173
120772447,0.0129590165
102432459,-0.000089613284
67252487,-0.0018731928
174574504,-0.00071431615
48873966,0.014206218
73369331,-0.0007615561
102788574,0.00043600664
104106816,0.0001685465
102582350,0.00013798656
103052282,0.00042365715
61519928,0.015933268
102613116,0.00012757431
104777082,0.0025463202
103337616,0.000034176905
50752067,0.016398786
11104915,0.00028697654
104093313,-0.000028886549
103651959,0.00029562722
102380471,-0.000042155218
151142463,0.013950455
138613895,-0.0040763756
34784932,0.0039055455
110005696,-0.0022886342
44888864,0.012072539
44232937,0.0047864607
166628209,-0.0034969975
65193271,-0.017284464
177798087,-0.027673673
27566746,-0.00584483
88652908,0.00067244
102362416,0.000033709406
58468078,-0.026958777
102792405,0.00013437215
134079498,0.0051215785
78090388,-0.013443701
103515350,-0.00015801014
101787387,0.000069487935
153220453,0.018989425
103919280,0.00011172738
103958453,-0.000061604755
102519133,-0.00003015584
2245936,-0.0037070613
102973597,0.0002486048
129340509,-0.002754102
145060669,-0.0017484246
178012326,0.0011291101
104026528,0.00005383256
104616050,0.006573882
192766407,0.008739191
159487936,-0.00012203925
75239082,0.005638047
186861913,0.016254095
167368549,-0.0033905047
103543007,-0.00018154246
54767387,0.0077457484
109813930,-0.0050215092
103701988,-0.00007959889
126846173,0.012600301
155930684,0.00915516
24136992,0.0030163298
77627324,-0.00045360537
102907160,0.000088370856
59496604,-0.0052173417
53392030,0.0011700811
37825474,-0.0016629512
103512160,0.00052575703
94994420,0.001668462
102971341,-0.000022300006
101380317,-0.000006243614
92895183,-0.0010329935
103404557,-0.000008454316
102468210,-0.000006995235
103569475,0.00004517396
83212635,-0.0054879994
103026364,-0.00026199894
103918555,0.001025478
102393354,-0.00018902405
83815910,-0.0031597468
103891483,-0.00001567317
95722655,-0.018676704
178710330,-0.013348222
103741247,-0.00044697878
188362086,0.020886643
103479315,0.000013720536
97968705,-0.0140713
148377925,-0.0050911894
66047678,0.010840505
104119941,-0.0002835326
104160251,-0.000045425986
100251567,0.000040211948
14392967,0.023439426
101409781,-0.00028678987
27843586,-0.013569253
45020901,0.015633352
102891129,0.000022060816
90562432,0.018811382
102581623,0.0001561574
102351890,0.00014630938
102394773,0.000012703454
104178970,-0.000017680788
103863835,-0.00010072757
103593780,0.00014091363
103794743,-0.000049724462
102392318,-0.000018961477
102391114,0.000053744003
102542489,-0.000056625984
102945141,0.00008364659
103877398,-0.0000254867
103554737,0.000057508427
103507743,-0.000021204452
6427792,-0.012004672
101380114,0.00017173124
103545151,-0.000049881786
107717648,0.011486038
140090380,-0.009169154
102815337,0.000009271568
47540798,0.01583832
168889839,-0.013078845
30660697,-0.015051143
102678261,-0.00045113504
39815184,0.001004607
13164009,0.0086012045
104172905,0.00003127729
102374244,-0.000001379613
102474998,0.00025112246
103681651,-0.00012763396
161597774,-0.008096355
74728807,-0.0117211165
175256433,-0.0017829252
101424022,-0.0001370718
103851199,-0.00006360169
103122028,-0.00024770302
102946147,0.000039683215
102379642,-0.0002643891
45586041,-0.0022724485
103555967,0.00008831859
102966441,0.000096245014
44593472,-0.008789759
146883321,-0.020445937
126690036,0.009189377
73733265,0.007913212
17669719,-0.0043325103
103053288,0.00018937487
56378741,-0.004111998
102728287,0.00028491538
136046093,0.009929616
75013985,-0.0024994272
102393244,0.000077856545
92931387,0.0015349494
41056927,0.00088093284
145626513,0.036376666
154834737,-0.0006593469
41438720,0.0052317283
102596499,0.000015502177
69155757,-0.005224203
101436792,-0.000001448901
103784309,0.00008283825
114326135,0.0023858477
169370395,0.0026339614
82991551,0.01627503
82289522,-0.012522999
102944067,-0.00056952966
148509057,-0.018536542
23421839,-0.015079948
101816067,0.0000510731
103891546,-0.000031822936
31331822,-0.0106048165
103918025,0.0014263333
103987545,-0.00006830973
102815634,0.00045607903
51960456,-0.0026049775
102620649,0.0002486048
103324031,0.00012763242
89988928,0.009017766
179160693,0.018994004
18951641,-0.0032275547
34375203,0.008586464
104940761,-0.013707846
61605117,-0.012546427
64106530,-0.011254916
6434898,-0.002080105
164898438,-0.003661122
103600761,0.00014406304
103053207,0.0003200741
103072671,0.00001638307
103878459,0.000015536154
103054624,-0.000006633225
43706199,-0.0008597185
102945137,-0.00011227397
170609899,0.01294214
127676494,-0.0037101042
102926193,-0.000040494037
102674687,0.000004900916
171533400,-0.003033105
38374950,0.0003820968
160119940,0.0041769147
54744883,-0.013293869
102569318,-0.0003214901
154093947,-0.0043615694
195059545,-0.0012911941
100369761,0.000040211948
90476214,0.015965002
102734193,0.00038009422
53036637,-0.008110616
103541263,-0.000032522956
140319303,-0.008563927
76819581,-0.004585993
122356994,-0.0046578036
49636482,0.0020509625
198594224,-0.0058523915
74106424,0.0177527
101395851,-0.00034533895
102945328,0.000013884415
102621301,0.000007999199
102734454,-0.00010278686
104180454,-0.00024215237
102393773,-0.00010871152
100360519,0.00010236488
102515336,-0.000082869214
48960351,0.009740213
102935291,0.000093761824
102610540,-0.0000012634619
103121288,-0.00013698131
103682308,-0.00012641538
102569559,-0.00007862501
147343072,0.021879924
103810884,-0.000022966964
71128870,0.012225182
59636953,0.0027048546
196255426,0.009074428
103974771,0.00015538419
181870314,-0.0026567804
103529650,0.000009109912
14488840,-0.0075541055
103956744,-0.00031662962
103404879,-0.000021198846
102906744,-0.00013587417
121275935,0.016894437
171203789,-0.02117246
153720341,-0.0076965806
55388368,-0.0057516554
181250929,-0.0055954107
33228863,-0.01251322
104175906,0.00024150539
90907734,-0.007242749
103528624,0.00050624943
102082815,-0.00011748384
12341890,0.007059117
103809010,0.00006433327
58694629,-0.009843954
162956293,0.016065545
142095778,0.008944369
103502462,-0.00021482499
102501411,0.0000007233457
78457907,0.005070874
103985299,-0.000034294455
169847979,-0.00081751845
45644132,0.005086971
24779773,-0.0019008514
78828186,0.0072991336
72069377,-0.008801194
3711603,0.004719505
103540601,0.000018800518
101963148,0.00004517396
121391202,-0.010131925
46368357,0.0011651325
102891852,0.000015769365
128736652,0.0084149605
103986215,0.00005425325
3616277,-0.0009943988
103567114,0.00020911996
102437381,-0.0000798744
102662264,0.000008369264
124799936,0.015797434
103822967,0.000008524956
102583884,0.00020157592
4636004,-0.01673882
170136876,0.0016239157
127983272,-0.0034434353
18237777,-0.01792963
184101951,0.02086845
101450642,0.000009717016
102620647,-0.0004618111
182225796,0.0077797305
102504998,-0.00009933562
129933697,-0.00390108
15227859,0.00040143004
102770992,-0.000024460649
145330503,-0.007863131
102890629,0.00046599793
102921800,-0.0002126787
193091258,0.007696138
78860277,-0.0042343284
102527507,0.000020603085
103403595,0.000051843097
189617245,0.0059998482
55011447,-0.022364277
103905433,0.000020254956
60793658,0.0065651415
102971505,-0.000041216663
31272929,0.008736074
103121276,0.000007558336
102935193,0.00024029933
102728475,-0.00015577965
71942338,-0.0027521488
102678913,-0.000027640588
101477525,-0.0011086324
156785367,0.0090775
141299069,0.0011175793
192255168,-0.0017132001
120192018,-0.00026643227
102569262,-0.0009271866
102922169,0.00048262236
123299653,-0.006544927
126478653,-0.017304407
168061752,0.005981462
103823370,0.000072028524
153570601,-0.014279938
167597038,0.018302707
102555882,0.000267603
102543455,0.00019312181
103542450,-0.00005621483
103687612,-0.00006287858
102556035,0.000021793425
123162398,0.007549358
185161652,-0.023764657
73092612,0.0015505177
102847492,-0.000058494727
103987236,0.000023725226
115313061,0.002134492
195613243,0.007324965
103596807,-0.00029608991
27736255,-0.0031595246
181289343,-0.0009663279
102748559,0.000004907455
102515535,0.000016672999
101918244,-0.000009222159
97197215,0.00276158
19856141,0.015420413
6730932,0.006155905
125782578,0.009576311
102835744,0.000077856545
102747693,0.0011169587
90474245,-0.0085675595
103323130,-0.000024191562
103568252,0.000025465943
83394615,0.0059385304
100370647,0.000040211948
102540960,0.008089176
57908345,-0.006449212
102470352,0.000028327544
148482096,-0.007031183
116691867,0.011807397
28174061,0.011559086
172259588,-0.0032422878
144580790,0.0057758274
54274819,0.017932469
91718991,0.022750804
84982887,-0.016349476
103512387,0.00015199858
199448105,-0.0032258204
102625043,0.00015475969
103053143,-0.000022318029
102605507,-0.00029812782
103553389,-0.000021346345
71799501,-0.00520996
191792216,0.008453041
102417441,-0.00008940851
47242379,-0.0011543294
103636588,-0.000007821987
55893559,-0.0071843076
57611277,-0.014470821
103051905,0.0005494136
135422448,0.014585262
103309751,0.000009792664
190657653,-0.014230465
104175421,-0.00021738131
103530243,-0.0003139767
102754650,-0.000042885033
180999287,-0.010653255
103403250,-0.0000949076
103922280,0.00002668797
103554761,-0.000016385042
65562379,0.006239372
62905282,0.02018438
103040498,0.000025248712
141129034,0.0044709966
102528387,-0.0005571644
102758307,-0.000028913113
77620750,-0.015043315
103052309,0.0007462383
102502510,0.00087436213
102381320,0.00013039605
9574997,0.017792637
102448142,-0.000006917046
103727264,0.00007627046
102802497,0.000009980944
108032056,0.005155743
49274480,-0.0068407217
192699804,-0.013360199
193855961,0.012784658
10591545,0.0033366361
103621941,-0.00008739386
112412980,0.0131575
42097295,0.0032014698
103539761,0.000022196771
102502155,-0.00029547885
66161136,0.0026137927
52638390,0.0097241765
102527244,0.00025299718
102729053,0.00033604083
103986989,0.0006348074
71137155,0.0028200545
108810323,0.014632117
102448116,0.00059567473
101424049,-0.000053956646
102394549,-0.000044999066
102497507,-0.000032469772
101487744,-0.00004014122
103309025,-0.00015574328
108204151,-0.01648954
91504923,-0.008986897
103475477,0.000022729371
192629650,0.008911975
191429841,0.008764163
193062271,0.0036365374
80573859,-0.009786262
196714287,0.008049749
102621152,-0.00006762317
102354387,0.00015420985
102491382,0.00007685847
103744205,-0.00027764155
103877331,0.00011701393
73037306,0.0022304412
120188794,0.009756208
13307880,-0.010287359
103571271,0.0006337792
62882815,-0.0035764081
103500897,0.00027968534
103864267,0.00012195953
102728634,0.00028698004
37995329,0.0070030275
102420890,0.00063111406
173410055,0.004229435
173664469,0.0023594543
102505662,-0.000056646233
103772244,0.000020543059
79532975,0.010392716
103932753,0.00018208886
128267337,0.0069750333
99893848,0.0029418075
72545170,-0.00635413
102366997,0.000041295727
66051656,-0.0026285746
70133316,-0.0059180767
159293895,-0.0144670615
82955049,0.010643785
102879780,-0.00008357031
103893124,0.0000306155
103040882,0.00009927753
103734970,0.000039270144
56337167,0.009125947
100776453,0.000040211948
21552754,0.01094392
45305745,-0.006008685
171981903,0.015936974
41780653,0.010966999
115276664,-0.014831898
102515994,-0.00008250855
103599097,0.000070434806
102366917,-0.00005791181
176665280,-0.0021710757
102876261,0.000111836795
156572924,-0.009451036
104032025,-0.00023814356
185259869,-0.0046633696
103527743,0.00009543339
102432745,-0.00019445988
102560289,-0.00003795124
102579028,0.00010478213
102077216,0.0017778956
123013452,-0.0021207947
86431236,0.00478618
196055451,-0.0063469564
93459325,0.00093096733
184440532,0.005145908
195861657,-0.009537687
120622505,0.0040812367
5162379,0.0005939861
102880743,0.000065564265
103404458,0.0001222531
99111344,0.009402138
103489104,0.00019419997
195271827,0.011127405
103475533,-0.00006982324
100640683,-0.000008584033
177109065,-0.0071309484
50044290,0.0036289687
102621155,0.00009017482
103605913,0.000013851244
192287837,0.006702786
135482024,-0.001376389
103498651,0.0008195126
103814534,0.00025293822
104161134,-0.000019944066
102407533,0.00007841382
102969008,0.000021587874
104107114,-0.00015029954
135645406,0.0015943897
103984534,-0.00005012561
148331470,0.0009886182
19875886,-0.005221108
102501449,0.0001370344
102905498,-0.00058818894
127095738,-0.005143498
103985273,-0.00028894455
103547543,-0.00009243564
185615819,-0.0015739141
103795520,-0.000030272164
179282690,0.005920285
197658463,-0.011776269
50581073,0.02270147
117224196,-0.006476247
168219722,-0.0076326407
102800498,-0.00010314202
102972141,0.0003712307
102362625,0.000010117978
21998913,-0.005076364
80194196,0.010663392
103539807,0.000095739655
91946825,0.00000015342127
111406173,-0.008082802
103528565,-0.00005125414
175586402,-0.010355784
186869795,-0.016438054
36572734,-0.010664011
103572384,0.000026135689
102365309,0.000108442
132825145,0.018466119
195384260,0.0018483686
103026318,0.000017312712
102924141,0.000118260454
103569141,-0.000115438226
103543817,-0.00008033478
100720761,0.000040211948
102967490,0.000052980893
30564505,-0.017856551
102582906,-0.0007904901
55253152,0.011319669
103025318,0.000027374981
102467557,0.000012438133
31892570,-0.011756688
33828354,-0.012443207
140309199,0.008926715
8211626,-0.0017752706
104016807,0.00007750836
74401517,0.013427483
129272788,-0.00042554765
33006766,0.0058550267
102471101,-0.00000785385
104001772,-0.00014638396
104017196,-0.000067442714
68504205,-0.012581759
52572165,-0.013748637
191635862,0.009438306
103025393,-0.00005243879
157819183,0.0016598997
77168750,0.00639724
103916327,0.00006550257
73247930,-0.0054180003
103823408,0.000040468105
118422859,-0.012418334
103958387,0.000041419684
103501851,-0.0006650486
102366952,-0.00056999334
69053612,-0.012272539
102728310,0.000032651235
103736452,-0.0000016997992
184986081,-0.0134299
158249437,0.005240747
101614905,0.00041504132
88188273,0.008275976
148705220,-0.009198435
103404314,-0.000079142985
99564782,-0.008543299
103797799,-0.00014928688
103515010,0.0003283017
103024605,0.000037367186
38940351,0.008615611
103728450,0.00021151807
103743475,0.00004517396
197343841,0.012039288
102890705,-0.00036998533
102620287,0.00032850078
103544534,-0.000048339018
103336398,0.00007778432
103809771,0.000076575525
184951658,-0.019409494
60022073,-0.000072215706
103593957,-0.00007609894
102389493,-0.0001500624
116325498,0.013546218
102555171,-0.00013589268
18450248,0.0073812827
46126114,0.003534148
103715655,-0.000006781119
102454615,0.00012471754
26710953,-0.0048875846
101912412,-0.0006635173
131507942,0.0003619218
102610711,0.00006701611
133738083,0.011373518
4792779,-0.0045252074
62897284,0.018463202
103491261,0.00002154185
103734998,0.000037931488
144113805,-0.012411979
74792657,-0.022767274
102380382,0.00013929215
102847497,0.00018268473
103513634,-0.0000130775925
103148379,0.000024105211
103025335,-0.0003753995
147825726,0.014730053
130832972,0.0025715465
103552953,0.00009990049
102502096,0.000045629342
101396408,0.00001743516
103728260,-0.000084206775
74124426,0.002629311
151117042,-0.018867219
156866636,0.008102734
102717151,-0.00006228502
19015139,0.019797329
197848334,-0.00011453334
103703412,-0.000028883092
174085038,-0.01427673
167679470,0.0068587717
104120359,0.00010729875
101450058,0.000014302849
95813005,0.012408595
37418560,-0.0012934294
194584683,-0.0029577562
166298514,0.00037201506
108678662,-0.0043197526
104157560,-0.0035728463
102755621,0.0002198538
102808941,-0.00007305988
170494898,0.006492185
118594029,-0.010363252
33938216,0.024502814
103682534,-0.0001404713
102604778,0.000018350294
112746311,-0.0054964223
102855441,0.0000066167145
196924114,0.007908921
103120760,0.000040278883
103600007,-0.00019828633
189671431,0.000061019196
103571412,-0.00021630859
194219497,0.012516886
101918193,-0.000009222159
97027404,-0.0079888655
86243274,-0.021346519
116295863,0.00055324455
154424887,-0.013083607
102440507,0.00008243925
103488989,0.001036951
103998124,0.000094637486
181819029,-0.0036854185
102575282,0.00009210599
110594110,-0.0042862375
129904384,0.011454873
922325,-0.008811359
154283071,0.0045869593
35976854,0.00021373914
65880008,-0.00433052
102359388,0.000029620896
102469537,-0.00004231169
123748648,0.026418157
101858412,0.00028521207
102580864,-0.000021549507
71780592,0.0005260353
15204756,0.025536008
187987894,-0.0067820526
21855545,-0.0034486833
103667057,0.00022509856
102380327,0.00015396313
102610023,0.000037353133
101829459,0.00007477817
103403235,-0.00082015345
102457007,-0.000003141387
121172384,-0.012690196
193472117,-0.0065173293
103556997,0.00003449734
102435049,-0.000106987296
103998459,0.0001017221
43623278,-0.0041336487
136285257,0.004808112
88398713,0.0026552181
103556499,-0.00018444553
22506337,0.025445934
102404507,-0.00004983261
103639651,-0.00008456652
102396162,-0.000029740719
197772730,0.0003143716
101939463,0.000105513114
102791557,0.00008166157
102707412,-0.00008191991
103051941,0.001719362
100780008,-0.014204143
100116567,0.00010236488
98975123,-0.0070697386
155688585,0.012635646
103736067,0.000054855947
30616047,-0.017493317
72435619,-0.006254627
119650807,-0.0078064245
123152510,-0.0034721624
66595931,-0.0005045727
103701171,0.0011329
135074368,0.016280135
172305568,0.013709503
189475344,-0.0007566286
102345693,0.00005440342
102387781,-0.000024239622
46562707,0.007820406
126814278,0.000053686
169535825,-0.011465372
36896057,0.005045414
102502132,0.000288671
103705851,-0.00006021192
196175070,0.017526904
45785838,-0.004091994
103026233,0.0017355896
103580387,0.00011680905
3195361,-0.007090612
132731890,0.00018091287
102847483,0.00032886126
102891354,0.00019230026
102543364,-0.00086937414
102966771,0.0001596875
64665811,0.0062414357
199534380,0.005211128
103165941,0.0000649156
102542295,0.000060744456
100601860,-0.0035158484
103850984,-0.00004266846
62366015,0.0014327974
103743916,0.0019669635
118802999,-0.0020387045
175359014,0.003608139
188984980,0.0061914674
103025792,0.00008451461
145095029,-0.008603394
150585527,0.010426629
10007990,0.004220924
102972912,0.00023549981
102471890,0.00011433587
150702838,0.01784064
103403267,-0.000045861503
199421760,0.0020300283
102756117,-0.000006256004
102611898,0.000023090077
148618377,0.012295298
14213787,-0.0018820053
102906898,0.000012303833
81293043,0.009223961
101420235,-0.00007206045
129545149,-0.006906979
102609916,0.0005357182
103607289,0.00010694536
92743487,0.0022319916
7987595,0.0023831932
102394074,0.00017121519
85099759,-0.0021256667
101396817,0.0008954531
78791610,0.005413748
102540046,0.000026016856
103605459,0.00023347013
103201651,-0.0001890422
102972139,-0.00004741757
171626582,-0.008187366
48859326,-0.001320351
104133315,0.00028172234
29173083,-0.0013489084
31969558,-0.0075713857
120924890,-0.0012514917
137979805,0.0030927663
191696550,-0.0032598241
107114454,-0.013331302
103486152,0.000074610434
102604824,-0.00013304013
103121407,-0.00006754881
103958039,0.000048432692
92154903,0.0032797856
96190088,0.0040181163
102367142,-0.000157319
127410255,0.008158243
101507544,0.0000116813335
103516828,0.000013884415
102890774,-0.00005866234
103486806,-0.000002847682
181902381,0.016650854
102748523,0.00004457365
186567104,-0.005342841
90279308,-0.003784267
103597651,0.0005805978
100332459,0.000040211948
100112272,-0.005512939
103932001,-0.0002094511
121129500,0.004735613
103999959,-0.000008466533
101843817,-0.00003942007
20455784,0.0037085244
86092586,0.0032627797
88911185,0.0069727963
48009666,0.008888054
134459966,-0.015440332
175202303,0.020096373
104481513,-0.012674671
102580025,0.00016576842
166042527,-0.0029856823
103543529,0.00040211115
114383744,-0.009545905
101879498,0.000040791787
103983243,-0.0007329272
67529397,-0.02226186
103594671,0.00050892896
106207596,-0.005089581
60386514,-0.0077594076
59749918,0.00815373
103743800,0.00020093816
102404253,0.000022538516
2469446,-0.008662193
102367087,0.000027563612
129828205,0.002799793
103529661,-0.00000068727104
139890682,-0.0043216567
138494241,0.0076898052
182945882,0.007868605
22925071,-0.0015227897
162135104,0.0030711435
93166248,-0.0076046344
101064054,-0.0047467435
130301640,-0.0001710961
27039895,0.002856224
69053542,-0.00038478753
68341279,0.012583686
100504588,0.0001398115
102556707,0.00023347477
103121254,0.00005434223
102456890,0.000007233469
90303004,0.0061110333
102086463,0.00007309145
102600913,-0.00012859773
103108178,0.0000999814
114279305,0.0036006882
103906662,-0.00023379516
197427377,0.015202608
101947815,-0.0000619083
160730507,0.008228964
86522576,-0.0060652774
127229636,0.005714127
103539746,0.0000399168
102918798,0.000032840853
103974755,0.00010518207
10347199,-0.0031806363
103570196,0.000319651
10553951,0.011428842
102433160,-0.00012128499
51323522,-0.0033730662
102944361,-0.00047808944
103905912,-0.00013593135
102837433,0.000020254956
103959780,0.00022903211
153283440,0.009464208
16591943,-0.021029431
103053010,0.0015304524
158552306,0.0060916296
109970037,0.009239942
87985338,0.0012130191
52132503,-0.0031704777
103727452,-0.000025523725
194991392,-0.0007508067
103404450,0.000056303594
83753321,0.004883565
58143746,-0.0024048025
103863106,-0.00060291035
104089743,0.000016270125
102714055,-0.000005827541
103513743,0.000088562214
102403606,0.000018072202
102596255,-0.0002472035
137731718,-0.00086533313
102444136,-0.000058409096
134722975,0.00401304
90339291,0.014616682
90913782,-0.00022273001
102971264,-0.0000886719
103594501,-0.00041648067
103025523,0.000019343035
13296344,0.0044229156
102835662,-0.0014206178
103472525,0.00050286565
130019186,0.0025157314
15245273,-0.0124554355
102596044,0.00001266224
103534317,-0.00018179171
693968,0.0030589765
103512746,0.00003925493
103593429,0.000120554476
102596336,-0.00009933562
191645550,0.013243316
17354046,-0.0132688815
103486887,0.00015136672
81788218,-0.009379877
175113960,-0.00036979406
177857279,0.009926448
103403883,0.00011360503
103499642,0.000019621919
51404436,0.016414467
102394114,-0.0012470585
2124612,0.003827369
39757697,0.0071845064
141311538,0.004724822
141364341,-0.0016883214
140039955,0.013782366
32280742,-0.018336825
120969986,0.0018075584
167423110,0.0020797784
56246899,0.0014176706
103597597,0.00023066594
101265789,0.00006215294
103674010,-0.000019076708
135598739,-0.010829904
103476013,0.000008431689
103555015,-0.000033707413
102541606,0.0010247217
103974744,0.00029653803
112879159,0.0010711923
144216873,-0.0134081505
125077262,0.0032954635
102729050,-0.00002779684
102756000,-0.000754995
100756090,0.0067081344
170415241,-0.0039803437
164918807,0.008926398
75118465,-0.005383685
193119340,-0.023509447
102497397,0.00011149527
103337334,0.00026600013
103622993,0.000041364598
103557121,-0.0000037795162
102836587,0.000065564265
136561016,0.008500587
75988719,-0.012465288
175889748,-0.010850524
68263680,0.0010740388
144232520,-0.0039273505
103704797,0.00021197117
102388007,0.00014970303
103570506,-0.000056494227
40528653,-0.004832119
103544417,0.00009189575
190374016,-0.011155398
31345013,-0.0055467924
104120412,0.00016520901
101975614,0.0000074489208
153350832,0.0016700552
168628070,0.0015813246
197987318,0.0077915746
103025278,-0.00008940851
105958455,0.0077116154
126565792,0.0027354008
107877186,-0.01687345
39516811,-0.02238381
198684282,0.010708278
84010570,-0.016694501
102409874,0.00001371932
20913338,-0.019084364
123771396,-0.0057686777
102501800,-0.00026618925
103584124,-0.000041405936
102888046,-0.000026335936
100129615,0.00010236488
131216890,0.007150897
79528040,-0.013754944
102138693,0.00018663185
102081780,-0.000007667702
33725164,-0.0123416195
32433203,-0.006794209
174939111,0.021976018
24615438,0.015998125
103529463,0.000063469146
60674580,0.0054874495
103119459,0.0004209041
39554345,-0.008437842
156334719,0.0025461789
103987779,-0.0000011628936
17842320,-0.0073643243
104001752,0.00017918486
103595460,-0.00005936109
103323734,0.00013562622
103639851,0.000033075987
181096049,-0.013092723
118686489,0.0002477198
71350503,-0.0025143744
57638310,0.016394159
113609867,-0.008774653
102861142,0.00011122344
103728743,-0.00006659588
95823348,0.006272847
102501845,0.000009610371
103890897,-0.00001567317
103557243,-0.00007498943
40976760,0.01000872
124025397,0.003042614
64375047,-0.0025628943
102366990,-0.00007286559
103850418,0.00012875472
102502691,0.000038028807
105307816,-0.0007349809
64995978,0.013134175
103864509,0.00025932072
102557193,0.0002271175
103120588,-0.0011634155
84572808,0.0119745135
186189984,0.002517893
6604645,0.009707787
68553730,0.016060406
7552030,-0.013283904
194695393,-0.009891755
162862475,-0.005957496
20641796,-0.011905826
68275797,0.002992611
13100062,-0.0069952365
101382315,0.00048529432
101409115,-0.00051197206
103486660,0.00005281363
157816031,0.0038012187
102662614,0.000008369264
196306291,-0.0003242601
158975702,0.00090737967
103795114,0.00017786582
43316163,0.014359398
102354048,0.00007380014
103025279,0.00018363382
148308241,-0.011085119
102892698,0.00006797063
184058996,0.003953279
102461534,0.00082266994
92356112,-0.020120664
150627342,0.0112580145
175266592,-0.0059660682
40044728,0.005926433
103122010,-0.00017195445
103936651,0.00023290628
102471055,-0.00020499603
102393567,0.0011122703
103122452,0.00012572928
102140057,0.00002957083
102621351,-0.0000042748516
102891314,0.000046717163
103025312,-0.00004231169
104163056,0.000042401894
105053216,-0.00015275532
189006682,0.019204164
122143286,-0.0020647661
74510310,0.005540932
103474868,0.000043593252
68818570,0.0026918496
100551171,0.00010236488
70561883,-0.012593147
64314136,-0.0108153885
102674244,-0.000050209248
101319160,0.000040211948
102970631,-0.000083707564
31571936,-0.0080975685
102787941,0.00022633396
42288689,-0.00044159612
101410874,0.00027034868
69640192,-0.0076031797
163940614,-0.0052514
103975959,-0.000022205495
145937591,0.017909018
171163427,-0.0008111043
199029937,0.0047150184
30317184,-0.011226996
67813838,0.0024294038
102516246,0.00014820222
6374033,-0.0014007675
184058981,0.0033201063
132998401,-0.0140369255
98256762,0.004074204
103971198,0.0001508472
142615766,0.0030832165
102453744,-0.000004596206
62305771,-0.0026649942
130108559,0.01228367
102915780,0.000020662299
103534025,0.00016295974
186637933,0.024394602
116838029,0.00046683423
89526230,0.0132700605
71500103,0.009748321
144472669,-0.014545747
34933757,0.003836735
104133916,-0.0000711311
103877298,-0.00017332533
103544489,-0.00012968786
102756209,0.000109021625
126399409,-0.009340858
13629864,0.00046966277
102542343,0.000036494996
102377687,0.0000382598
102966133,-0.000025747195
102816243,-0.00008086369
103580370,-0.000028129904
8638656,-0.0012729724
90614428,0.020438783
171074443,0.0029706361
102945780,0.000059053145
135919969,0.012384935
126359505,-0.00867601
25144577,-0.016833892
13330968,-0.009531398
12255742,-0.0057689175
102504693,-0.000082869214
104107482,-0.000075457574
126233719,0.0005507319
102620547,-0.000008838342
103567887,-0.00033500255
102366139,0.000023670362
48535447,-0.004213969
9215038,0.0056192027
159899120,-0.011084626
76943571,0.004753748
184308843,0.017609442
102478178,-0.0002802164
181850739,-0.016500527
102442555,0.00010832099
31519163,-0.0066897646
196562350,0.0057216794
102354441,0.00015685782
46226278,-0.010816076
102468162,0.000036816484
103326154,0.00003036764
154408687,0.017165776
152181252,-0.005971589
102570316,0.00024478737
102363771,0.000116560404
188126840,0.001446441
104106115,-0.0006281117
102839244,-0.00007862501
98450727,0.00022830888
8155287,0.0035657706
102542458,0.000071139584
102401817,-0.000045861503
103055273,0.00004323863
102403007,-0.00008208931
103742246,-0.00005940634
101153452,0.00006215294
10340555,-0.0072735334
154219959,0.019107057
9547798,-0.018578926
46243966,-0.011631111
93778085,0.012946882
102472565,-0.000039570194
102837031,-0.00019527272
86795008,-0.0056332527
198922978,-0.0077978955
102420574,0.000051701514
103025549,0.0002373598
102456889,-0.00006599103
102460877,0.00012565679
103558606,0.00006822499
186353149,0.004360028
46251181,0.005953346
9832939,-0.0042316956
103901299,0.01391202
104161025,0.00033438636
101436962,0.00031688262
131283055,-0.007111912
119237293,0.010763796
101409315,0.0014952581
103543761,-0.00017203852
60578187,0.005896102
102836291,0.0001866099
103986912,-0.00067726796
53365552,0.002718216
135029512,-0.0035187423
103796361,-0.00015545233
102571851,0.0000921454
102440057,0.0000026140706
103517507,-0.000032766795
103516854,-0.0002629735
103869989,0.000028962997
97899790,0.026467005
119916522,-0.0061592427
96808581,-0.012032675
132432459,0.0050190366
134230887,-0.016359575
63012461,0.0077742767
103472747,0.00016964079
103717565,-0.000055518423
101073906,0.00006215294
89722853,-0.018839631
103568235,0.000019569796
102356453,0.000016237425
147421072,-0.0065470147
93956277,0.014757547
4200987,0.008589202
166974381,0.008827091
57742991,-0.0014664494
120876214,-0.0060325162
81606992,0.0120684905
101912058,0.000014302849
168760124,0.01206906
104002952,-0.000045904104
102390001,-0.0004315828
165054130,-0.0029578651
73518979,-0.0034121617
159881047,-0.009159418
138494227,-0.005541665
190783500,-0.005429311
89854694,-0.0138963945
109039411,-0.004854046
97134589,0.002662806
175125823,-0.00043237346
198763784,-0.006331997
103488001,0.0002471646
166150639,0.011825089
9019754,-0.010500224
103026057,-0.00010898806
5676015,-0.0065666344
132602546,-0.0050456724
54388173,-0.007838697
101143787,0.00016373576
85448314,-0.0010154487
48699315,0.0019405006
3775316,-0.008502928
178504631,0.0063565886
102421196,0.00088516955
103904261,-0.00018704863
102892634,0.00022117775
102542030,0.00004138438
155238831,0.005246756
103987536,-0.000070329945
66699202,0.0021118387
67664283,-0.0064085172
171245737,0.016366595
102609106,0.00090186513
103119897,0.00058095227
193519636,0.0028210904
103597662,-0.00014938763
102405771,0.00013969277
160789947,0.0046188543
65704118,0.010939415
89075117,0.014806064
7983052,-0.0049856873
23193774,-0.005077412
39239921,-0.0020415192
85390384,-0.0014692402
138052903,-0.0032800462
122642234,0.005940154
102516156,-0.00007225473
102543155,0.000006892238
129332289,0.011620101
103403331,0.00020792948
71510451,0.0011879976
27554261,0.005340142
175589382,-0.0040923124
103987747,0.00003331768
33199601,0.00064635556
103542808,-0.000088083194
102543209,0.00015225518
183608387,0.0018926928
85099764,-0.004928334
175591856,0.0005349898
101491034,-0.00023063878
185016062,0.0016358964
94135084,-0.0068317
162841426,-0.000018772482
32699192,-0.025901526
102606761,0.00008867796
103714501,0.0000067458445
102907169,0.00021734717
29053180,-0.008468739
102127874,-0.00018213305
169141018,-0.0012855935
104080769,0.00010729518
102563262,0.00012831965
103651624,0.000019749885
184819320,-0.0065917163
170175557,-0.011484456
122071525,0.0021907843
103485815,0.00003998674
102556615,0.00006952674
152406862,0.026418561
112913640,0.0007867627
102470408,0.000016412538
101506851,0.0009910283
7017618,0.0112855835
52498740,-0.016392542
103540588,0.00030902756
102556513,-0.000074174175
102529115,0.000016074773
161679855,0.0014339266
142075928,0.017518677
34311242,-0.012345847
103202379,-0.0001890422
103958544,-0.000041300184
173511588,-0.011310416
101867271,0.0000007233457
102906066,0.000033788143
102409599,0.0021643708
103489044,0.00009129794
150056296,-0.012987839
102515472,0.00023810328
112234935,0.0027198582
102349492,0.00008273079
102502213,0.0000057532866
140474030,0.013633811
33948498,0.0064108605
90432807,0.0051277215
74843428,-0.00063827
185977604,0.008598356
103897901,-0.0058587384
185787761,0.016259486
103489781,0.000035770834
168354670,-0.0012427578
147710834,-0.012935023
23822411,-0.007892197
134910150,-0.008412165
38594356,0.014285405
123271232,0.013101243
102728242,-0.0003541738
105080489,0.0023114777
102814851,0.0004906074
22102695,0.01993553
52355607,0.0074399603
4694012,-0.004950683
103542556,0.00009053624
65316217,-0.015197133
88589879,0.0032831086
104094037,0.00010458136
71006706,0.010309436
103932029,-0.00021707999
102832510,0.000103445374
167282914,-0.010084201
103403094,-0.00010753107
166145592,-0.0069740377
103973352,0.00010490086
102582925,-0.000025178088
102968388,-0.00016035474
48743217,0.020291967
103001271,-0.00011751654
102728252,0.0002332569
24597496,0.0027914469
14960754,0.0018614602
49286120,0.018024659
161302740,-0.004257754
102529874,0.0003346598
137052846,-0.01198944
102403114,0.00012055376
183286228,0.017478457
1917410,-0.016204907
180790542,-0.010223246
198763124,-0.0022055937
102351115,0.00011740863
102891993,-0.00008129112
37176205,0.003047611
49517255,0.0028659606
103822528,-0.00002001347
102379850,-0.000018336279
102949851,-0.0003217699
191449727,-0.01853592
109108032,0.009350677
102846881,0.00007609269
9630276,-0.0054291743
61299164,0.0027976588
13959116,-0.0064948
93374840,-0.02182614
102735387,-0.00006959034
103848763,0.000086078384
103491124,-0.000066291395
177128372,-0.017334787
24750368,-0.003354799
103499882,-0.000009850131
102482271,-0.000022578624
163853201,-0.011715584
160253989,-0.0073470282
39607029,-0.013271431
103502705,-0.0003848847
117765919,-0.017651306
81638613,-0.012153818
154152275,-0.013661415
80490892,-0.011283464
36167327,-0.008171236
75374858,-0.0037124131
196439914,0.010596211
103821753,-0.000045429726
102729012,-0.00051226385
102362397,0.00013971217
102414124,-0.000009034529
102376147,-0.0000949076
102973642,-0.000000518427
104147606,0.00001795862
78203744,0.0061524063
102542390,0.00083294656
100266019,0.000040211948
27803814,-0.0027727499
102556484,0.000008386636
180279659,-0.0049966928
8906035,0.004947395
102823660,0.0002373598
102890874,0.00010297311
94894914,-0.0038175054
104120067,-0.000005475787
103864130,0.0001622188
102823588,0.0002373598
102396800,-0.00010013846
103877489,-0.000549129
165772711,0.006300513
190897741,0.004289644
102435828,-0.000027444199
102437390,-0.000025423056
102661597,0.000008369264
80666919,-0.012269856
102723365,0.011744684
81051817,0.009905936
98841012,0.0106730135
31111081,-0.0035316397
173524542,-0.02366892
171471043,-0.018673504
156550587,0.0048948843
104178818,0.0002918278
103107780,0.000073713214
49814935,0.0033845876
102890299,-0.0000503168
103682574,0.00009665136
110100222,-0.015730318
43295367,0.001779461
77662888,0.0054399827
160549381,-0.011666333
76147439,0.0029990182
189914515,-0.0062845824
139160023,-0.0038817006
80311408,-0.00955169
91935347,-0.007822961
31170086,-0.010836819
80880158,-0.0021806196
73438385,0.0029104021
155007988,-0.00743628
103918637,-0.00038218268
3024322,-0.003462701
183226989,0.003206328
104025441,0.00028555436
100210959,0.00006215294
102970850,0.0000064488204
104025315,0.00021450594
41876324,-0.0037584056
103530039,-0.0000055360597
101601269,0.00011094891
103311088,-0.000008110177
47960311,-0.0018818353
103743997,0.000042375224
102407056,0.00009053624
49366347,-0.008598351
143052626,0.0044717463
164192559,0.008622073
103652416,0.0002101855
102415761,-0.000031744054
103732662,0.00003608934
99840595,0.021068146
103122753,0.000028848866
166665575,0.012782966
198097719,-0.00050116406
132213572,0.005226104
102836655,-0.00006881675
103516112,0.00005688758
103569978,-0.00006228502
140851381,-0.0144893965
103026010,0.001723031
103025307,0.0011083977
15935877,0.00025251435
48589199,0.007874884
103147815,0.00006636534
101423337,-0.00018379337
102515547,-0.000008838342
102450648,-0.00005222411
103985315,-0.000008206782
103542761,-0.00019771727
103597815,0.0006033285
27154617,0.0046795076
20671138,0.00040565332
180857914,0.016264392
103202370,-0.0001890422
103323746,0.00014212292
103917734,-0.000010683176
103122459,0.0000765779
102921019,-0.0000027084657
71391769,-0.002112836
59160690,0.008193189
102861106,-0.00027606337
88544740,-0.011540217
102408210,-0.00012864699
104027253,0.000031941312
102741557,0.000019567131
103877056,0.00009053624
76922811,0.0004624963
64354365,0.0038789813
103984601,0.000018800518
103861941,-0.00011791361
103121625,0.000016648377
154746439,0.0009975829
102380678,-0.0001091194
163651431,-0.009434646
103491459,0.00017662311
103539106,0.00056101155
78359767,0.008724225
84723505,-0.0019855816
103732034,0.000014838008
103502648,0.0002647566
170856804,0.004296941
144846594,0.0041209776
87199654,0.0038157015
21198157,-0.0039939834
101724384,0.000674735
155906237,0.009373152
23436227,0.00035171764
148640913,-0.00812992
102478160,0.000024974726
199056922,-0.0063006124
103608364,0.00006795651
102728703,-0.000006633225
103529254,0.00018269596
25811177,-0.000494773
103543745,0.00021116884
18747314,-0.0036392286
21763968,-0.0018719076
103596735,-0.0005005752
103797449,0.000008139451
103526291,0.00027140198
102608193,0.000028265747
101641205,0.000020847881
103850388,-0.000437627
102444459,-0.000064184664
40653563,0.005213044
100087240,-0.005408981
151469248,-0.016324898
103025382,0.0005795987
141325758,-0.008133796
104133088,0.00024397361
103527387,0.00022863488
154396258,-0.0092468085
187086081,0.0108633535
113583562,-0.011304384
91437107,0.0031598692
154714256,-0.0032360523
161519406,0.017361538
81617765,0.0103875995
116259115,0.0034228675
146983246,0.0141763175
151564955,-0.0038147767
2872229,0.011176399
59179634,0.0028097117
103556262,0.0013425661
289687,-0.00965941
101420696,-0.00007206045
102363453,-0.00024690214
103850361,0.0013074887
103816743,0.00006036251
102945059,-0.00007258861
1129373,-0.0082911495
103515769,-0.00000078134417
102405011,0.000020076322
103583253,-0.00056176056
15208615,0.005812055
64502586,0.008542014
163062772,-0.0060624788
103932261,0.000007286005
103877515,-0.000024817382
2222303,0.0026353202
19024024,-0.0035463704
95303298,0.0057571363
74089578,0.018237473
38203960,-0.001865292
102580007,0.0005005189
122218030,-0.004138311
102352959,-0.0011036507
31245768,-0.0019513331
103542970,0.00016865313
129412830,0.0025128268
53201956,-0.0076884977
93827401,0.0008855644
182345635,-0.003872351
197351409,0.005455254
3791947,0.012950669
65349765,-0.0010642115
84504106,-0.0011343136
114401929,-0.0008743525
101362249,0.010528118
184394599,0.004319702
148112760,-0.002487627
101396067,0.00026846534
102101817,-0.00006764901
102887534,-0.000026335936
103558959,0.00004537966
101894498,0.0000001624494
102592710,0.00544908
189267573,-0.0070469338
96590056,0.0029821484
103557212,-0.0001103331
172392586,-0.009109178
134566313,-0.0045607523
102475662,0.00016213012
63433228,-0.006245749
72101225,-0.01573005
84546409,-0.0016548882
103499317,0.00003847252
103905088,-0.000048916503
102444273,-0.000035570134
1748993,-0.013082317
60936388,-0.003547471
123264794,0.012144583
102836232,0.00025244275
124744565,0.0066501084
102583494,0.0002724939
103475307,0.0011796277
102569363,0.000037383907
186349315,0.011355311
101940456,0.00014173827
93010999,0.0149123585
165605219,0.005111395
102473262,0.00037544963
102388025,0.00020792274
102890054,-0.000011707012
107376641,-0.0072548175
12443914,-0.018654542
22890540,-0.0032878309
102345789,0.00005440342
103336292,0.00008451461
191249349,0.0051619685
26182072,0.0083222
102795791,-0.00003335864
102836616,0.0016348392
195965154,-0.00019743423
101473555,0.00004972752
103326046,0.00011360503
100251243,0.000040211948
178802634,-0.006419231
9871107,-0.010990386
98013774,0.016025344
61244690,-0.0134836845
103877453,0.00023510626
102905314,0.000056550387
103545798,0.00006970448
95008471,-0.013585906
132189849,-0.010744957
102543055,0.0010812192
103987707,0.000034814133
65990379,0.01809582
134572778,-0.012271172
156005196,0.013324216
84332524,0.010366363
102728361,-0.0014945094
102582386,-0.0001227701
102348351,-0.0000076966735
102728282,0.0004407276
103134459,0.0000722736
76900707,-0.0093312645
103323441,-0.0017287472
102877201,0.000058238085
111850394,0.0036112529
17769935,0.0070145833
103403478,-0.00006228502
49513121,0.02129527
107723122,0.008043912
160410817,0.0031105343
115773098,0.0014133264
187321297,0.010136714
105503578,-0.008941779
79722406,-0.01125802
20549655,-0.014483071
87641264,0.0020618709
62034775,-0.013686591
132854471,-0.0007325906
177086906,0.014718183
102392282,0.000017796458
102556494,0.000101978
104017539,-0.000018318548
103490281,0.00008485086
182252224,-0.006681401
140822522,-0.003431873
27678587,-0.009867806
103515467,0.00009684355
102476625,-0.0000061306864
103782124,0.00011134663
102755254,-0.00005096692
8175652,-0.0042070244
150121696,-0.0010041402
102620292,-0.00001883734
103476211,0.00010477157
103486508,0.00028440868
102367551,0.000008627982
116076901,0.005248198
158758353,-0.0020456114
103543711,0.00019150038
24076095,-0.011625819
32181607,-0.010388827
142694980,-0.014395687
102582113,-0.00007206045
181725084,0.020570677
23776513,0.02450246
187829745,0.013978481
86730685,0.006844043
30328780,0.00835758
137344784,-0.0064858757
102542235,-0.0014590451
102384912,-0.000088221124
103053248,0.000068034795
125181060,0.0037558686
72274352,0.022817714
103486007,0.00029202504
102583510,-0.0019140271
97595031,0.0010157115
151153022,0.0071113305
103542851,-0.00021902165
102601025,-0.00012859773
128957062,-0.007003275
31174894,0.022706764
102889761,0.00032801158
104180472,0.00022073781
102688959,-0.000073644136
103323001,0.000009154981
102944267,-0.000045861503
102678908,-0.00022845932
113236806,-0.007954991
189365444,-0.0026820698
104000397,-0.000008466533
103072761,0.00001638307
102583712,-0.00000065768427
4198323,0.0015146239
103619452,-0.00012205211
174404620,-0.011915744
103569862,-0.000029268049
101450318,0.000027267595
102454528,-0.000004596206
102706152,-0.000046565834
103570593,-0.00008456652
7340138,0.0236902
103497648,0.000036948953
100116133,0.000040211948
116721675,-0.016708393
73657722,-0.00508973
27706170,-0.0043317634
14827614,0.0042929444
132512705,0.007870096
136398277,-0.0010788845
140264817,0.00071005954
57859092,-0.0026826276
28390994,0.009227248
46147180,-0.012215458
94864513,0.0120065985
103501588,0.0010466321
103528160,-0.000029119245
103500017,0.000044833956
101418387,-0.00007117512
103403638,-0.0001254715
70785880,-0.005239408
59170566,0.008639975
141472453,0.015307774
103530067,0.000056442026
102756773,-0.000033489076
183117894,0.0015984792
103918187,-0.0011175576
102756448,-0.00055070454
102755749,0.000054084358
55934460,-0.011788466
103336536,0.000048816084
166600804,-0.0030419503
103527452,0.000044261164
101319243,0.000040211948
104106743,-0.000048130605
103878283,-0.00003682221
103188888,0.00008451461
116170428,-0.015561301
119698931,-0.00019994739
102943597,0.0019162537
157722225,-0.008778491
82695660,0.017144982
15819631,-0.008629663
103513169,-0.000045596753
102664887,0.00009080898
103325084,0.000083237384
103984517,-0.00008279167
152371126,0.010641919
66278411,-0.0037188786
90633733,-0.0003619737
103121272,0.0001543071
187811505,-0.0063891145
103119115,0.00039626568
187008291,0.005091265
102442483,-0.000052052586
103850999,0.00015677401
95295893,0.009241942
705160,0.003235073
128122635,0.000028512024
109518420,-0.0016205047
61521112,0.0012432251
103958412,0.00009383143
103515029,-0.00016558966
103810500,0.000014193388
93401072,0.009550077
166846476,-0.005757577
173923573,0.0017449486
105134660,0.0013603033
130498681,0.008761727
115583219,-0.010257542
4565908,-0.0071834153
