46075512,0.013714362
85421241,0.0032074132
73474010,-0.01839633
113711149,0.019231241
59034066,0.009035502
142974886,0.0027134249
140662359,0.001267374
127116336,-0.0067452993
149015186,-0.015713446
2458208,-0.010307406
62224061,0.009130731
6153126,-0.00072818913
83832472,-0.00791397
938565,-0.009367238
54110461,-0.019402592
30006841,-0.015205512
149976996,0.019519875
123345248,-0.0071797017
179367084,-0.006305505
195567044,-0.0162033
192406915,-0.015292245
171727776,0.0015327933
193278443,-0.00295941
98723695,-0.014540602
98040595,0.0022399994
22244700,-0.0060150903
170265432,-0.004240357
189038196,0.016423782
154475173,-0.008366613
168806515,0.0046440936
86580248,0.012401446
73178383,-0.013432498
154689020,0.0019684944
36186468,0.008384544
101028433,-0.013293659
58566054,-0.004514153
42016484,-0.018823547
104795905,-0.004481742
35070315,-0.0013592601
111939515,-0.008678806
49440001,0.002728511
15683684,-0.0012895092
198771915,0.016608087
183303223,-0.020746265
147591826,-0.009750285
61093003,-0.029463569
5894227,0.010559964
49934508,0.016822342
89150713,0.004133165
74588411,-0.0010878858
74882904,-0.007078545
170676607,0.019861992
148468480,0.0033295583
133289078,0.0040397206
148264541,-0.0005407639
80377146,-0.00066820823
69926627,-0.006397248
91438055,-0.0033451929
119193552,-0.010738651
2688349,0.00038886155
154989796,-0.008717155
8595840,0.0121933445
165422588,0.00585312
188199906,-0.0018367347
25953551,0.0021851289
176086311,-0.011274263
9796374,-0.00379902
81634441,-0.014570869
185175333,0.0007001056
133237849,-0.008698255
86127990,0.008530372
34289454,-0.013220063
8569266,-0.019810222
163469846,0.00082989194
56113368,-0.017045658
107967729,-0.011934755
78187805,-0.025143947
126631977,-0.002984677
24562711,-0.010457104
173494965,0.0010982408
148617302,-0.019206041
130571583,0.002432337
16621111,0.0062737474
84768766,-0.009488556
90007063,-0.011509624
40354149,0.019095173
18341048,-0.012723888
29336097,0.014944602
35336501,0.0034859334
148559418,-0.006894525
166544175,-0.007945482
22479851,-0.008901116
38436950,0.0026859036
27595691,-0.0077679507
41143991,0.013297833
105101124,-0.013278043
115148024,-0.002484178
11051204,0.00384296
94587892,-0.004645591
102582693,0.0000018351462
103529235,0.0000072422336
103569916,0.000004515569
103120633,0.000001967325
103475256,0.00000021850302
103877647,0.0000012017953
104179642,0.000000064613424
51058174,0.011767541
164145912,-0.0073318747
69535689,0.0076704947
157062066,0.0142529905
102352743,0.0000049482337
54845746,0.004807375
1335821,-0.008546512
43494858,-0.00020904781
174193609,0.005033304
38002503,0.033836156
104149684,0.013468914
22843456,0.0013949269
103532086,0.003032861
169943876,-0.007320135
134715153,-0.0021924607
196912875,0.012195696
133124410,-0.0073294523
102469556,0.0020695403
106835980,0.0049003405
61592039,0.00697201
23875294,0.008078521
92719265,0.008892923
4395897,-0.0034437887
44032393,-0.023676008
111228183,-0.005970176
187708991,0.006935337
74373334,-0.0075937645
193336212,0.00013160241
40390229,-0.0014602991
35353351,-0.007441131
152202955,-0.010148678
104769826,-0.007318483
97040450,0.0050783423
158746125,-0.0076527894
2693710,0.0049637947
191947178,-0.006880228
42982441,0.0023423573
188043650,0.014229849
186955064,0.017308163
158249512,0.0031376327
15992492,0.0028755118
189075777,-0.018251074
173951593,0.009997302
142087748,0.0059645604
107965104,-0.02605934
137922115,0.0032434072
132761488,0.000043821474
1305972,-0.0011197462
18681957,-0.017011782
103308753,0.00000011448611
103797387,-0.0000010028706
31540401,0.0053263265
54928315,0.011693809
84530592,0.0070289085
102585693,-0.0000014284055
113349849,-0.006157454
22842791,-0.0060567916
142649890,-0.019121999
40338883,-0.011487784
38814185,0.004617259
104737725,-0.006442035
44745396,0.010840584
23241847,-0.0119975405
26522301,0.0039930823
42786047,0.020354392
125829880,-0.0071308487
184238237,0.0070341146
68347211,-0.0091562485
170603494,0.009738662
55229339,-0.0075770924
139202511,0.0016378462
131091258,0.014435314
19539248,-0.0023495378
94583628,0.004994778
114390322,0.006841352
57353054,0.011145365
83887008,0.0064614103
158043143,0.015637593
50146124,0.004939697
179072160,0.017367093
80366421,-0.0010898357
54638785,0.008420865
176393770,-0.00067724107
9772059,-0.006033675
90461105,-0.007630751
173024994,0.015741818
107285687,0.006640999
196407520,0.014952968
132327106,-0.005921049
192314970,0.0042035873
38410218,0.006127849
40810835,0.000685246
148653947,-0.0018281427
74888012,0.008182523
179990874,-0.01622936
102542817,0.000003009269
68325920,0.009565176
107424720,-0.011641862
103986097,0.0000027049937
103053395,0.0000026659147
103500106,0.000000000049820592
149075244,-0.013396928
197378118,-0.0035670968
142236039,-0.0043099863
103025534,-0.00000077939785
188513732,-0.0060380273
65886567,0.007765408
11068372,0.006686079
102447115,0.0000064432334
123832219,0.016920935
91869032,-0.0040498096
188943747,0.0043964037
127364398,-0.009277712
5741061,0.023505794
183765573,-0.0075359135
124336845,-0.00342892
69088842,-0.0041591064
102501890,-0.0000006351623
130959810,0.0007113358
96984456,-0.003726161
78162774,-0.016805513
102402709,-0.009583545
37977078,-0.0003752109
158170247,0.012130399
86677272,-0.012704028
82150153,-0.000677919
33047280,-0.008532319
55062222,0.005466613
103026010,0.0000044060716
44528964,0.0056902864
80103931,-0.0010305895
137289195,0.013413459
39347011,0.01265413
1617347,0.008752359
175408966,-0.005159032
35106988,0.0036670545
1692997,0.00095214363
15463575,-0.010555141
45787015,-0.0044353995
95729894,-0.00006153229
161103626,-0.012270433
123615340,0.018517448
7051942,-0.0014105585
74349597,0.013991285
186907139,0.0054975715
153741747,0.0015229967
168256552,-0.0036910656
39261621,-0.027958794
180800501,0.011991162
146041519,-0.0062494385
96297746,0.0058225263
117791813,0.013494288
178685884,-0.012859963
48568925,-0.016711257
33756607,-0.015104831
32127949,0.0021135798
57275248,-0.012072223
94813183,-0.017585823
16996461,0.013117045
28265865,-0.0018910522
199794437,0.0060824077
25141839,-0.0061594937
120664898,0.0114718145
172778301,0.0010526113
173777609,-0.0029786564
184723057,-0.010940561
149153807,0.0070995656
71064308,0.0063066958
117224097,0.014074893
159460123,0.01065385
61553812,-0.009276618
103917351,0.0000022682916
102761193,-0.000000011099658
13470677,0.014868095
60435845,-0.008630455
113708848,0.009481366
119054594,-0.0038042222
189364309,-0.007201179
103986124,-0.000003461802
58077291,-0.01663043
133639774,0.0105050085
85130584,-0.011794855
143348043,0.0043495065
102606387,0.00000047145537
9532841,0.012809973
13555415,0.013828276
182024743,0.005446177
103121574,-0.00000183862
151974696,-0.0059873336
121393058,0.016876293
32779148,-0.0071542286
85648787,-0.006007653
64563510,0.008061839
2761668,-0.007824611
102555798,-0.00000067259543
54805078,-0.002457302
103489160,0.000000053391194
36076835,0.0035412507
126007232,-0.016156804
103593088,0.00000024018877
102086898,-0.00000042091256
69665329,0.020543713
184312070,0.014318477
174048892,0.032197285
121979015,0.00016779907
179448143,-0.016095942
102583510,0.0000027027024
38029818,0.0022351346
62944508,0.0014777343
190420071,-0.02339734
74559354,-0.003087114
61534535,-0.020199317
165344331,0.0069675962
4582060,-0.0026763063
198599029,0.00886715
146699858,-0.013572426
169165419,0.0030997358
196908554,-0.008884056
82263672,-0.0068350337
71703103,0.027451662
113905145,0.0016843767
139804811,0.0059464984
51675313,-0.0061879037
161779046,0.014919852
122872830,-0.011245898
157721557,0.010536545
103717510,0.00000033734727
114474504,0.004154517
15093049,-0.0027159692
9791249,0.009801266
178200284,-0.011271543
154430975,0.0066992277
15614909,0.00142788
189858834,0.005912815
65529169,0.0002903203
60961680,0.021938222
117478135,-0.008594734
166089198,0.005234509
155713073,0.0015345024
87308082,0.0042132842
39894465,0.006421605
50303728,0.008620739
109033378,0.010401679
44249346,-0.01231699
87891459,-0.015309911
92076807,-0.009990613
123795414,-0.012412624
47853914,0.0027898375
179851961,0.006892019
97813312,0.01922537
59220496,-0.012502944
157765571,-0.0047542965
66901118,0.0151969455
62821269,0.008573119
62836080,0.012630426
15065859,0.0033463256
122131855,-0.009884639
17478150,0.020247664
127837958,-0.013874814
28548293,0.0059814774
158402489,-0.010330781
176807481,0.004581984
89421723,0.00084265386
61406489,-0.010740908
120698993,-0.011901543
62734968,-0.0014601558
59118172,-0.011215697
44895077,0.0041114804
15266374,-0.00579695
144211552,0.015968204
190211073,0.0024874853
138803604,0.012567691
148253918,0.0048871
143427230,0.004832964
102906133,-0.0000005446359
98893838,0.008039862
92180523,-0.0019116915
125223779,-0.0077613518
69980946,0.007307253
95309662,0.011139053
7978151,-0.008688139
23282309,-0.02431603
103120815,0.00000065675715
35285917,0.0074952072
102945918,-0.007131467
141685032,-0.003997755
167018069,-0.018557325
34829562,-0.002308574
193956011,0.015354003
103905010,-0.00000059046545
91150392,-0.008742581
62779135,-0.0035146042
123022064,-0.014916805
111097999,-0.024572505
103904817,-0.0000032197634
63037005,-0.008795531
110129419,0.0033735568
92786336,-0.015136909
52201861,-0.013167075
188757199,-0.009564614
99335558,-0.0052848635
159993629,0.00046991094
78686281,0.0070528924
2915856,0.006865056
25246747,0.0037681977
182230379,0.005005222
37849005,0.0073290225
175849361,-0.013999379
144830462,-0.0007640385
18682582,-0.017965088
178812257,0.0046679014
9319790,0.007817015
65308508,0.02467745
61620549,0.0081071565
47371135,0.020387452
121564344,0.0039292397
102596406,0.0000030396984
46153688,0.022518408
153945400,0.0070674634
57636768,0.002507992
161678940,-0.0031881824
183802715,-0.006601312
170437128,-0.015067528
93644387,0.003414049
103404144,0.00000033734727
61710317,0.009046814
168901985,0.0051920144
21075076,-0.0025193458
40927965,0.0058682486
166074814,0.0032065797
109472605,0.0041114367
118827941,0.01061815
192137764,0.010556435
103500133,0.000000000049820592
7012262,0.00746162
102434525,0.0000040261734
101490162,-0.00000055823284
99998505,0.011023599
102606453,-0.00000030157935
186175135,0.0041284203
99709279,0.0017600426
45712705,0.0022031576
63249306,0.005623369
91956964,0.0010982705
180843586,-0.015379291
47855170,-0.015633563
19765792,-0.0010464181
130043291,0.0117212
41244785,0.0069969497
10786611,-0.0064316955
20206294,-0.001960743
139606490,0.027044667
42464854,-0.005455681
163707772,-0.00793384
31894781,0.004252169
155486711,-0.009113415
60290660,-0.018162167
185843079,0.009244487
103053062,0.0000001617273
96804892,-0.0036284865
199107557,-0.006748625
52839418,0.00016815335
34284594,-0.012687174
100263924,-0.008186234
61541722,-0.0153264
103147624,-0.0000007901279
156906359,-0.020244695
148081264,-0.0026766735
59622578,-0.008023202
89260996,0.0030817476
126174634,0.0020556625
84767126,-0.011991262
10604634,-0.004596542
102515404,0.00000047145537
4984643,-0.017126763
7247296,-0.01791326
173908862,-0.007883769
85744864,0.013041332
2733684,0.026952084
164695818,0.00056979497
143836452,-0.0038426903
14637614,0.002984985
17177911,0.012422604
92987206,-0.0054580257
50744511,-0.005938897
30738240,-0.008012508
86591268,-0.0035548862
59472545,0.0066056196
101939634,-0.0000009545491
35634025,0.012723423
118849314,-0.007422433
184437695,-0.00240986
76334607,0.00021075211
23083607,-0.0022122532
151329077,-0.010107003
80324588,0.0031480833
35446730,-0.0013557802
187069251,-0.004072488
135181569,-0.0031385617
88860467,-0.00879402
12636659,0.0016563601
188325573,0.0031711566
4187117,0.009528647
165008735,0.016984632
149061090,0.0026183985
180753210,0.0030512875
102421025,0.000004729581
102922815,0.00000020108055
26942942,-0.001923688
109664641,-0.0104664825
34157845,-0.00073900097
29924694,-0.0047353962
109288653,-0.012688096
172312571,-0.00045781635
152728362,0.003664781
61261348,0.009965321
16727165,0.004699694
68201914,0.00078966893
114454169,-0.0086250845
5227401,-0.0013891502
63324659,-0.0061546676
177287050,-0.006739602
40152785,0.009365267
134915305,-0.009991799
168950884,0.0040806797
57518604,-0.0020966178
39233519,-0.0031804517
167008669,-0.0029898838
471436,0.015569378
145746014,-0.0046593864
74273240,0.0056586955
122354645,-0.0028496538
197571863,-0.004838306
153804999,0.0010814127
12696478,0.018297238
48439617,-0.007649193
27744306,-0.0073362547
144029186,-0.009912171
188269322,0.0026705884
34577626,0.033229314
61985878,0.015247406
24371484,-0.02181687
112576988,-0.0031812694
128203257,-0.0011855557
102944660,0.0000000032862582
159148893,-0.005129825
42258513,0.0030811797
102408243,0.0000000026038194
191428309,-0.0057385503
37515210,-0.0099349385
21740212,-0.013563353
184353510,-0.0172963
52251369,-0.0008678988
85609396,0.0013156028
30212023,0.0045189518
153488490,-0.003199767
193069750,-0.0014680467
102164281,-0.002509181
190172982,0.005797265
43605428,0.009757828
199969862,0.0053803856
99920633,-0.0010964745
140268107,-0.0044452334
175984133,-0.005581986
49094058,-0.006011404
179158792,-0.00060434465
3474750,0.007749999
8521100,0.013278012
51853387,-0.010117276
151919619,0.0052351914
102502510,0.0000028490374
165626660,-0.013324394
162224581,0.0043231337
180901737,0.00016564826
169340484,-0.0026062315
77244891,0.01489273
156759699,0.013578231
11734308,0.013003777
46218300,-0.00657497
177113805,0.009965248
136031850,-0.0019586189
57792736,-0.0013423292
102529149,0.0000020715086
119735308,0.0014337478
24788984,0.013679787
71584771,-0.012544386
185389623,0.012852611
97030743,-0.022225533
171989654,-0.0060661207
150765865,-0.010541954
80471316,-0.004719961
19512951,0.020529935
48123043,0.00084108143
56811628,0.006590297
23968853,-0.01777943
4524752,-0.0036487377
178819251,0.013591606
178353038,-0.0335271
120372901,-0.0026728844
90882865,0.017741352
74851101,-0.0025384247
14863587,0.0020690428
80232250,0.007838885
75846442,0.013374699
162651138,0.0038335852
104092588,0.0000026659147
102423567,0.00000007439722
9697542,0.0003426516
70746996,0.009565225
156372313,0.006617677
66265120,0.00016166283
17032315,0.0020329063
15740884,0.01326919
33162808,-0.0011921566
34069017,0.0005473436
179113248,0.017216707
80493654,0.0032214453
131312696,-0.01406533
67440042,0.013872544
148845566,0.0043096095
55964689,0.015986646
20930314,0.008969589
15641600,0.0048662815
102283519,0.005301101
117876647,0.001613113
67526062,0.0013611062
18275805,0.010044696
60949836,-0.015482103
152093794,0.005186435
199212687,0.0015105734
101615817,0.0000022492206
52453179,0.0073592314
196162812,0.008131746
102787941,0.0000040261734
31046449,0.0065251337
106239429,0.021123946
102367874,-0.00000012156517
66433196,0.0006560425
187224847,0.005769219
197692388,-0.00094844087
152958146,-0.0028277852
54338809,0.022345478
172205476,0.007881095
21491748,-0.0049217213
54976027,-0.0060298825
146482798,-0.004848475
111613498,-0.0056924126
42185835,-0.011590908
102620244,-0.0000021749595
102380687,0
33332155,-0.012347911
130235922,-0.007703615
474959,0.010157091
194463079,-0.0055914284
166084333,0.008897824
10442535,0.006333929
185291007,-0.007278126
103741528,0.000000010485565
119592548,0.013693618
1404172,0.0015950155
128369105,-0.010113005
23759597,0.0027792677
67930424,-0.0061692623
11598022,-0.0033128809
90254455,-0.007645748
86778499,0.011394996
5131590,0.009592573
50571364,0.0067376206
104093307,0.0000021319777
118618874,0.029641688
85881795,-0.007926605
19471161,-0.0054960065
127802907,0.004145605
111442620,0.024824034
13821954,0.0004028238
112895535,0.017601354
105163807,0.03178159
26802588,0.0028643918
35871196,-0.0069921557
74055246,-0.002888067
132269362,-0.00865271
175820972,-0.008968338
103415413,0.0016254415
25706424,0.003067055
71007570,0.00043308822
181955745,0.0042300434
78148313,0.012735456
66914357,0.011025709
113007477,-0.010908867
12944836,-0.011311336
66339238,0.0051629213
191908277,-0.0033001048
175716357,0.00670184
106927405,-0.0059727267
83475156,-0.0005984673
95646328,0.009911312
102380614,0.0000054706356
183751025,0.003780593
103147588,-0.0000007901279
155869600,-0.0029630503
103594742,0.00000009272628
102837138,0.0000004429474
56863239,-0.009294205
188006733,-0.0015656557
83252452,-0.010638149
147531805,-0.017275
21279984,0.0005789509
103323693,-0.0000045649613
182619791,-0.003418713
142441891,0.0064993845
161187993,0.014844765
152445709,0.0010720602
195410993,0.004871451
53992462,-0.015894642
141706123,0.004277687
54277663,-0.0010371803
79044823,-0.0011541
179308119,-0.01712424
126489749,-0.011553251
162156681,-0.014124125
104161528,-0.0000002806238
38773807,0.009104975
47241231,-0.0014160685
126060622,0.0063189655
92341328,0.011964093
160359080,0.022004232
64555297,0.008585008
125327421,-0.008399724
102728256,0.00000045289767
157627048,-0.00010696051
30933371,-0.01333597
139450370,0.010613179
184048206,0.010076123
74318986,0.0018996348
145315975,-0.003114933
95940446,0.020920463
116391236,-0.0053739888
60716238,0.003421887
97820314,0.0035373543
45714487,0.0099123875
5957507,0.0073811305
76797707,-0.0047382563
150011122,0.013467112
30875591,0.0060105193
28325884,0.0065292018
43287572,0.0016908137
54927491,0.013501416
120329904,-0.0037484968
42977789,-0.0076356255
152546848,0.00033375982
58170731,0.00496563
16853051,0.0033755514
36451449,-0.009891088
54811786,0.016983593
185729099,-0.0036865284
14613112,-0.009512677
197500886,0.0022792986
41543889,0.013714339
12220117,0.008718151
172442726,0.013231552
144890169,0.0014599791
115734486,0.0021212487
149140160,-0.014780074
15958585,-0.00505404
52814086,-0.0022730476
14745559,0.008374763
80880521,-0.0044477363
73116501,-0.0058774827
41688532,-0.0066177538
165423103,0.0017572513
89754793,-0.0062140278
165376963,0.0081780525
62379035,-0.0017762872
51188767,0.015014084
148315749,0.0061278325
93879551,0.006562163
153837813,-0.0035037142
4587860,-0.0010186603
178782230,0.009589171
85043980,0.0023674057
21278616,0.009493312
50508087,0.0106023075
90086481,0.0020845633
95607138,-0.0027443822
66830847,-0.00007352189
71513231,-0.0076090526
128570495,0.0074273623
116485827,0.0021680363
103496547,0.011880228
137818856,-0.013241758
104889057,0.0069714882
14705111,0.011466818
127817076,-0.0073256716
89247135,0.0034897372
54040193,0.0017455589
77703779,-0.0038306047
135996342,-0.010299888
10527332,0.011894618
102619743,0.000004601795
46307307,-0.023414986
101396067,0.0000055189353
178221192,-0.0045479746
34389360,0.014123928
102568662,-0.00000053110705
102516324,-0.0000006335151
103740693,0.000000010485565
103877193,0.0000021192684
198451685,0.019819662
147412015,0.009089096
198100961,-0.0018579195
77490226,-0.0039690263
135164605,0.019487225
169772637,0.0085087055
17645956,-0.0015851462
121238760,0.0005741225
14103390,0.005475096
122938790,0.008358681
34640138,-0.0040374463
40123569,0.018514423
115000333,-0.008441785
60698511,-0.0031370984
145905476,-0.010676112
104099405,-0.00945539
5360655,0.01447365
148697941,0.005620139
43645392,0.0009208339
193104803,-0.008837351
29888098,0.004306757
22264765,0.0067246733
70156751,0.0074585835
193573416,-0.002633082
45687310,-0.0082515655
136419896,-0.00088139495
185782144,-0.007511429
152166809,0.010873194
103570007,0.00000044488417
90990461,-0.008492038
102761543,0.0000042416823
125057477,0.006071355
36836143,0.006363542
169834297,0.018347641
86845094,-0.000831056
97892508,0.0011249743
91180210,0.009379182
135221987,0.0077612726
111114462,0.00045739743
170204835,-0.0012964167
47783992,0.0051931078
149143204,-0.0051371856
123538598,0.0113949645
2939996,0.009184702
95153869,0.007979603
91256652,0.0042481516
127322679,-0.009800065
150216673,-0.0089590205
143067674,-0.0058032805
72309871,-0.0038718425
90956294,-0.0006695741
135196167,-0.017893434
52101132,0.012279085
169728724,-0.010420425
122905351,0.011365929
145448304,0.013588531
57552399,0.010836895
135074377,0.009129847
145178069,0.020930693
144573993,0.0015955762
26179300,-0.016898492
84391276,0.00874356
158704669,0.004210153
158087505,0.0053675184
90355559,0.0050334595
166650062,0.00033541577
104133866,0.015877608
86500820,-0.001505633
23588476,-0.0025859426
76877725,-0.0146197295
82653937,0.00088279083
14331697,-0.0012118195
134472206,-0.005246337
149304233,0.0031909246
103053036,0.0000003643748
177937517,-0.010982997
103262308,0.015977412
98349881,-0.023808062
112048673,-0.018257562
68808253,0.010177008
143041084,-0.02145735
90693402,0.020144956
20180258,-0.012890303
2902340,0.0043055187
172653300,0.0037669174
12946009,0.00923314
151807362,-0.002342378
34776091,0.007895413
102434995,0.00000019756754
155784567,0.009748007
141867816,-0.007895314
18010854,0.012379106
158840791,-0.0026406497
77392358,-0.007268749
87570949,0.00726995
59235456,-0.0038457399
98493495,0.0006060017
172893052,0.0061402735
93910609,-0.009476518
30973023,0.0020595042
14391553,0.00035986578
19587130,-0.017158272
27236119,-0.008424384
150674165,0.0147054335
167801356,-0.014875699
178502587,-0.013734457
159806133,-0.008314277
12170581,-0.012773822
34499327,0.0026407763
104993879,0.0033333453
113297967,0.0010163655
12422049,0.0059274924
14036472,-0.0001758609
175576175,0.008515844
56144484,0.0016705774
72075525,0.004125063
116956029,0.010769114
103051633,-0.0000014076097
103147615,-0.00000011543682
102891374,-0.00000012156517
144961265,0.008896527
28326256,0.0038446155
105335963,-0.00056246336
144041134,0.015078474
104866936,0.010353085
103740744,0.000000010485565
102756374,-0.00000012156517
102394115,0.00000020108055
56363918,-0.012210722
72613125,0.018919246
68549915,0.006401969
195401395,-0.02526972
140469011,-0.011568082
112288275,0.009552732
95411315,0.01495155
72388873,-0.00909113
135395048,-0.001659776
163661268,0.021703629
99903483,0.020405805
50466285,0.023863962
71688114,0.0029009604
120563482,0.00031959455
127452477,-0.006324554
65165836,0.0049443147
102393567,0.0000011647986
52623023,0.012644781
121192181,0.009321497
44451061,0.004515057
74208037,0.0048063598
40686429,0.018526303
97738137,-0.0008858402
39021830,0.004853968
127784881,-0.0119726835
87944455,-0.013262406
60733698,0.006074267
113288276,0.02704519
56526472,-0.0026964997
102890629,0.0000025819313
5620450,0.0019675167
33507914,-0.0022054776
28530260,-0.005246492
107223690,-0.025231926
66207599,0.00032873935
154145778,0.00022446725
139281586,-0.017840285
128970390,-0.008235455
148076940,-0.000059717884
102209511,0.01858844
124277836,0.0033263979
186187540,0.01794905
122784974,-0.0019696944
183345994,-0.018297875
52226860,0.012485287
47519530,0.014200151
143036729,-0.008492894
120958223,0.006636475
169791487,0.0022356652
82502050,-0.0072371694
11651186,-0.014475823
125592655,0.0022893893
102177872,-0.0030513385
166610099,0.022542337
102447791,-0.000000031253684
59420713,-0.00007731719
162340257,0.0037722625
68404174,0.015845738
151598997,0.00028403488
69632209,0.016348748
32512578,0.008624913
132426293,-0.0052358494
157698755,-0.0032891866
13917486,-0.01713081
4134944,0.011473924
33978068,-0.004318169
91937735,0.018274646
12481064,0.012191257
1296748,-0.0039502713
103488160,0.0000044415087
190576557,0.010742512
102556492,-0.0000018946029
57231471,0.0051514762
193165392,0.0015488757
156460449,0.019391123
91202223,-0.008031989
44091998,0.012128385
75838868,-0.008912846
16282986,0.003705158
126390971,0.0021374873
179088687,-0.0019514415
36088947,0.0038453012
15199155,-0.0028818035
140069743,0.008034994
81003904,0.011772915
162473359,0.0013766092
5281797,0.008395724
160698509,0.0038170011
58630736,-0.0033536204
103863834,-0.000002925265
102380453,-0.000000020106793
25070812,-0.01621735
120053361,0.0011394583
103583271,0.0000009754375
54633490,-0.011724461
138947973,-0.008709468
94727995,-0.004446728
103403765,-0.0000007901279
102729063,0.0000005047507
102729287,-0.00000038395015
77952226,0.0077591105
172222101,-0.0006351551
46360004,-0.0113090165
77864776,-0.0014758165
17566325,-0.0011807081
142579233,0.012059533
178609093,-0.0022343076
95031556,0.009987716
122051263,-0.010845022
10162782,0.0033297306
133438113,0.010853603
150511679,0.008177725
189569270,0.0023930168
185035696,-0.00028611193
70407021,-0.007512827
102436550,-0.000000048361144
93899810,-0.005446107
184959834,0.0038778845
164613674,0.012318422
98337153,0.0039279396
133333109,0.0005716366
110507886,-0.0014627886
18236684,-0.005640741
57489536,-0.00036313778
3741524,-0.0025770308
139971801,-0.0013874801
172392834,0.0040149675
34545079,-0.011767576
81645487,0.00021512381
54039776,0.0093692355
69683788,0.0006704373
103797771,-0.0000005986841
145024470,-0.007133235
63639971,0.0071415594
139693077,-0.01778907
103502270,-0.000000075774615
102543046,0.000001924495
102407245,-0.000000083982975
146336365,-0.013244255
183331713,-0.0013965043
102922025,0.0000029796568
13167654,-0.015407132
103918806,-0.0000005778203
171228648,0.0059257024
64849617,0.0012069597
190866047,0.016356243
103161211,0.0055986564
121017272,0.0020777036
102555387,-0.000023354758
29960232,-0.0048775333
108453261,-0.022117682
69033720,0.008504613
185239101,-0.0047883987
102755343,-0.0000014850483
112848030,0.014470249
139472817,0.008527894
77784952,-0.0074012335
3682292,-0.004037769
830593,0.0030212863
112471625,-0.007928446
70526117,-0.0036156275
41740001,0.005096065
118714295,-0.025356233
120139056,-0.0026836777
103026413,0.0000028833986
131747397,0.015412493
113496597,0.015106577
66926661,-0.012618126
146629403,-0.007320333
98849441,0.0013115674
42770632,0.00056605623
51897077,-0.01443196
138669468,0.011924974
192745730,-0.013130335
103904253,-0.0000015001158
181391728,-0.014639919
103403817,0.0000026576301
189911501,0.021920843
35923568,0.034412026
58166431,-0.004577917
56342431,0.017096816
96317892,0.0002948703
100610676,-0.0032680992
139474539,0.008456021
174903455,-0.0045597334
83283725,-0.00513557
174887327,-0.00071537786
162561812,0.010759486
151368132,0.004694007
199259947,-0.00747781
133904910,-0.019096961
64985460,0.015335728
139400532,-0.010799897
27482492,0.0011028484
56950811,0.007592642
102836525,0.0000040261734
189073492,0.021925757
185854278,-0.0033646347
126754952,0.0024745364
82041809,0.0036616116
171385482,-0.0018666708
165533657,0.0041538654
148794154,0.009408825
190618354,-0.0046691797
171227743,0.00030043884
171203960,0.009079505
148040698,0.0075078593
140469374,0.0016790233
99704228,-0.019604342
90297919,-0.0021814501
30397039,-0.0056519434
150423124,0.003384507
161939600,0.0042156195
72388960,-0.004141254
102585387,-0.0000010574184
197320923,0.006989382
189778915,-0.0030872133
65879280,0.0064014536
102945251,0.0000018146748
40748678,-0.01430659
89318223,0.008786254
174119238,-0.0003611902
165366374,0.020851847
104222269,0.0054456615
34697275,-0.0074435906
177515720,0.005173177
54247891,0.012317153
30899252,0.011243276
43543430,-0.016325153
140084651,0.0072473614
32201188,0.0041465014
171239450,-0.013335435
129495972,-0.0020655184
41533209,0.0048010834
78859913,0.014793716
136673336,0.0117184995
92800430,-0.007986405
140204701,0.00561919
65442658,0.014111933
59181709,-0.0014797472
103052083,0.000000581338
142415663,-0.01183555
187374445,0.015546219
93320038,0.017642677
182690606,-0.007988929
185042186,-0.0051846565
34904274,-0.012412603
75355081,-0.00985635
179060682,0.0039448785
43711388,0.012222396
146742812,0.0019600096
168840775,0.011859252
151923146,0.004918017
59284685,-0.0005885144
123496189,0.0031384444
158762495,0.0014411293
193107593,-0.015088147
157873144,-0.004130119
123950761,0.002028775
56616105,0.0014545557
91472334,-0.0055503077
43037772,0.011036038
93912039,0.0042000646
118548303,-0.004289304
86777600,-0.0046650073
40687727,0.006294292
70360102,0.005746463
142039039,0.008292957
102126315,0.000003982481
103026055,0.000005947811
102447961,0.0000014456036
37786802,-0.0045055407
154201812,-0.012045077
23792081,0.00041376307
199406722,-0.0013400946
673445,0.013004708
63230784,0.010799674
38021744,0.014108535
103741546,0.000000010485565
15606361,-0.002362619
93229718,-0.010013722
140571146,-0.0050688437
130189406,-0.01130874
79597338,-0.010719908
177526130,-0.002432064
92948615,-0.0039319904
146402401,-0.009751467
46737548,0.020655759
111903484,0.0064580548
35071493,0.0077264654
92862263,-0.0035071399
102944262,0.0000059033987
176348600,0.021713912
198897012,-0.022787774
102124941,0.000000581338
10595435,-0.012322298
15364123,-0.0038049407
121739281,0.000075022646
175178529,0.005418507
30198999,-0.008526948
102943761,0.0000023249638
175655295,-0.00907463
164556433,0.0074867187
103323798,0.0000018689394
74676197,-0.0061567235
104180318,0.00000036358782
139252048,0.004257818
133857327,0.019953467
146820101,0.0020833346
21669372,0.004402948
95471461,-0.011552846
56490534,-0.0075198803
2124598,0.0073400047
152919490,-0.0032224515
149065137,-0.024338767
51150041,0.0016112606
127764864,0.0018301267
184171526,0.0018503317
69115841,-0.004356653
94127780,-0.0065276325
7838576,0.01979574
93279789,-0.009260437
138162371,-0.0077563575
188478687,-0.0013400025
133959263,-0.0013440525
64006337,-0.00016318164
196162784,0.0028062004
190359153,-0.0048890086
36934396,-0.012098947
71237734,-0.012379062
199808016,0.008723115
103052253,0.000006600028
150795630,-0.009008481
59847589,-0.005171029
198218391,-0.004004883
82565467,-0.00048282437
153649129,-0.016143324
4555822,0.009194902
121813092,0.0016997389
119796087,-0.012451705
103122019,0.000016748165
91922228,0.0030308694
106822716,-0.023417415
106996437,0.021650018
111375308,0.0019832759
65552492,0.0045292205
198203802,-0.012537731
159902441,-0.0049348385
36594084,-0.0022718667
138449252,-0.0019755634
22898805,-0.0085932035
112545088,0.009250574
182773939,-0.00078959775
25052428,0.004526782
40415263,0.0060328683
24026079,0.008447383
37685689,-0.0013102676
21114290,-0.016855542
52129842,-0.004468342
110730001,-0.0019086677
72923894,-0.0012157772
187759302,0.0077887294
116491141,0.0064809313
109783398,-0.009559212
189429540,-0.011821786
83069107,0.004295461
145750692,0.014069443
113597037,0.016032105
62312028,0.0031047459
150626846,-0.0014717235
66003681,-0.008184448
130084576,0.012401501
142623478,0.0024987224
25646343,-0.0024585486
198059056,-0.01137914
106887127,0.022189276
196042329,-0.0012288791
156087547,0.006755421
94314039,0.0019671298
136188707,0.000190459
182122313,-0.014540534
137351185,0.0035203525
16943679,0.009129151
189365497,0.007974152
189047093,0.0033094664
106446723,0.012754892
26823378,0.00047498118
62609254,0.0034007793
65885863,0.008901268
140311335,0.023849465
107989913,-0.009024586
8072929,0.0025610742
13886310,0.008144561
91538049,-0.006842427
78376610,-0.0010941316
126305979,0.014957165
30611669,-0.0050293272
124892131,0.007910853
73132262,0.004909217
82991206,0.0027044513
11118991,-0.0052210055
2357648,0.0038126595
111747127,0.0062677157
161768980,0.014805808
158429418,0.00028840717
102890935,0.0000007932512
90842822,-0.016272224
103052406,-0.0000019390322
102582151,-0.000004496554
77375266,-0.021701643
184280049,0.007512483
161556398,-0.011054431
164852053,-0.0067599486
75011811,0.00032119147
69795879,-0.020209754
162517053,-0.0017692202
52471040,-0.003990902
174971656,0.009541782
102728388,-0.000000400172
103569387,-0.0000048971947
2255712,-0.00021722096
24272780,-0.010668933
96663075,-0.0050601778
124692265,0.012083856
102542271,0.0000016173536
126140800,-0.016544012
73944264,0.01107565
104179651,-0.0000015734557
103744007,-0.0000010532441
143999393,0.0026231513
115496117,0.0059927134
124974906,-0.028310642
33510541,0.001698432
83397287,0.0007353266
191915045,0.017362393
103987537,0.00000025472627
107528992,0.0004384824
103797798,0.00000013247686
103502462,0.00000009784337
70237907,0.0022471314
102569660,0.000000039540556
23144667,0.0042607817
102125614,0.000000581338
103716459,0.00000033734727
103905028,-0.0000018876887
188630460,-0.018983869
102922941,0.00000020108055
130165541,-0.006944193
61408442,0.0014960282
10708830,-0.005025657
5000613,-0.0071225534
109913142,-0.00451205
35376136,-0.0010180108
103932198,-0.00000020135987
160022162,0.000490923
6728602,0.0010412418
64851442,-0.011195886
36977956,-0.018623624
16614933,-0.0020865703
1161047,0.00007000175
91089889,-0.001968821
198072444,0.009891842
88169905,0.0117119225
18169288,0.008060724
156659571,0.019132333
23071862,0.0069243065
31207220,-0.018621234
184459701,0.00006404571
93931891,-0.008203374
162495523,-0.0029917501
129533709,0.005130809
163276551,-0.015054115
13165834,-0.016673403
67335951,-0.010580775
165453327,0.011830458
12334877,-0.006487628
60909714,-0.006407939
104160888,-0.00000027430585
140262499,-0.003385505
91466064,0.0051949043
38264157,0.0011795774
177024989,0.0014730098
171481573,0.0039453167
25704453,0.00032659993
197227094,-0.014278621
109777082,-0.0045092274
154345817,0.0026721274
81247269,0.010859835
187405642,-0.012261235
21441341,-0.006884363
192855937,0.0033957374
52355095,-0.01469954
65728110,0.00045743745
98162768,-0.013464321
118880973,0.009311433
169530023,0.005755093
136283775,-0.0017707382
64634776,0.010786567
75404084,-0.0013225734
180338878,0.010751917
36869480,-0.0048049698
161132310,-0.012591935
170126443,0.007173977
91448686,0.0014003689
96757171,0.0038816829
40377310,0.014449113
45264719,-0.006107942
146363052,0.0012136948
49612839,-0.011609209
92933269,-0.0064627957
160090378,0.0045721564
103528624,0.000027772183
169783661,-0.007905831
10502615,-0.0074996217
11306564,-0.019041762
129715723,-0.016176749
162327027,0.014780589
130191960,0.0051670736
19198690,-0.0066879955
59712239,0.0037094068
162178996,-0.0031660493
11770899,0.012012136
16045520,0.0035355107
148673200,0.012223452
107552644,0.025663478
197012562,-0.01149321
184046049,0.009658915
102583874,-0.00000012156517
194618162,0.010564415
151674642,0.0034068795
45821337,0.0016471992
32527799,-0.003647353
67082014,0.018554535
160502238,-0.00019755807
51370176,-0.00996324
161784873,-0.0015117464
199599765,-0.00528512
45573943,0.010457596
40116244,-0.0011169492
156297665,0.008615977
14645432,0.0074760616
33868052,0.021222644
137808797,-0.001635701
116237819,-0.00046849097
15856814,0.01957896
35725268,-0.0047642547
95342811,0.006278177
112584972,0.0055146436
164950071,0.0026502227
25087820,0.0011803487
9064310,0.0011438477
154700283,0.005915251
76779445,0.020572487
92015007,-0.00056752644
147560197,0.016103072
142801847,0.017315283
101641887,-0.000010243528
97196791,-0.011527675
47390987,-0.016927551
136926985,-0.0024828576
105020413,0.005178322
191162314,0.00014450135
78041720,0.011733491
137272965,-0.0022429493
3775941,-0.0047238646
49987396,-0.0015998724
8807513,-0.0056318105
161339504,-0.004712776
112186937,0.008498234
32371729,0.0095394105
102447890,0.0000004084105
31900998,-0.014140981
5902767,-0.014812501
65300041,-0.0005590985
4011931,0.015056819
83549965,0.002728648
79158859,0.0026897239
89057533,-0.0074181715
114972015,-0.004562682
123790611,0.0056363875
140535353,0.012649285
153124623,0.0060440646
56578215,-0.020240778
187771870,0.008286212
21761713,0.0063722758
119348215,0.0043634935
53809842,0.012963872
25467276,0.0019197552
130514503,-0.00091824814
154746785,-0.011733162
182602191,-0.005291426
126058060,0.0051040784
184425153,-0.018282007
106055835,0.017749283
189769124,-0.010220672
70389902,-0.00596059
37876968,0.0054270076
113793097,0.010422005
175013864,-0.0074329446
16137511,0.008947739
10353622,0.0003358198
18112089,-0.0061278404
163173005,0.0030969286
194596026,0.0026676157
152114349,0.011838225
121976149,-0.0062054954
83514180,0.008657321
510769,-0.014861453
199451716,0.009829606
94750945,-0.0037883904
12529686,0.0035151488
107789242,-0.012272458
61737916,0.009407562
54866511,0.010847242
48558786,0.011284805
90095173,-0.013887237
193782855,-0.00051159435
197977611,-0.00012444942
110250272,-0.0018221154
96788052,0.0020395594
108820324,0.000094190786
81989162,-0.00024028466
56269298,0.0053716344
46386603,-0.0067159217
69093383,0.0036436443
126166104,0.012405989
104802767,0.011974038
87230300,-0.010634104
151908629,-0.01365721
153895080,-0.008282176
168607727,-0.0011477978
50962088,-0.012422174
100010469,-0.009038105
81020881,-0.010254806
7119369,0.011128594
28406153,-0.0015821373
33467157,-0.0035905777
39275966,0.008119787
185624965,0.011726712
75098848,0.00025117703
184607200,0.010370345
102619761,-0.0000014859337
182993119,-0.006666461
161610601,0.007486846
25855471,0.0032159411
52417989,0.016712455
6728718,0.006790334
198785115,0.0010491771
158009632,0.0051902337
10687078,0.0054373615
156205338,0.0052776826
120172783,-0.0056791687
6199745,-0.010325397
60145037,-0.0022390604
102596057,0.0000027589156
155342505,0.0074438453
76868561,0.004274812
102943651,0.0000007735976
104180067,0.0000023866091
103998387,0.00000049686986
41264795,-0.021686776
4671299,0.0135095455
159668624,-0.010539912
165390939,0.0066193556
111495992,-0.00035959735
9152278,-0.0039422344
55791417,0.01125533
103582588,0.0000063505845
102625043,0.0000017245603
12755767,-0.0018682792
182170604,-0.021450503
88639769,0.015105288
18425808,0.0015334731
178565361,0.005594369
166045631,0.014171699
19033546,0.013428655
133539235,-0.0058584963
146389366,0.010436595
119899196,0.01904193
60662222,0.007213427
53820057,-0.010644999
195101455,-0.0073159114
53839479,-0.00055821706
158298163,0.0017591731
193582676,0.005457117
103494996,0.002830747
122073572,0.010184783
184289743,-0.0018497948
45135325,0.013528895
52575421,0.007921488
24318090,-0.002837343
128137056,0.0037332566
28061587,0.01391023
34353606,0.004082653
131623532,0.0053354567
104799112,-0.0030196563
79094920,-0.0041202097
189146397,0.0018223522
25905336,0.00024271694
21365246,0.007496876
148877173,-0.00025336703
8387911,-0.0070888433
145566027,-0.0035628956
21533544,-0.020765811
126242972,-0.0137360925
5965287,-0.002976535
112978155,-0.0034583802
176454624,0.008456464
101476851,-0.0000034561372
25062720,0.00028110849
102447124,0.0000057342195
187591248,0.018923193
62779400,0.028177245
103582660,-0.000001364197
55066651,-0.01532673
107272137,0.009032183
94627609,0.013950829
143346943,-0.0037715642
100581045,0.01517424
118668894,-0.021080248
80421782,-0.0065645906
103122278,-0.00000039560734
102556493,-0.00000035140067
3571174,-0.019810718
137223680,0.011431918
1830782,-0.013340096
171228843,0.012503578
94171907,-0.006303948
177346335,0.012556886
49028086,0.008076105
145140856,-0.011161387
79678624,0.001083856
72616711,-0.008560991
39845027,0.010708307
83271558,-0.011527482
93813267,0.0010569461
147437566,-0.00781022
162249260,-0.00004349713
167002397,0.01819332
137389972,-0.008449976
122164650,-0.01233857
102619815,0.0000041541725
48214825,-0.0086743375
83952432,-0.00517013
118801874,0.0046086945
176493131,0.0042425618
127443536,-0.018753953
57602348,0.022478187
146100937,0.01014863
83744164,0.015892608
75709384,-0.00045052572
164670931,-0.008058385
156641206,0.01606622
91587212,-0.010172642
56714305,0.012376715
73855529,-0.0026569068
191624217,0.006861849
101786693,-0.009183324
6729445,0.0045827753
103052370,-0.000026433521
102515298,0.000006405276
56927960,0.009499829
168401590,0.002341725
63949985,-0.0012924843
31510548,-0.007944802
53940124,-0.012127665
180405509,-0.0031629803
10535026,0.0026392755
69134294,-0.0007164067
165646223,-0.0069366256
153783723,0.0052670003
71426402,-0.014246315
80287638,0.0075902673
94898373,-0.002849168
123723582,-0.0051702904
63437672,-0.006895992
137420972,0.006170897
140473314,0.0070797894
8692931,-0.013253924
63719619,0.0052577904
31863998,-0.01784985
191639590,-0.0061760168
77551035,-0.0040904717
18177692,-0.0023164565
162192132,0.0037304836
198300923,0.023032958
58675761,0.012828829
90459454,-0.0011014927
11530915,0.022282941
20871940,0.008938221
173151490,0.008298037
35847262,-0.0105006825
139229203,0.020815661
106975656,0.008171061
168781043,-0.00980913
47577215,0.0020149993
132872907,-0.0126433
139336473,0.010567333
159888537,-0.016843442
102889615,-0.0000050335275
106211738,0.0012708585
78531503,-0.010193994
103605669,0.00392759
66738030,-0.0075562163
103904390,0.000000050104937
137251697,-0.008853261
60009192,-0.0031770011
5194552,-0.012059336
148293786,-0.00894732
102501959,0
115289107,-0.016719624
26302488,-0.0042786
45409025,-0.007006486
157031322,0.012735869
77465007,0.0034506917
179060659,0.0060952688
80432487,-0.0051219347
102836462,0.00000009784337
139809789,-0.009267862
177040239,0.005936245
97156082,0.0070034508
74357811,-0.004439175
145858659,-0.000784378
145566460,-0.001725095
123584892,-0.0044569946
159265787,0.012602006
78708280,-0.0016964048
139591492,-0.0029688266
197219581,0.0070895622
138706703,0.006924874
18624971,-0.01204372
139537212,0.009930701
74379594,0.011645001
114774453,0.0038738437
79095196,0.016393917
149669795,0.012981319
103959243,-0.0000005778203
105780829,0.013888385
108747441,0.008024416
18058946,0.007973452
173720121,0.017249716
116277114,-0.0067935316
177568787,-0.011472873
102515452,-0.0000006123235
43382605,0.0010082525
132161543,0.004839263
154778847,-0.006992952
144009926,0.0040954403
105729324,-0.017634489
129671332,-0.015245052
154992704,-0.0129034035
130674992,0.016847294
7081820,0.020645883
107579487,-0.004448679
9571232,0.0050218627
131324135,0.005218981
191677638,-0.0019875718
701156,-0.015443071
80273087,-0.008083112
1041826,-0.013946508
59575868,0.010227595
127465562,0.003983705
52433882,0.01864097
92632665,0.0058439905
27731756,0.0003648361
174761640,-0.004087554
72346232,-0.0125105195
182767887,0.0024578562
109198785,-0.01306719
13734275,-0.0002952733
118710332,-0.012571247
165512785,-0.020848993
104121001,0.0000028833986
103850507,0.0000032709124
111537205,-0.004227959
58684677,0.0014556512
165182661,0.010491714
134963550,-0.012395245
19964615,0.016091608
197017588,-0.00015898567
28242329,0.013506825
139316640,0.002466028
102366807,0.0000042177103
38436513,-0.005693099
154699570,0.0016313421
195909132,-0.004795612
16417579,-0.01578983
187074870,0.011563238
29915855,0.005442217
2241684,0.008557291
852304,0.004466014
27225285,0.006803719
67666737,-0.016116742
54090704,-0.016123395
44313803,0.015998295
181997892,-0.0076839724
148826858,-0.019309925
123658074,-0.008751848
196767840,-0.011811348
103850307,0.000008513214
41520755,0.0112127345
173379140,0.008572623
31229621,-0.007316077
84486760,-0.00015881428
103502498,0.0000025923164
104965113,0.0036045723
103570115,0.00000020108055
45089831,-0.016722595
56752951,-0.012159516
139037575,0.007282419
62709521,0.0004302035
123491804,-0.0020092835
102755995,0.00000019756754
55911520,0.0048348815
104093388,0.00000092622025
173728749,-0.03439911
102610483,-0.0000001492441
59601849,-0.0069246856
199977460,0.0031251167
171802242,0.013395276
102610115,0.00000020108055
76539563,-0.009041694
143263421,-0.020760452
103404010,0.0000044060716
775416,-0.009765627
17223270,-0.002982141
145206338,0.0094913
24721427,-0.0022319304
103500243,0.000000000049820592
31966550,-0.0071665877
62487091,-0.0023398283
132788335,0.004871982
102569462,0.00000009784337
167536377,0.01557106
41796025,0.013754961
73198007,-0.011299127
86710588,0.025771696
59658977,-0.0011181374
154233088,-0.0116284015
158416797,-0.012773937
15704634,0.006882512
29007880,-0.01699612
120103866,-0.012751833
98575666,-0.015589808
189960572,-0.008164144
67376658,-0.005405248
188060044,0.009817691
90259851,0.0087797865
164749265,-0.0019041956
79892841,-0.005930022
14699232,-0.002002772
96819058,0.0013868734
103986171,-0.00000065066956
31312381,0.0036214998
111330645,0.0042209974
187817107,0.021457944
95525165,-0.0147864055
179677801,-0.012180415
103052280,0.0000076043216
112030816,0.0038078718
2502588,0.007136771
169326717,-0.0105226915
46719404,0.012288059
101941683,0.030021153
194493131,0.0031325982
175137644,0.0050373855
79350790,0.0032832443
175144407,0.0058027813
102907007,-0.0000005446359
61481960,-0.0023866445
183741773,-0.008345012
155959777,-0.0039762226
101711176,0.008866194
23901089,-0.002238884
25127635,-0.011682155
180958883,-0.003085636
61728928,-0.0063559455
102847149,0.0000020715086
89567221,-0.011224747
133901608,-0.015445799
139352543,0.005041317
169521160,0.0033252405
16671016,0.008472216
89707968,-0.010513142
58266049,0.01053267
196267441,0.007939778
109427668,0.017957922
150401636,0.013366641
171907467,-0.014988501
140848716,-0.016788363
175426569,0.02529952
181593519,-0.00031072414
178529436,-0.001070974
12324654,0.002466265
17809560,0.0038241989
7767609,-0.0039106053
166462452,-0.008623757
84398808,0.016712395
121479678,0.001171673
137791994,-0.009238583
11535921,0.0002845224
195216090,0.0067521534
126907200,0.00030347417
38470679,0.0028031513
100342271,0.0028790347
131737393,-0.0054039806
108186902,0.0004971593
10429545,-0.017238423
151859394,0.0037252165
116090345,-0.008451917
125544776,-0.013852223
135871279,0.0020516792
162812591,-0.00025898826
51203537,-0.010565466
197605431,0.0063959346
57699267,0.0054526697
102366261,-0.0000059488957
103401903,-0.0012263572
170630121,-0.020479858
196219110,0.00915949
97015329,-0.0073851952
44340855,-0.00834566
144579609,-0.016970783
126100789,0.0015542872
179399339,-0.005849821
103930851,0.000000025181263
93844993,-0.0026307388
181869205,0.011098531
189037420,0.0008324287
36018982,0.004664275
158185885,-0.002814029
118062186,-0.008060653
70767466,0.0030833737
167310340,-0.010426078
150054938,0.008232766
128263618,-0.009908452
63364514,-0.0006162582
94471016,-0.012537118
76784343,-0.0069829617
168185378,0.0052629528
187347466,-0.0034893274
136544063,0.008572652
120279767,0.0025838013
188480727,0.011753232
67927889,0.010666862
33818380,-0.006333115
50158486,0.0016865474
2409540,0.009454411
4748543,0.000497687
315943,-0.002721029
145606189,0.025781592
134972121,-0.005804985
66286696,-0.005097664
37779185,-0.008461245
157990499,0.0038075165
41065491,-0.00042140816
112198210,0.010192667
183503391,0.0023375219
160975467,-0.004226482
149342532,0.010834987
126183865,-0.0023531914
118848051,0.0057777823
12963203,-0.005384143
5884103,-0.028525505
4093612,0.009788991
40500381,-0.0050472603
187863004,0.0020367801
27814432,-0.014261124
123759138,0.0088829305
158298660,0.0010420512
102664025,0.016092896
90336880,0.014004651
191744069,-0.0016289066
187501613,0.0082548475
177350588,-0.0015389206
124586512,0.013877066
198315815,0.019063098
126312385,-0.005816695
99950653,0.00012037627
52672236,0.012702493
198730863,-0.012008904
198728632,0.0091058165
188623713,-0.0036254728
134574898,-0.005551173
107145839,0.011760426
158670902,0.005951977
31986012,0.00946355
123380678,0.003883769
104326795,0.0013697633
195072899,-0.011825385
100338328,-0.004623764
69096107,0.0058261696
21457066,0.0068410807
188952087,0.002681773
103569998,-0.00000091779776
102556398,-0.0000007647226
145736200,0.0068308692
187968659,0.0022705921
102502555,0.0000051133247
74934017,0.0054457258
15249723,0.007608908
134323677,-0.010159864
91094000,-0.0020397517
181474602,0.0045270515
103877300,0.00000001756693
89412329,-0.018172767
169255636,0.012245193
132396280,-0.0030131491
167079955,0.011844351
199498278,0.0027445075
103998088,0.00000049686986
178776448,-0.0073420084
77450918,0.0118873995
119197010,0.00022245305
16369239,-0.005147492
101506663,0.000000581338
103052245,-0.000000083982975
197622745,-0.008826639
49246828,-0.0032119772
36384511,0.0056230673
150574243,0.0104823625
56430646,0.0038980185
83722519,0.0047926963
161990360,0.002512819
173014485,-0.018918617
5333733,0.003718975
150180356,0.009676263
169640615,0.0028895263
144304097,0.0003807525
165352037,-0.013682222
56908142,0.00079356343
102944235,0.000005278925
13127510,0.006401558
102990459,0.000000053391194
53157685,-0.007518939
76488859,-0.0011965215
39732422,-0.016885996
154254073,0.009182634
51620127,0.006368071
156540451,-0.0069110123
42403949,-0.009561057
50990822,0.006753615
145206903,0.013683543
39278085,-0.0029027627
92038935,0.008314956
151856400,-0.00549882
183575158,0.0016028296
112722529,0.0050435713
38696585,-0.009702497
102620067,0.000005515049
70996856,-0.0064671044
181514573,0.0057882676
102990953,0.000000053391194
20076722,0.0045001516
90601375,0.016108427
99751992,-0.008252631
197133581,0.008376551
194984791,0.014488384
28507834,0.016076539
178532896,0.013153189
56338806,-0.0013690958
80795047,-0.0023907204
139480824,0.0083436435
111231884,0.00708707
90354796,-0.0023963552
59951021,-0.0014826094
105923572,-0.0074836737
90531492,0.0049476284
94737731,-0.0122778155
134653784,-0.016616914
77320427,0.006590521
92832442,-0.0078065
67624267,-0.020631721
110542927,0.008100594
35836276,0.014557254
41278293,-0.0011669303
152807757,0.0065145516
25229885,-0.0006300914
79534171,-0.0056845318
65123410,-0.011698415
111570078,0.006040304
162465333,0.015085282
135892363,0.012394592
72054261,0.0073306016
28832786,-0.0060445433
172676617,0.013879844
157173559,-0.004597335
113481289,-0.0073429015
103324317,0.00000014149454
102728272,0.0000000026038194
102891036,0.0000003643748
78250369,0.015145876
196492080,0.0072572664
35527416,0.006197398
95616379,0.0042811404
196916263,-0.016609643
185781925,-0.008758053
193623280,-0.014718267
194458792,-0.0013755722
116510689,0.013072329
16115412,-0.0022389893
102420998,-0.0000007608471
156776685,-0.003814073
103324043,0.0000019152312
26532781,0.00031621076
28280069,0.004379977
109820848,-0.0012194182
112736479,-0.007426492
165888347,-0.023329461
175966002,0.009396729
53730600,-0.011441948
58314701,-0.0046690404
165199145,0.00077921536
106474901,0.0083150985
54678860,-0.007785214
16127630,0.00031414206
75054633,-0.012311286
17329027,0.0016549029
123767532,0.0021525798
66819346,-0.009607581
188047242,-0.0054330784
145607036,0.0018511603
55488179,0.009889157
20355461,-0.00070161914
121961184,0.013471238
130181557,0.017820297
97716742,0.003492264
165305848,-0.0065297317
163264563,0.002762516
96473380,-0.010635589
47450606,0.0070484853
18194386,0.0047684866
149737238,-0.01674035
96576493,0.008835303
97747286,-0.0074678054
32243818,-0.004052335
16210593,0.003604969
77932428,-0.019124426
172569019,0.014699771
191445196,0.015889132
11571168,0.008082428
102729206,0
96106360,0.009905047
31203776,-0.011345827
137041266,0.0025438736
102472606,-0.0000005149645
183008567,-0.005514133
102861133,-0.00000183862
48130716,-0.0016515757
189832394,0.011041867
91182333,-0.008998075
106568821,0.00006318174
117332857,-0.011084278
102393162,0.00000067823436
141309284,-0.002400893
3207217,0.003924177
162795010,0.007998141
77650048,-0.0033602985
182243286,0.011056001
142238059,0.005351898
54162559,-0.002468868
182860903,-0.005869387
88245437,-0.004312148
103863771,-0.00000067276756
89747156,0.016720911
36325984,0.0048207357
153084432,-0.00022758657
99450690,0.007882096
140826926,-0.0029434348
44427064,0.005856696
144373760,0.014207306
20532717,0.0026223662
100615945,0.0027422463
109648781,-0.012633357
99872118,-0.010937312
127143963,0.0077342475
189177243,0.0045822607
103743124,0.000002389236
102620256,0.00000045289767
77491315,-0.003379679
102620148,0.0000037507928
162887940,-0.0005448136
170048233,0.00052574783
170236827,-0.009054939
148522785,-0.021677403
123240589,-0.006580757
9951826,-0.001292086
129004997,0.006421248
74786217,0.01473433
177300482,0.0067143375
45420984,0.009566204
18425029,0.008151885
58148384,-0.015455125
102847007,0.000000025162633
176237903,0.003832173
159001489,-0.0024495586
102394398,-0.00000042091256
113337541,0.014255866
125705962,-0.0045689237
162725512,-0.0068516396
89892867,-0.014339104
108925740,0.006053591
153300744,0.012611327
179967529,0.0036804362
52042,-0.0008465005
39143014,-0.0068793395
122860467,-0.015873495
95451800,-0.014593965
99760785,0.005553389
126755379,0.015716268
34881262,-0.028823344
89555263,-0.022253163
68795063,0.016078688
91342849,0.016788604
163239556,0.0005205198
50907944,-0.01510184
7802082,0.003703888
103917834,0.0000011494171
97484775,0.0062611825
1281566,0.0018843485
103877343,0.00000015079938
173026408,-0.02058089
45426136,-0.00025113364
19936551,-0.008535734
14684483,-0.0019435851
101183393,0.0099721225
156698042,0.012921276
181920571,-0.016622106
75341513,0.004994852
103025498,0.0000014626742
103025452,-0.0000008520839
36172148,-0.004464182
169558782,0.012783036
95132969,-0.012600187
102073456,0.0016298653
90609340,-0.023864228
8481725,0.0032470494
176908356,0.0005950485
29140050,-0.0042172023
134879121,-0.0020538233
63860108,0.0026314105
134574962,0.008701433
33032590,-0.002132488
21963659,-0.013122322
67412796,0.0060705203
39789372,-0.008306596
175218356,0.009097582
166023630,0.013560193
138959490,-0.0011212152
32699650,-0.0008928776
112381616,0.0059481054
55127517,0.007160254
101491007,-0.0000008423292
7825575,0.0047891056
75041677,0.0022484167
131304581,0.0026955202
19621915,0.008452179
100570797,-0.002119591
119811177,0.018376557
13418490,0.000086911816
121911102,-0.0031354418
137128250,-0.021945378
115114671,0.0064420747
191772809,-0.035654943
196317088,0.0126415305
18643714,-0.019035181
128601214,0.00496909
175603466,-0.019486517
124429158,0.0066263815
93504459,0.009918915
189419207,-0.017625352
71388374,0.0066424888
160421452,0.0018376374
32954336,0.0026357996
91949928,0.0065278253
54687370,0.00076404854
94072054,0.00937221
75210162,-0.0024970078
180001135,-0.0044027413
103501671,0.000006807567
173475483,-0.0030979514
73892431,0.0019398239
98426115,-0.0197664
99469365,-0.0044947076
139748210,-0.002972252
81121664,0.012299883
102502492,0.0000063100974
63898961,0.004733143
22741371,-0.0075054625
78894958,-0.0026171883
193769045,0.007365402
133526524,0.013709641
124162195,-0.018193077
68761829,-0.006029845
150982174,0.012550657
178767522,0.018805541
103121264,-0.0000011852333
90324037,0.0057336884
154974070,-0.01463578
102242918,0.0070458064
103025148,0.0000037507928
79140940,0.0076770317
104119743,0.0000028833986
103489519,0.000008081366
159261918,0.011461809
2128164,0.0024262054
103400908,0.017595924
137156719,0.01973146
142093998,0.01886136
50887579,0.00142297
101436998,0.0000026814537
106648471,-0.0023282322
37647259,0.0032697206
80884339,-0.0032361592
196986879,0.00026953986
91247650,-0.006678265
103543493,-0.00000035140067
102596634,-0.0000003859108
51221453,-0.02162265
84836642,0.009307897
95059694,0.0031131487
87899092,-0.011902888
150644258,0.0072738915
186923697,0.01093688
160661635,0.007922845
136471806,0.012666989
197719139,0.0026251513
113815381,-0.015357389
156186304,-0.010073915
137943372,0.007637623
178800123,0.011516132
70946811,-0.00021445764
109421590,-0.014533252
153881278,0.008960709
26777512,0.0005719816
61939811,0.0059750886
103530138,0.0000004429474
143553145,0.0061812336
165036609,-0.007007864
25111961,-0.00951125
87333968,0.016456561
5924204,-0.010434512
43655800,0.00007881588
102163753,-0.011233345
29375338,0.025712296
199504720,-0.015524674
104170971,-0.014768128
74088486,-0.0050872746
7543136,0.0034123063
87597085,0.003338811
169598015,-0.0034071542
139931372,0.0015802395
185676688,-0.007968786
80985807,-0.00034771653
164929793,-0.0019015247
183418350,-0.005694243
98758317,-0.008301347
114217035,0.011885802
25339903,0.0049317605
110999411,-0.0011851634
137126683,0.013171907
24040540,0.0044829133
148229100,-0.00294052
103763119,0.013426272
109629715,-0.0046831435
70209252,-0.008825646
139535531,-0.0073401323
89597949,0.00050093886
25291599,0.0024801614
52836883,0.0035176398
168744191,-0.015214381
13111093,0.0010215639
44836737,0.02127463
103716771,0.00000033734727
128789482,0.016273813
147629854,-0.0061891447
37292771,-0.008126977
78960831,-0.0026197743
12186844,0.008367182
95590560,0.005917262
153757457,-0.007890422
112180976,0.00091247127
100233550,-0.010676501
93870305,-0.0060989647
188998495,0.009718925
108267632,-0.00035436335
34646390,-0.01689402
103515459,0.0000044060716
66276,-0.018858004
128743493,0.0072109895
101641662,0.0000009580158
102556034,-0.00000077939785
119154495,-0.016649423
47217625,0.0015252336
76644375,0.009936967
52007092,0.008085369
9663527,-0.0056864177
28721023,-0.0046925056
54655241,0.0028900774
84951512,-0.009185924
31116593,-0.0005579818
85656111,0.010915315
191310621,-0.0073439507
101395887,-0.000003972714
59955089,0.0096856095
187884829,0.004137965
101396416,0.0000019383397
13412962,0.009925216
168516486,0.001412049
69012804,-0.0004408983
109852682,0.0029535284
6089810,0.008280144
13745743,-0.012237514
29023803,0.007697824
92239270,-0.016090741
163785796,-0.00951871
37946623,0.008746684
103569735,0.0000050266954
188947242,-0.00831961
137191581,0.0062337625
102606001,-0.00000033283305
60888300,-0.01333949
173642792,-0.018119905
85336494,-0.0012466912
101477534,-0.00000042821736
130234458,-0.006815744
123557722,0.017521199
172391764,-0.0011140652
607610,-0.008717733
72035800,-0.008896308
8565234,-0.006795039
23401241,0.004622127
163590978,-0.027324578
144962654,0.025262391
41313166,-0.010925691
19360471,0.014558363
163639280,0.008163724
9230077,-0.0056163496
187914360,0.014463089
16196471,0.015977765
124774484,0.015556997
1433240,-0.014789642
114222340,-0.005901684
151880072,-0.0021229566
29311349,0.010177285
4825353,0.00154586
101808554,0.015271581
69947484,-0.005492944
194767279,0.008807074
167926548,-0.0038240321
164827636,-0.0030176053
21469527,0.009607768
139495247,-0.0060420954
71357150,-0.0073475232
156914504,-0.0013117269
183926366,-0.0073882076
172100936,-0.014572877
188465624,-0.017797206
146348847,-0.0058728126
141497581,-0.00070515875
18279959,-0.007832558
42635867,0.009942664
16517033,0.008956176
29334467,-0.019369287
149154561,0.007865852
134836198,0.016634217
178552387,0.0058605163
69529398,-0.001629926
4386422,0.006225755
140678199,0.00067572895
104426702,-0.0075971596
126237100,0.00012916824
141049063,-0.0066267243
156600343,-0.0059098992
173208616,0.01562739
31448139,-0.0067013097
67644682,0.0043440517
34322220,0.010177369
99174296,0.001932197
94499041,-0.0012164519
32760921,-0.015479626
158116646,0.020373147
24172046,0.003762082
60483330,0.010466904
158805499,-0.0023231523
61771555,0.0033350475
48967500,0.0005358503
160364718,0.01639319
133610164,-0.008090293
20298050,-0.0028137385
155828591,0.0033233922
148966619,-0.0025872733
135895195,0.022834143
192624491,0.016771153
69389519,-0.008025774
162464333,-0.0056532044
102604615,-0.00000033283305
102529317,-0.0000016636537
103500160,0.000000000049820592
142582781,-0.009259021
67597093,-0.0072213784
49944582,0.0046883244
129672658,0.000065622764
148999915,-0.011333633
165385897,0.00069169863
32428430,0.0010896518
124237897,0.0031817444
174969625,0.0039186194
77333380,-0.0008952537
60830309,0.0004865634
34254453,-0.00024711332
25776889,-0.010234275
76048970,0.010365935
7253672,-0.0135868685
153346267,0.0071077994
66062511,0.006849694
72975051,-0.011535956
31668960,-0.0027952045
54351511,-0.021766173
182810557,0.0016205976
144730263,-0.021021003
138438859,0.0026295113
196279538,-0.009116416
86079993,-0.013605335
40216588,-0.0087911775
196382113,0.0076135066
191667214,0.0061127422
58916530,0.0027881893
170969804,0.006028397
197840427,-0.006346417
88809491,-0.0028283333
175453447,0.0063106865
109242199,-0.0036879955
183411252,0.0035007712
47610809,-0.00028745626
15605432,-0.013480114
137845852,0.020702166
194849935,-0.009374001
174799827,-0.008363475
4712056,0.023147883
26644068,-0.008264895
121781629,-0.00006878358
39864950,-0.0038515779
83615710,-0.003910745
93472644,0.005107604
180407923,-0.0035237353
197638890,-0.011765656
46350164,0.011879808
21850817,0.000035096073
103324529,-0.00000045710118
103476055,0.000000834486
102555916,0.0000012653028
185142400,-0.030133
133611445,-0.0057685813
155976767,0.0046708668
130282581,-0.011111788
174919919,0.008973222
169266378,0.005874937
34492697,0.013992205
105342396,-0.0037327404
57048438,-0.0029800814
141812875,-0.006596892
102835606,-0.000000481912
57445983,-0.0027781248
104179941,0.0000006984759
103593744,0.0000001617273
103744483,0.00000021850302
113761234,-0.0038133226
103741104,0.000000010485565
102353687,0.00000015054206
41523576,-0.0059666764
150199905,0.0043334607
102610187,-0.0000019013615
149917441,-0.008602747
26308415,0.01913562
120768747,-0.013875223
102393243,0.000005094849
113750836,-0.004488897
88795850,-0.0032727616
47188296,-0.00744005
147050564,0.017028082
155766290,-0.008064312
188360212,-0.0030721782
29697284,0.005096092
48273217,-0.02379679
135840373,-0.011604286
31978591,-0.020796886
154224343,0.0025317252
6971274,0.0057388395
38521863,-0.015184249
97815001,-0.0018712453
65705582,-0.009743409
194274099,-0.011674963
44784468,-0.014889344
63270750,-0.009718308
190757517,-0.011888925
69242881,-0.017396443
103904067,-0.0000018912853
7698215,0.018485945
95222412,-0.0051542055
154456651,0.0137232635
49582637,0.0068608653
158516455,0.0054435516
91380367,-0.011103334
150029859,0.00057705713
128221371,-0.008270194
188468363,0.018469986
95714231,-0.0014509715
144400430,0.01234039
79525816,0.008778296
31265839,-0.0034721487
117359634,-0.01094809
109471266,0.008166253
79223073,0.003874602
64152309,-0.019127792
137069988,0.006439429
49611581,-0.006401552
198470592,0.01420116
84836456,0.00096338167
146238715,-0.0012458251
39841764,-0.00744983
167401588,0.0073077683
4375100,-0.01256483
102502043,0.000005232137
155274470,0.02063569
189900658,0.0006097297
40647645,0.0057030544
54097033,-0.004042215
43129247,0.005247767
160867764,0.004837604
29704716,0.00238695
21021510,-0.005579254
102609904,0.00000047145537
101436648,0.0000037507928
32987670,0.012309646
102596314,0.00000011260107
15765911,-0.010339937
146333317,0.012016958
78424231,0.008910995
153232760,0.012876585
38947465,-0.0033862917
67216500,-0.007905053
21213396,-0.012044376
146203798,0.011973347
109805142,-0.010400543
24881330,-0.005292499
102555770,-0.000000075774615
95508372,0.00710583
166171918,0.0140368
15853190,-0.009898412
51412105,0.0131226145
101436567,0.0000072912667
186236250,-0.013335291
14515204,-0.002087468
97125292,0.0048798574
81164254,-0.010842623
56776765,-0.01717721
14640460,0.004901353
60710020,0.0046682614
85440084,0.005804904
38824340,0.010644147
70623539,0.006765375
71907805,-0.0067690397
101477453,-0.00000019798404
102728298,0.000007803213
76618173,0.0030989263
82474367,-0.0021287482
133601676,-0.010295821
38921556,-0.0020344502
98102555,-0.0039493972
48418314,0.006738966
39441130,-0.0028309717
165613400,-0.01288091
182287131,-0.018768903
73941134,-0.009216388
19490857,-0.0021621643
163628156,0.00306345
80732098,-0.005031282
138331025,0.005119793
1612258,0.0004172435
192069070,0.005991279
33045847,-0.031856723
103877882,0.0000019984643
37472804,0.008168447
194272720,-0.0033798644
44834963,-0.003571108
128935702,-0.005902391
156795021,0.0037255003
192087111,-0.013753222
103052390,-0.0000014284055
68265274,0.003131975
81475664,0.014080576
40004291,0.0121022435
167476202,0.00049334124
158764054,-0.009139744
192713919,-0.0030606848
89489486,-0.0056245606
102836352,-0.0000010163179
123534895,-0.0027499555
103976764,0.010352534
103542243,0.00000090917484
48841105,0.004198805
196595107,0.01193555
172623547,-0.0085002165
136316850,0.016527846
116336003,0.002035656
104528262,0.0076604006
48824173,-0.0018493677
179413808,0.000859996
95899152,-0.005742883
93280389,0.0045982595
182464492,-0.005842142
74603293,-0.0031397229
15230694,-0.0047093495
46392921,-0.007283435
119999619,-0.010950157
45153634,-0.016832076
184630574,-0.010777527
2612619,0.009955029
176603852,-0.002413616
167668980,-0.0076785265
190637475,-0.0021188336
73899453,0.020324936
147891255,0.0009752398
19132210,-0.0043945615
128536247,-0.010967985
102408693,0.0000000026038194
18217874,-0.007155025
121604322,0.010117812
25173027,-0.0060883015
111774241,0.009275296
100440325,0.020971783
117025032,0.000019747848
133308802,0.008850554
147155563,0.006542059
134725155,0.0052263574
129937549,-0.0056932974
103403872,0.00000011448611
74201709,0.0084623685
91058672,-0.0054958933
72335488,0.008149828
128045222,-0.008599037
104179743,0.0000006984759
103936376,0.004275089
103857731,-0.013772826
144859573,-0.020136228
30787625,0.014957983
49945198,-0.005282864
7726845,-0.01602234
107144112,0.0032873242
73047798,0.008691543
104586066,-0.004261926
20264010,0.00636024
196452860,-0.008633496
135892559,-0.01947027
21781955,-0.008240301
184658705,-0.021780968
92158780,-0.015695864
168334303,-0.0011691466
42725422,0.0002857199
47708889,-0.012920139
78870184,-0.018237956
66875673,-0.008432419
62289209,-0.0007926256
18708714,0.005466241
117088979,-0.0101069035
172569867,-0.0034221583
42621792,0.01593061
119791513,-0.014749967
112565121,0.00066096446
104093406,0.0000014283855
176040554,-0.020298362
103863142,-0.0000004371242
111045886,0.0016934734
179507331,0.011957018
136814447,0.0067902366
110585495,-0.0013164857
19682043,0.017873688
65955338,-0.015167937
171351559,0.013577459
49595867,0.02875856
66020610,-0.008457287
89312252,0.0063210283
123193861,0.007060757
189186581,0.012642354
98771544,0.018572908
170735746,-0.008689756
136552240,0.0053980397
125263917,-0.017144749
103053134,0.0000017923704
130002381,0.008359442
168962040,0.009980438
190919699,-0.005125641
156103063,0.01386135
103918317,0.000002949515
60596792,-0.000022213033
137865040,-0.00010169518
161076710,-0.007033553
120486401,0.019577246
65904649,-0.0035290015
49733915,0.0014931523
117561543,0.013828716
127848346,-0.008846738
143014180,0.0043232017
112351896,0.0056044
113672600,-0.014660901
9925750,-0.0024643994
39473394,0.0024623894
197147284,-0.0037960948
70013101,0.011443254
47307185,-0.010282415
41052470,0.0006156855
5358365,0.0000075074286
134145554,0.0084851915
61419468,-0.0103165945
100721343,0.010139475
123544299,-0.008879253
174392385,-0.011184416
63954309,0.007824464
190367017,-0.024379482
193899624,0.009914832
21048965,-0.00010349996
170653577,-0.009227765
186060052,-0.0017188668
51866449,-0.0025036847
120256684,-0.0084641315
46576447,-0.002046439
193997986,0.011263867
23094075,-0.0005065041
54096980,-0.00528561
129034859,-0.014428079
164246914,-0.009193818
148790707,-0.014874241
118425144,0.007000016
101605128,-0.018655512
74168615,0.0057846503
13418194,-0.0030066224
195122352,0.00903005
143157963,-0.0013891688
49176971,0.01079243
123598111,-0.012098503
66469889,0.005090544
20342007,-0.0054228795
104120388,0.0000028833986
123811881,0.011048125
91889972,-0.00021030722
5558713,0.008840665
160656227,-0.009972289
154197411,-0.0069722203
94402485,-0.0110362945
33896585,-0.0007459136
166234739,-0.0073060407
67514764,0.008171384
81125724,-0.006133256
38077048,-0.0028637578
102837306,-0.0000005778203
33656413,-0.0016015688
102515406,-0.000005910084
113354846,0.0015456246
102728404,0.00000047145537
30440927,0.0038639873
57646519,0.0013003513
2348229,-0.00029545868
75563747,-0.010404786
83990542,0.017255317
138905259,0.008550714
172743663,0.0041834987
125224673,0.010992444
50735768,0.0013937537
88898658,-0.0036164112
98051341,0.003428472
61790346,-0.0043721106
57750679,0.018714812
22367074,-0.009355495
120650367,-0.004101706
83752211,-0.00013290312
108877895,0.0026717621
26267828,0.0007643506
82744484,-0.008670137
20821623,0.012015994
67775687,-0.006323719
57917306,-0.004454508
130725996,-0.014209573
184378170,0.0050429287
30779209,0.011286396
102407291,0.0000011821418
38182256,0.0017994097
155234322,-0.005048776
5959229,0.012024522
180698851,0.00018925958
176552349,0.005195765
100006645,0.002300039
191157066,-0.0075702947
106275814,0.0098811025
189554256,-0.00014411741
176914712,-0.0068320218
178803581,0.0005130237
73032139,-0.0023579684
154357219,-0.01694195
132647930,0.010439997
141368411,-0.012255201
108498035,0.018027954
184967378,0.010921185
104025010,0.0033146578
102366780,-0.0000016213385
26079198,0.006049474
850925,0.007752245
140332042,-0.02394726
70063680,0.0066548544
97533035,0.0075420616
153896293,-0.020529851
20891359,-0.004231438
64029954,0.00042825213
272468,0.0033018985
157052543,0.007281545
45919867,-0.0083620995
177721928,-0.0057824175
180220393,0.009477977
80613388,-0.019846294
107728663,-0.0069587547
144969435,0.0028505647
159634528,-0.006950687
125103529,-0.00040203484
180507016,0.0040208846
133548886,-0.015014359
129487544,-0.001030936
102434534,-0.00000077939785
87467796,0.010514026
102620300,0.00000001756693
159426700,-0.00088580727
96408987,0.0130690895
59099828,0.0054687196
12092551,-0.0104430765
79483397,-0.0016612376
35732083,-0.006768379
74679955,-0.0008368154
113774181,-0.0059649637
153282259,0.007673926
58313964,0.014224095
133568140,0.013782299
173315732,-0.010877103
68715176,-0.0117795225
99513555,0.006896346
70547726,-0.006979368
173682225,0.008698917
152899305,0.0001961038
167299481,0.0035049468
68999690,0.0002427178
76649923,-0.000058871083
17306040,0.012191746
102609693,-0.0000019390322
102609753,0.0000015004915
158057418,-0.0076010935
2294282,0.010353795
67045885,-0.0021860125
137248918,-0.006943822
102835671,0.0000061801707
195803700,-0.0059821866
191246297,0.0023202605
164443911,-0.0037986801
75765001,0.004149345
185051181,0.00523373
144771729,0.01603032
138465007,-0.0027646634
172139751,0.0050273524
123673123,-0.013931199
183952838,-0.0032484862
103515584,0.000006385757
164010192,-0.0010723135
154454860,-0.019539284
20474811,-0.0059292726
140476009,0.0032463854
142856394,0.0049741315
63716932,-0.010403497
191625326,0.00058324565
129044879,-0.00094435987
102836406,-0.0000009361612
103596206,0.007871493
100078586,0.0020714041
103810501,0
93451823,0.011137272
66687684,-0.018880555
88455424,-0.010382141
110595598,0.008222933
101283082,0.004832033
60181059,0.008845916
105643106,-0.0145103345
155467311,-0.001387883
47695982,-0.01272455
81583209,-0.0053522876
125588949,0.012806114
42821454,0.015922504
192371460,-0.0006919172
162541652,-0.0030568286
129207116,0.00027910998
23288837,-0.012284511
36236342,-0.0038843213
87262008,-0.006829569
144154893,-0.0023505485
103052148,0.0000037507928
114082236,0.0050037536
103850289,0.0000046149603
101395662,0.00000043576387
83295646,-0.0051166844
102529483,-0.0000017724989
8930469,0.0025183219
72501380,0.0140646435
135112956,0.015853558
156359915,0.0058021024
39191618,-0.002444944
131466322,0.0024293708
187130399,0.01109602
168209430,-0.0040279245
54392576,-0.000100106874
183759602,0.007285198
196265820,0.013719965
115723664,-0.014830568
103877615,0.00000020108055
104185849,-0.0032043043
193035708,0.019152801
103904647,-0.000002309968
141876466,0.0006197318
38843060,-0.0016112826
14125554,0.0025326195
92676570,-0.010145621
32311063,-0.0061273067
90684828,0.015252476
82578847,0.008453193
39297494,0.0073756794
63932736,-0.022135515
103025564,0.0000017506383
102861151,-0.000001112151
42055173,-0.0011286744
100793368,0.0031916106
112983934,0.012179103
103582662,-0.00000035958928
120659181,0.0015713078
195462416,-0.007073621
55748427,-0.01277904
56612573,-0.00026501183
86704766,-0.00028863124
76848268,0.008509921
88814475,-0.0056466716
119593144,-0.006841137
155125207,0.0149645675
129684271,0.0150379855
70881477,-0.0043094717
87269828,0.0043768347
183532459,-0.01407217
9965177,-0.016865933
121354736,-0.008772137
35139331,-0.0025358426
51167419,0.010795389
9380789,0.015715951
175204692,-0.0022100275
133578592,-0.014048127
75059838,0.020306706
139791438,0.005316094
48482959,0.009171302
114475993,0.003049934
3291760,0.0002305074
50419039,-0.0070351046
16162882,-0.007249216
194427810,0.008584371
103917814,0.00000011260107
25520326,0.0045430693
31404225,-0.0043785083
164599772,-0.018029783
191214638,-0.0056153974
157870321,0.0068686595
47997688,-0.0018629266
10515555,-0.005748353
98074659,-0.0072793853
119477493,0.0037630259
137602360,-0.011325862
154840019,0.009504247
39145383,-0.0035717268
84728813,0.00017349889
104768605,0.0022132262
185882950,0.00014717889
102501261,-0.0000013306511
103528651,0.000023898232
102944993,-0.00000035140067
24920576,-0.013774525
149563043,0.017878378
102795693,0.00000032358417
185097166,0.008111532
69964694,0.016837474
184649963,0.012007639
92964804,0.0055169472
117104909,-0.0076468973
86386981,-0.006387262
183859363,0.007266173
106016686,0.0030443487
46868248,0.008904644
182967754,0.0048713223
32588093,0.008624326
99650258,-0.0036636575
59973022,-0.006046774
46601214,-0.010515634
93173171,0.014593558
169779712,0.010057635
102795648,0.00000032358417
135652251,-0.0025552602
176964769,-0.0007041154
185591592,-0.0052434644
155713672,-0.021890242
113998743,-0.0008592878
5336185,-0.019266985
126623521,-0.002540023
35403328,0.021847496
103849761,0.000003977744
117948524,0.002074737
69508272,0.018710464
169567654,0.029839858
172565703,-0.0085638445
83446310,-0.0026908952
114224444,0.0039173947
17654500,0.000942111
183963592,-0.005012114
116819029,0.0029819568
53543297,-0.008101457
98932008,0.009192678
15566057,0.00071184646
43886597,0.0048105833
71229690,0.009498527
33833470,-0.0045245243
149836635,0.0011786959
98945937,-0.0055307546
118228384,0.020635668
177149537,-0.0060931593
102836370,-0.000025070005
103555671,0.0000031311747
103931507,-0.00000040913145
19241617,0.0060747224
103323097,-0.0000013589972
76583228,-0.0020722023
104128771,0.006195242
117850139,0.0026611297
1611409,0.001592602
187459198,-0.0065790913
24259880,-0.006547768
173600808,0.009558297
52199288,0.009777291
2312181,-0.018816134
171913362,0.00016632068
3762223,-0.0067876074
125116074,-0.0040049283
170272467,-0.013770628
58892166,-0.004871318
159468674,0.0065242923
49816482,0.005231573
14628198,0.0011236474
113500799,0.011681822
168694756,-0.0076530143
104120272,0.000000050888488
75031998,0.014659365
24402796,0.000676835
108142164,-0.0052006505
101424374,-0.00000012156517
102890995,0.00000019756754
8279429,-0.011600913
123293764,-0.01808692
149737398,-0.023785241
64892924,-0.0022291422
154319190,-0.01789911
147345239,0.0000113009055
30623403,-0.011364069
160790589,0.011423504
2838642,-0.0031353177
127348525,0.00289483
171711905,0.01901581
131278521,-0.008723644
126326653,-0.0030959568
102890235,0.000004419652
102460743,0.000007975753
179459568,0.0063588857
103025386,0.0000012146694
101396452,-0.0000009951508
114981186,-0.011845559
124368333,-0.004249533
91310054,0.0062181246
110609674,0.006416455
102609780,0.000002553783
146618514,-0.0018531927
156375473,0.005995165
60944485,-0.022449495
192149807,-0.0057788705
2870964,-0.0048840228
65596473,-0.00369118
124879596,-0.0075287106
122058883,0.00031559865
31665394,-0.012081762
196433053,-0.015039884
102906160,-0.0000005446359
102620416,0.000005735377
88326975,-0.00095498114
18795957,-0.0007234246
148507121,0.003503377
173597811,0.014513966
4435420,0.01580711
68688212,-0.0014875504
93132508,0.012488361
192830344,-0.00061698386
85863721,0.006465089
51846644,-0.0008412956
10868781,-0.0016322245
33197762,0.0036265906
85213531,-0.014197894
18421933,-0.000019824842
86672454,0.0029064715
188966167,0.010745492
103687646,0.0044994014
189601520,0.013955615
109898609,0.016271042
147998384,-0.005483243
130357377,0.0068282583
15133167,0.0058415215
195915303,0.009105912
7765148,-0.005030638
19744576,0.0065292856
163046685,-0.0000909888
40087947,-0.016946686
38746558,-0.019049788
196834059,-0.009712304
6663196,0.021337463
80843967,0.0042354823
164209324,-0.010858061
97869590,-0.009769097
66723076,-0.0036015904
1393738,0.0052783987
184751695,-0.0010485211
131536628,-0.005883768
53836157,0.003278925
166671601,0.004186613
21648051,-0.0055611627
147775233,0.0032199617
77748905,0.01139537
106408202,0.0033152394
18992376,-0.0029145353
137258367,-0.0047266427
103870502,-0.0025510858
163229659,-0.010766485
148417840,-0.013188266
64900042,0.01843019
127521415,0.0036484112
80287952,0.0014026329
89001942,0.0005479377
121348998,-0.012947444
118977689,0.0000328817
145510923,0.01011791
26838927,0.0029349152
191706789,0.011094755
69910925,-0.009477405
190791974,-0.0016297094
45623623,-0.0046902024
68388855,-0.020144276
115473420,-0.001381805
177720940,-0.00039912979
31167453,-0.0022211538
102891324,-0.000000016960305
15258822,-0.012491733
124577661,0.011242044
18190622,0.010068674
102541761,-0.0000051070474
101477084,-0.00000039401274
102366753,0.000002662217
101723898,0.0000022911381
103987546,-0.0000037607783
91515169,-0.008845963
65757353,0.009119457
104179851,-0.0000046029954
102596995,0.00000019756754
102461083,0.000000581338
53302947,0.0018679808
175774202,-0.0012906014
154508709,-0.0003031044
144357760,-0.023156056
102595743,0.0000047120584
102085761,-0.00000021559282
160019543,0.0065691364
96020297,-0.005727179
41488970,0.00003516813
31698570,-0.0016705984
64882233,0.011469581
196921906,-0.008838157
145783269,0.0014920289
128105356,0.0026877872
82487580,-0.009677374
180488843,0.00083885784
181406993,0.008149543
128862636,-0.00018784519
102393771,0.0000042502866
103583272,0.0000000056822165
89223653,-0.0060338723
154117272,-0.0004163145
170197432,-0.019045204
142008025,0.004599434
76865904,-0.00057089975
65422976,0.0012601967
97527242,-0.017101882
142554721,-0.002028419
75336912,0.0004798136
67547207,0.010682763
101382142,-0.0000004792481
53013540,-0.013979713
184043620,0.0026343863
100291886,-0.004901024
167635324,-0.010892337
117364140,0.0016998574
65662615,0.008938622
187473375,0.00545079
22006820,0.0032453486
42266934,-0.013502742
32214796,-0.0076656654
105036555,-0.011060534
58108678,-0.005814376
46683769,0.0074982685
60928625,-0.0025769854
72983326,0.0048419912
104704282,0.0066841743
194520072,0.0015348908
46738012,-0.0124913175
38599117,-0.00057783927
69931880,0.010884983
18302366,-0.0032597324
79539715,-0.024215778
90169639,-0.0039586476
135195458,0.0072031096
127877206,0.0063375854
114283939,-0.00038503393
71172882,-0.0121039385
192623169,0.023674082
129637305,0.010601678
108596323,0.016156621
6331729,-0.0050329342
38463558,-0.00050754903
171036550,0.0056008766
16454071,-0.0038997862
108181234,-0.0009850012
191279942,-0.019703792
187773321,0.00989786
71105888,-0.0062039867
145330218,-0.016890973
161312362,-0.008178686
197517863,0.004346452
108179444,-0.00992916
75023068,0.018003268
147663877,-0.011714079
188057829,0.0035411115
72008399,-0.010932742
144906967,-0.005579634
172548515,-0.006056254
123592757,-0.00021240053
77281061,0.008747529
21405361,-0.0009380188
8537407,0.0100737475
29198390,0.009287402
150410105,-0.013494207
194695633,-0.010633566
189891882,-0.0047284383
181295259,-0.005567364
117819862,-0.008860767
111994405,-0.0015007185
156622670,-0.0061175693
47141746,-0.018657416
104092959,0.0000026659147
102471243,0.00000011260107
196177890,0.0056227576
121605976,-0.0090216
85442860,0.0077549145
90955906,0.0061149197
184813416,0.00457464
169653768,-0.0015712228
185593993,0.0013715199
25675373,0.015004693
102944452,-0.00000015538116
7908458,-0.007863008
22377830,0.017014384
189411623,0.013942324
51724642,-0.00035029976
39975533,-0.003203443
61237102,0.01176849
67468609,-0.015778368
164633357,0.0018595881
64897725,-0.006640814
103797753,-0.000000023276783
102461412,0.0000007789055
102945036,0.0000003643748
24634857,0.003888738
87568538,0.0012701531
185589471,-0.0031634413
74048527,-0.0010738553
170458000,-0.006740388
111894352,0.006294969
99234961,-0.0028319955
86298054,0.01733492
169447443,0.030688753
102728452,-0.0000008520839
90488165,0.00080663216
103475992,-0.00000012333453
104551231,0.013628463
163158086,-0.0023118234
50441224,-0.016241906
27160728,-0.018630976
115035049,0.0052582137
94616375,0.000019085794
140194646,-0.013829327
111867638,-0.009279516
18549903,0.00018290139
43411464,-0.0109689785
106580687,-0.0014562835
161351351,0.0015131198
8744064,-0.0086772
63734809,0.0034210058
140353777,0.0068276804
110412965,0.0019482718
11927496,0.032593742
77676485,0.004735414
58491871,-0.0024621042
18321937,0.01783933
91441552,0.009594223
39305680,0.004449915
2762009,0.0018519604
65588221,-0.0026893583
193065067,-0.00550246
26232556,0.007222539
157373735,0.013483403
169036411,-0.0051596677
55787920,-0.009120739
124096081,0.012202757
19381310,0.014459069
154956410,-0.010913683
110357828,-0.0045081726
130810541,0.0053586173
103309519,0.00000011448611
186838825,0.0114397155
199459705,-0.0022722133
110066522,-0.00020967644
7396110,0.017544564
115029000,0.0019050478
104614073,-0.01338338
143370948,-0.0040111043
155748360,-0.0002782607
17669759,0.0015024454
121548920,-0.0005657701
102420151,0.0000026177001
102502638,0.0000004429474
49080662,0.0068702837
91388024,0.013057328
102627243,0
177097663,-0.009436208
74654554,0.014579092
42851635,-0.0009861446
169589413,0.0031046805
198781378,-0.0037399712
193736600,-0.0045336843
132680249,0.0028351976
102890084,0.0000031049763
63083384,-0.0009755515
143139558,-0.00477743
118331042,0.017265039
81759221,0.000082425504
104105452,-0.016782824
188325659,-0.006507031
99842617,-0.012410105
76711522,0.011531366
39088600,-0.015620738
142492105,-0.006815458
155216250,-0.006864911
2153516,-0.011159352
193046902,0.0024157767
161087714,-0.011406417
37462867,0.0033740704
170189122,-0.014202105
98403740,0.016121004
14583876,-0.015531998
68404025,-0.01160321
2474179,0.003634877
102621046,0.00000039598777
173210296,0.0016951109
55242684,0.009010295
31934149,-0.010573664
158262926,-0.0048030005
155679891,0.012609279
110937262,-0.004267779
62412997,-0.008653383
130231439,0.014027078
166894724,0.004223892
187534020,0.03344008
88164855,-0.0026712322
177880806,0.0063694515
21155114,0.0073536364
106006462,-0.006782867
186869285,0.009411009
60622677,0.007220652
3637670,-0.011552173
114895975,-0.009423735
13268978,0.0065712444
39866901,-0.006541953
13194338,0.01955091
137937733,0.0028620416
63396593,0.00009753646
156632800,-0.016411666
186259711,0.0029235242
139899030,0.008595457
103489887,-0.00000035140067
191467971,0.006591974
183291324,0.00044740818
29959989,-0.018763922
103617468,-0.010231263
132801005,0.0076356316
181886259,-0.016025612
51276885,0.0033894407
67996771,0.005365461
110849084,-0.0042934325
91404457,-0.013724785
102126243,0.000005541684
143736237,0.005744608
102582106,0.0000017906958
31571352,-0.0026675644
186836139,0.009579657
111524487,-0.014020874
74545315,-0.002278074
185764682,-0.014398307
59581425,-0.012504437
135153178,-0.011187142
3120957,0.006724989
171051002,0.0030935612
793414,-0.0066503165
168835004,-0.025070677
199550290,0.0032367667
102609918,0
103583298,0.0000018214758
94557259,-0.013816073
51049764,0.012053534
102126890,-0.0000014817966
55915919,0.021168778
3252941,-0.014191884
102836531,0.00000010171874
103876624,0.0000027882359
180761760,-0.022963915
41421667,0.0021415544
104099378,0.005048479
134435547,-0.0026775547
111387737,-0.025925493
102447583,0.000000581338
172111161,0.00021044958
167351576,0.0036927678
177870407,-0.007843549
102583528,0.00000071001455
9389470,0.0012810458
79254707,-0.010875893
108560306,0.0026402732
57402733,0.010171311
88432463,-0.003466319
102582790,0.000000028804905
104189418,-0.011536221
32252532,-0.015612943
52755332,0.0076807705
61101898,-0.0071507804
29067106,-0.0042196154
150592601,0.002102729
102890352,-0.000000838672
137395100,-0.0046636267
198621759,-0.004012085
182860028,0.025606982
184856671,-0.016914537
33771984,0.0125355655
123296237,0.0133523
4239337,-0.004768665
144691619,-0.0003320324
72343199,-0.013294933
169670864,0.012567043
198572615,-0.0003841407
101480587,-0.00031780975
173441108,0.003199683
41787092,0.0093199415
49301676,0.008098217
108459722,-0.0022089574
11388815,-0.015577949
102861861,-0.00000183862
103701441,0.0000017923704
102755235,0.0000023181326
77316194,-0.010290356
132085894,-0.011358872
175501252,0.00063069107
148926552,-0.0068258243
159901528,0.008285718
180040855,-0.015820011
83229576,-0.0054805735
48913796,0.0098086
114034834,0.0097912885
56325531,-0.0026107265
121294872,0.01589044
102353193,0.0000049482337
125282546,-0.021852024
129799350,-0.002657974
13949570,0.006570649
143077037,0.015330899
149831066,-0.0010466193
92146464,0.00826537
142055526,-0.007996026
962069,0.000364717
52162001,0.00096338073
101436584,-0.0000007369491
150252580,-0.00856033
18798964,0.008644497
128587377,-0.004502357
192927124,0.00587224
109006667,0.0049881707
95177241,0.014852167
159391230,-0.004250972
25253022,0.0053020087
193463126,0.0071294974
102126557,0.0000012813434
151317972,-0.0019869327
126334160,-0.011991905
11854529,0.008013727
103864510,-0.0000011502402
167915806,-0.0029936072
10190761,-0.01640972
147973488,0.006271048
125597940,0.0024145085
197142898,0.0010944804
56516317,-0.018558837
80317617,0.0067587225
125481221,0.008069331
134285937,0.0048959265
62502699,0.0015002111
172716965,-0.019640964
197487526,-0.006521605
13817925,-0.010154269
75007777,-0.008297739
34952684,-0.000009792495
106663277,0.015257581
6901361,-0.003621485
185648828,0.004728887
84890693,0.008663037
141667148,-0.0049416283
61087127,-0.009114972
27185309,0.005168466
9302323,-0.017375102
26321747,0.0087202545
62925687,0.00020735843
31916195,-0.006655841
85937120,0.00020289763
8334869,-0.014346649
153638775,0.009837212
45177812,-0.022286275
150062395,-0.010293149
41611689,0.0061518946
107329511,0.01115559
3932990,0.006173581
65972638,-0.008022911
11419047,-0.00027025357
92815405,-0.019147472
144004846,-0.01258174
102728634,-0.0000009545491
45272988,-0.005490116
171432211,-0.0017134047
43432027,0.00485896
95071948,0.014464956
36163571,-0.026060753
149485690,-0.013650892
102368634,-0.000000083982975
150500261,0.0049425154
181234577,0.0037366273
101884677,0.00566776
170839578,0.004186601
119497823,-0.005618879
180528687,0.007854055
66259569,-0.0060987645
56731831,0.0000011589467
198823790,-0.0066263345
142204280,-0.0033646112
9620923,0.01880199
75586269,0.00074974756
82249994,0.0068637584
30530763,-0.0009878695
6379926,0.0013517218
101409567,0.0000009511975
43193566,0.0029613753
57279409,-0.0115364045
95266961,-0.006230163
199208554,-0.002172787
31749021,-0.00029141404
41083188,-0.01085366
103502282,0.00000007439722
10425621,-0.0028383897
169314118,-0.0033640796
195564511,-0.011144497
83818896,0.012832035
97228081,-0.0019039011
101409790,-0.0000002671975
25206093,0.0036541598
180774416,0.011643556
99677692,-0.011050859
176132676,0.0008318503
103827383,-0.010026906
65686733,0.021703297
121154719,-0.003498945
150538584,0.011450536
86530553,-0.010092191
152802906,0.0040351185
102473084,-0.0000005989474
23747974,-0.0011680886
103025084,0.000004693219
18624011,0.00615049
24155259,0.0023917786
82092795,0.016228499
102582171,0.0000017225453
82035586,-0.00001820272
196444852,-0.0042206873
184233330,0.0009255951
76169489,0.0060759336
103917790,-0.0000003511805
15936398,0.0061832974
89996349,0.006148162
134690949,-0.0071419864
178426789,-0.004095624
195421577,-0.010129243
181557239,-0.0071289157
48461104,-0.013971602
18721282,0.011476348
190310248,0.016552987
99682841,-0.0005726935
125053299,0.026219646
12940346,0.003922745
122868800,0.009406564
117496625,-0.0033392357
13745680,-0.01115919
175773432,-0.0015569894
32285262,0.00017888748
2342975,0.008087347
67898704,0.007931567
101472827,0.019779887
59392353,-0.003444197
183170097,0.0048471256
15843387,-0.007351213
112273942,-0.015282534
63921016,-0.0075271404
20229264,0.003092592
158824512,0.019206882
191241706,0.009624056
134696996,-0.017146438
113455721,-0.002364996
137694676,-0.004083352
149073403,0.004692749
151324245,-0.0071960473
154192883,0.0022408322
16157202,0.011688228
190955366,-0.017590478
51486825,0.002383917
26566654,-0.010705548
48676313,-0.008639799
102604815,-0.00000033283305
47585538,0.005045401
188211448,-0.007572375
113149239,-0.009148774
115474881,0.009036211
26212688,0.004129842
25181171,0.0074744984
131385955,0.008480225
75559047,0.0006451999
156765287,0.0021003543
50990982,-0.0032550287
102407282,0.00000007439722
49202306,0.004712732
101028266,-0.0053084902
139988827,-0.0024456303
166089350,0.0056248885
33094530,-0.0005276658
111758547,-0.010288274
103904898,0.000000038955342
181842024,0.0062943087
102974262,0.0000020715086
126635732,0.004111012
84156753,0.007913615
179962002,-0.00016290371
162894351,-0.008674847
80447222,-0.004084848
14222114,0.0021685963
54418111,0.0061450885
48359854,-0.0014753927
23283889,-0.010434588
83449333,-0.005687767
8326364,-0.011053749
165021416,-0.0030000971
195712464,0.012980833
197730079,0.0065128454
40101460,-0.0037403628
92909910,0.0036620128
54161079,-0.00087151735
99153416,0.017282331
81835066,-0.0057218936
102461256,0.00000045289767
176342615,-0.0015671737
130827123,-0.008842823
65388943,-0.0033582533
170737379,0.0059599164
160200246,-0.000401909
198980157,-0.024095075
194420396,-0.018927854
125381061,0.0075531825
101423452,-0.00000063287524
194701643,-0.00036094434
89361897,-0.00032683945
190466945,0.0060556442
172630495,0.008368617
175165856,0.001975474
186835635,0.008777296
103878037,-0.00000066896814
101624663,-0.00080265664
72089316,-0.0034745687
63771246,-0.014684687
102570055,0.0000028285974
11972220,-0.0021164685
86631332,-0.0008791303
186869231,0.012107079
1973444,-0.01160671
99327963,0.016781228
189426909,-0.0015751506
125691325,0.0076952837
84064199,0.0043401164
102556160,0.000000053391194
102556149,0.000000014819721
52273653,0.0063638124
196674246,0.012407263
95839586,0.0026416224
130131578,0.00423777
67438476,-0.00013409411
22108288,-0.004850988
79646611,-0.018007856
166883115,-0.008369801
149849385,0.0026250258
80755411,0.001313306
102754615,-0.0000072959
63420791,-0.0024243714
101382097,0.0000046946443
103324638,0.00000032846128
141650334,-0.005226794
18030532,-0.0074444246
15567135,-0.0076888064
56976378,-0.013150336
107776909,-0.011017363
136689188,-0.0015944256
76885387,-0.01191802
79582526,0.001650306
189877000,0.007053471
167413801,-0.010521056
188802935,0.017618287
32945458,0.0020354507
141472051,0.009341014
69305799,-0.00008172219
109898725,-0.0024575226
162674558,0.01685563
38740028,0.018425379
125887516,-0.011195264
191914141,0.001553313
66617269,-0.0015564273
102620574,-0.00000183862
91559167,0.005166476
176913304,0.001890452
133165578,-0.016301652
116758337,-0.019125149
111705524,-0.0012711256
65488688,-0.0087774005
150866336,-0.020967763
91984732,0.0011215728
54132837,-0.01110519
102379651,0.000001898263
57094688,0.011645096
179401777,0.00006725863
132491637,0.006780735
37975021,0.018788075
105625385,-0.0038475555
46813538,-0.009617039
150280697,-0.000072658244
78544757,-0.009271
62313457,0.0032978074
18902321,-0.0028118822
77137992,0.007577096
139593876,-0.0094302455
132935444,-0.0006427791
62290938,0.012695054
180078359,-0.013273024
152409093,0.010313524
148260732,-0.0070765857
103501633,-0.0000007500887
47286089,0.01650694
109578012,-0.0074969763
72074756,-0.017515132
37331797,-0.00041506576
37440066,0.0012337929
169875593,0.01447093
108694193,-0.014521296
103510470,-0.0014566628
155783212,-0.0015768927
87062203,0.018510068
68405625,0.000037190646
13463942,0.0033986443
83532859,-0.01596876
67171862,0.0051698936
149215451,0.0050812
9575404,-0.011437618
195377756,-0.00010066647
63806210,0.00892183
20892057,-0.0058725723
81863542,-0.0020398502
47489860,0.0036256348
103542459,0.0000014602441
77355575,0.0106268395
22066095,-0.0072101196
26663479,0.0023134581
113916881,-0.013966962
111001177,0.0034842682
163556098,0.015697528
122253092,-0.029601993
152325006,-0.0019800586
124841917,-0.0008613135
133864762,0.005662932
139992784,0.002175769
19230212,0.0029947215
177547002,0.011002754
13072021,-0.005110698
138741371,0.014349509
104175387,-0.0000004967438
102620318,0.00000036358782
158553351,0.011337174
69598493,0.011956101
101317351,-0.004933648
102569817,-0.0000020690156
81342551,0.015262767
192550516,0.007395845
103515815,-0.0000005989474
96699674,-0.00692669
103528815,0.00003344259
126403778,-0.003939491
55051824,-0.0055295574
16395732,-0.012866605
21782232,0.008167453
84046433,0.012700001
172085786,-0.008298304
71904287,-0.008492525
102473280,-0.0000006673754
179176522,0.0070271096
194386430,-0.012570131
63224783,0.0069091567
76626345,0.0033500975
178598063,-0.0074347886
89764291,0.0017926184
24815395,0.0042956877
187041852,0.0019188928
48226002,-0.0057398574
83762662,-0.0069756876
11249009,0.00055603724
23741650,0.0006051388
65846493,-0.0084712105
33248465,0.0032666314
18950674,0.00050404103
91787285,0.012219823
118652719,0.009258087
138863111,-0.0013368434
64334460,-0.012722244
75806620,0.009442485
25677946,-0.020530805
10704487,-0.0068392446
184805355,-0.014855842
9711413,0.016596278
134191545,0.0035389771
56044995,-0.016187571
102501962,0.00000009784337
150260281,0.0006370638
13059455,-0.009093534
175223841,0.010579927
33270649,-0.0065531274
199186189,-0.006567109
150364055,0.0019166009
101583887,0.0032274234
48019776,-0.0023027228
129803272,-0.01979104
104176114,-0.00000022379317
189104449,-0.0023597898
44071361,0.012931356
108066906,-0.007153903
93382283,0.006591301
192275829,0.0028084582
143180636,-0.0013521322
28527456,0.0068950164
14613916,0.00579459
11395654,0.0025659564
18668374,-0.010287013
21542941,0.0048171906
78922145,-0.008079616
154075589,0.002180981
178171475,0.0076642535
104400659,-0.0028645732
36292421,0.010564518
177317919,-0.01096876
194259318,-0.003530936
160357129,-0.0027963107
109432008,0.0015340912
9234475,0.0041580177
175261150,-0.0036258164
60500952,-0.000800496
20374384,0.015667176
47290492,-0.00538285
116822764,-0.0040101893
12481179,-0.008039119
138751918,0.01380216
22645454,-0.011660932
100754659,0.00024967233
23992712,-0.017117996
114007230,-0.01467544
161854621,-0.0048359493
178782884,0.0018592706
27812154,-0.00357687
44829132,-0.00417885
27868496,0.00026338507
48534443,0.017918296
71673908,0.016205614
28193436,-0.0015193672
9056654,0.0043643005
52109703,0.022787616
154586260,0.013552466
61972658,-0.004380127
9777779,-0.01357459
48376228,0.010988381
13152957,0.0009836089
187383794,0.004052261
195591938,0.010196832
183443506,-0.0058397297
6040760,-0.011696157
92872072,-0.00088122784
63453146,-0.003032093
39342684,-0.009611687
136150478,0.00213626
74545876,0.017430473
177131831,-0.03177968
63261504,-0.009032855
26346135,0.0019741836
67559094,-0.00632379
105129028,0.004463731
27493144,-0.0028731595
179809792,0.013126059
61763401,-0.014592992
103025701,0.0000050545395
138643135,0.0018855148
103403388,0.0000018351462
117902450,0.011951516
43780715,0.018473947
147824215,0.011520502
130384125,0.013523976
155240356,0.006808814
57788737,0.015645415
118083391,0.013824413
41837542,-0.0022925392
118327268,-0.007061312
162108137,-0.016505858
49532599,0.005515501
102755253,0.0000040419895
11317494,-0.006224034
133719256,-0.0067434763
127286565,-0.008325542
178978010,0.0093579125
134452989,-0.011707256
188654172,0.0029227824
13244836,-0.020988982
596014,0.026070224
102501771,0.0000043328982
178000296,0.009833803
5449806,-0.012117401
182103816,0.008971912
48272276,-0.012773085
109474039,-0.008209213
57932911,0.002373047
141692578,0.010604779
155477611,-0.006623992
158062658,-0.0024703257
151303664,0.0073653883
188020875,-0.007531028
162594470,0.013647753
172647925,0.0023341577
53528452,-0.008493059
59054925,-0.0064223385
49480536,0.0012629154
47994467,0.0003374588
1419682,-0.012996755
95211921,-0.01764839
32577858,-0.008630821
185804982,-0.0054776696
12159913,0.008867345
151500458,0.0016430815
102836817,0.0000032563141
60264011,-0.0034965326
103588007,-0.00000012054623
102556007,-0.0000069949765
172997325,0.0014111028
141974944,0.0022587248
14565286,-0.022711579
10505634,0.0010309009
164227516,-0.016169101
112366420,-0.0005412221
9250142,0.00643352
140195006,-0.0021285822
137077090,0.005586988
133347336,0.0059617637
80740873,0.008024986
186869789,0.016802646
85848050,0.009539676
16094763,-0.023585517
128994948,-0.0062934277
137731181,-0.0060965056
170795346,0.011989706
141089197,-0.0010070776
177698952,-0.0078004734
74677167,-0.0028167362
151236389,0.012420449
159635638,-0.008517808
152849759,-0.00704444
85565457,0.0044123563
139039500,0.0030392057
119250739,0.006475898
36353531,-0.02131161
102755485,-0.00000030887833
102436662,-0.00000030476392
169318005,0.008571746
104176147,-0.00000022379317
104133584,0.00000027748357
115817573,0.00021028711
139554389,-0.012478647
85004837,-0.0035389264
185657467,-0.005954155
25119174,-0.007756919
88221752,0.0076764356
38030260,-0.0044718455
122890070,0.00022521026
3852194,-0.01183887
173891880,-0.0039098556
5244482,-0.022255125
84220953,0.0029005983
133334075,0.00481828
107461424,0.0027189492
183415020,0.00016411401
122307568,-0.0029227072
103024941,0.0000050545395
72557293,-0.008040427
10529932,-0.0019525471
91039560,0.005020117
142467348,-0.012382614
114516774,-0.009279845
21184328,0.0006910908
147967493,-0.0076283463
1287940,-0.015363136
41502872,-0.010398154
89256677,-0.0067366604
113892526,0.0044541196
120847579,0.00071055134
13841127,0.0066308687
177918711,0.00214199
196737703,-0.026807029
181240376,0.0077735027
185353336,0.0012932004
49990344,-0.0064535425
147280392,0.006998805
54382080,0.018338457
4723605,0.017307809
99800199,-0.0040389593
169702622,0.022257412
75682863,0.010347572
8843911,-0.012898781
61514378,0.007615187
8205882,0.0046883733
168869648,0.008509501
52677821,-0.0027343072
1968540,-0.0063340887
193611020,-0.0056653908
101852428,-0.0008847961
189231612,0.014357778
51460202,-0.00033099437
187596738,0.014942548
18946958,-0.013149336
101722662,-0.00000026590237
176210702,-0.003433433
99578302,-0.014628617
189956813,0.0151786385
162760321,0.01141717
11763306,0.011844441
152302032,0.00023632485
139897137,0.022714946
10800506,-0.0021856667
157954156,-0.0044025513
103740243,0.000000010485565
138857486,-0.011310307
123773273,0.010975129
34313743,-0.0069841
105498427,-0.0059183324
96143361,-0.005138264
181323751,-0.024709834
130004911,0.029726088
197344580,-0.019054929
77221764,0.0060565844
5990288,0.01459508
139196038,0.0012254673
177560211,-0.01412752
84580925,0.005903994
659314,-0.00809843
16536128,-0.020941958
142985166,-0.01120569
158784134,-0.018729236
96040629,0.0014762479
131580213,-0.010814136
131525563,-0.02115394
32345608,0.009103467
199158159,0.0072592944
103798147,-0.00000058528235
101382745,-0.000000083982975
103569762,0.0000023221544
162418220,0.013921739
104696022,-0.004612764
60248211,-0.0058745635
77315192,-0.0022833135
24968141,0.016857985
75588616,0.009128243
103555624,0.0000030638366
9163925,-0.006672749
186106581,-0.006171495
186797821,0.0091658505
102542307,0.0000071890763
72076560,-0.020846494
102460815,0.000007795891
185375554,0.0005901962
103554387,0.0000003643748
108654258,-0.0028632863
140429055,0.0046442365
71659910,0.010857284
179068282,0.0015918139
103987147,-0.0000008342457
102625398,0.0000029049413
103404000,0.000000000049820592
152110272,0.006559103
102944747,0.0000048012485
102610638,0.0000004429474
102542649,0.0000020715086
184644328,0.0045834994
159001748,-0.0130328685
84442298,-0.0019001169
4962543,-0.010409106
40095214,-0.0007940604
144610680,-0.0131774945
162936723,0.0124502955
103599892,-0.00010009582
199178955,0.00022042196
133290424,-0.009395445
57390231,-0.00024012178
68817785,-0.009807157
103323124,-0.0000036303752
102595671,0.000005276
13590426,-0.004631877
81131787,0.004213617
164099097,0.008856606
74269200,0.009141851
160407956,-0.0055117724
162451773,-0.0019712162
105818101,0.0045021563
185451675,0.0025369953
4402376,0.0056014257
128094477,-0.0069355583
183498452,-0.0012750713
132632984,-0.008875511
35467981,0.018239666
102367558,-0.00000012054623
57210676,0.00077727664
106911837,0.008884015
142581444,-0.0009591202
30653604,-0.018855354
73958328,0.009416393
40515643,0.004834762
36640525,0.0027722418
125318017,-0.008365687
129422824,-0.0052967505
196618512,-0.0073229806
153089319,0.008307765
159711043,-0.010664246
196768998,-0.01789633
32167627,0.0082425345
181111489,0.006504246
36968426,-0.006745599
113113720,-0.0016207133
112469204,0.008874381
138547030,0.0020602813
42058442,-0.0005537393
61066888,0.013424784
125451947,0.031391058
132151805,-0.0014631675
102846106,-0.00000011660954
6646111,-0.013093989
97869098,0.009846649
195526671,0.002447267
33288302,0.00004872546
127051604,0.0056890105
38319008,-0.010993132
7934533,0.003075255
152002839,0.003401286
145670828,-0.0033363858
104094010,0.0000026659147
7895410,-0.017887296
103323861,-0.0000036888937
85811174,0.002788541
182488180,-0.004376722
31620570,0.0052351085
90393139,-0.0073778722
170032436,0.01991082
79669321,-0.014205403
35330740,0.0004020832
31835403,0.0058208937
118840643,-0.01283185
168731784,0.0006055029
122374681,-0.00764704
156864974,-0.0004073194
179292913,0.014077273
131983274,0.004807821
63747892,0.013402872
19315503,-0.0034897234
133549491,0.014053069
75091562,-0.0002563571
12978010,0.01219729
65256324,-0.023530247
189503108,0.0026663074
124062472,0.0067183506
8285405,0.004434725
102620404,0.00000047145537
171293816,0.005156707
71306349,-0.022594396
27515206,-0.008488409
75096287,0.020050414
144652046,0.0065871007
123862781,0.006283598
101463998,0.00000019486895
52336401,-0.0057783118
55302234,-0.018688908
107353773,0.008644566
117934997,-0.005913133
101932243,0.016916316
97679358,0.008793529
29735149,0.027396334
102846261,-0.0000001877016
199138112,0.006574651
178601280,-0.0012628122
139625121,0.0010770549
12507459,-0.017497282
20737256,-0.014581308
